svm_type c_svc
kernel_type rbf
gamma 1.143379830779785E-4
nr_class 10
total_sv 10
rho 0.0 0.0 0.0 0.0 0.0 0.0 0.0 0.0 0.0 0.0 0.0 0.0 0.0 0.0 0.0 0.0 0.0 0.0 0.0 0.0 0.0 0.0 0.0 0.0 0.0 0.0 0.0 0.0 0.0 0.0 0.0 0.0 0.0 0.0 0.0 0.0 0.0 0.0 0.0 0.0 0.0 0.0 0.0 0.0 0.0
label 1 2 3 4 5 6 7 8 9 10
nr_sv 1 1 1 1 1 1 1 1 1 1
SV
1.0 1.0 1.0 1.0 1.0 1.0 1.0 1.0 1.0 2828:1.0 2829:1.0 2830:1.0 2838:1.0 2839:1.0 2954:1.0 2955:1.0 2956:1.0 2957:1.0 2958:1.0 2959:1.0 2965:1.0 2966:1.0 2967:1.0 2968:1.0 3080:1.0 3081:1.0 3082:1.0 3083:1.0 3084:1.0 3085:1.0 3086:1.0 3087:1.0 3088:1.0 3089:1.0 3091:1.0 3092:1.0 3093:1.0 3094:1.0 3095:1.0 3096:1.0 3097:1.0 3098:1.0 3206:1.0 3207:1.0 3208:1.0 3209:1.0 3210:1.0 3212:1.0 3213:1.0 3214:1.0 3215:1.0 3216:1.0 3217:1.0 3218:1.0 3219:1.0 3220:1.0 3221:1.0 3222:1.0 3223:1.0 3224:1.0 3225:1.0 3226:1.0 3227:1.0 3333:1.0 3334:1.0 3335:1.0 3336:1.0 3342:1.0 3343:1.0 3344:1.0 3345:1.0 3346:1.0 3347:1.0 3348:1.0 3350:1.0 3351:1.0 3352:1.0 3353:1.0 3354:1.0 3355:1.0 3356:1.0 3357:1.0 3358:1.0 3461:1.0 3462:1.0 3463:1.0 3464:1.0 3465:1.0 3471:1.0 3472:1.0 3473:1.0 3474:1.0 3475:1.0 3480:1.0 3481:1.0 3482:1.0 3483:1.0 3484:1.0 3485:1.0 3591:1.0 3592:1.0 3593:1.0 3594:1.0 3600:1.0 3601:1.0 3602:1.0 3609:1.0 3610:1.0 3611:1.0 3612:1.0 3613:1.0 3720:1.0 3721:1.0 3980:1.0 3981:1.0 3982:1.0 3983:1.0 3984:1.0 3985:1.0 3986:1.0 3987:1.0 3988:1.0 3989:1.0 3990:1.0 3991:1.0 4105:1.0 4106:1.0 4107:1.0 4108:1.0 4109:1.0 4110:1.0 4111:1.0 4112:1.0 4113:1.0 4114:1.0 4115:1.0 4116:1.0 4117:1.0 4118:1.0 4119:1.0 4120:1.0 4121:1.0 4122:1.0 4232:1.0 4233:1.0 4234:1.0 4235:1.0 4236:1.0 4247:1.0 4248:1.0 4249:1.0 4250:1.0 4251:1.0 4360:1.0 4361:1.0 4362:1.0 4363:1.0 4376:1.0 4377:1.0 4378:1.0 4379:1.0 4487:1.0 4488:1.0 4489:1.0 4490:1.0 4505:1.0 4506:1.0 4507:1.0 4508:1.0 4615:1.0 4616:1.0 4617:1.0 4618:1.0 4633:1.0 4634:1.0 4635:1.0 4636:1.0 4743:1.0 4744:1.0 4745:1.0 4746:1.0 4761:1.0 4762:1.0 4763:1.0 4764:1.0 4871:1.0 4872:1.0 4873:1.0 4874:1.0 4889:1.0 4890:1.0 4891:1.0 4892:1.0 4999:1.0 5000:1.0 5001:1.0 5002:1.0 5017:1.0 5018:1.0 5019:1.0 5020:1.0 5127:1.0 5128:1.0 5129:1.0 5130:1.0 5145:1.0 5146:1.0 5147:1.0 5148:1.0 5255:1.0 5256:1.0 5257:1.0 5258:1.0 5273:1.0 5274:1.0 5275:1.0 5276:1.0 5383:1.0 5384:1.0 5385:1.0 5386:1.0 5401:1.0 5402:1.0 5403:1.0 5404:1.0 5511:1.0 5512:1.0 5513:1.0 5514:1.0 5529:1.0 5530:1.0 5531:1.0 5532:1.0 5639:1.0 5640:1.0 5641:1.0 5642:1.0 5657:1.0 5658:1.0 5659:1.0 5660:1.0 5767:1.0 5768:1.0 5769:1.0 5770:1.0 5785:1.0 5786:1.0 5787:1.0 5788:1.0 5895:1.0 5896:1.0 5897:1.0 5898:1.0 5913:1.0 5914:1.0 5915:1.0 5916:1.0 6023:1.0 6024:1.0 6025:1.0 6026:1.0 6041:1.0 6042:1.0 6043:1.0 6044:1.0 6151:1.0 6152:1.0 6153:1.0 6154:1.0 6169:1.0 6170:1.0 6171:1.0 6172:1.0 6279:1.0 6280:1.0 6281:1.0 6282:1.0 6297:1.0 6298:1.0 6299:1.0 6300:1.0 6407:1.0 6408:1.0 6409:1.0 6410:1.0 6425:1.0 6426:1.0 6427:1.0 6428:1.0 6535:1.0 6536:1.0 6537:1.0 6538:1.0 6553:1.0 6554:1.0 6555:1.0 6556:1.0 6663:1.0 6664:1.0 6665:1.0 6666:1.0 6681:1.0 6682:1.0 6683:1.0 6684:1.0 6791:1.0 6792:1.0 6793:1.0 6794:1.0 6809:1.0 6810:1.0 6811:1.0 6812:1.0 6919:1.0 6920:1.0 6921:1.0 6922:1.0 6937:1.0 6938:1.0 6939:1.0 6940:1.0 
-1.0 1.0 1.0 1.0 1.0 1.0 1.0 1.0 1.0 2828:1.0 2829:1.0 2830:1.0 2831:1.0 2832:1.0 2833:1.0 2834:1.0 2835:1.0 2836:1.0 2837:1.0 2838:1.0 2839:1.0 2953:1.0 2954:1.0 2955:1.0 2956:1.0 2957:1.0 2958:1.0 2959:1.0 2960:1.0 2961:1.0 2962:1.0 2963:1.0 2964:1.0 2965:1.0 2966:1.0 2967:1.0 2968:1.0 2969:1.0 2970:1.0 3080:1.0 3081:1.0 3082:1.0 3083:1.0 3084:1.0 3095:1.0 3096:1.0 3097:1.0 3098:1.0 3099:1.0 3207:1.0 3208:1.0 3209:1.0 3210:1.0 3211:1.0 3224:1.0 3225:1.0 3226:1.0 3227:1.0 3335:1.0 3336:1.0 3337:1.0 3338:1.0 3353:1.0 3354:1.0 3355:1.0 3356:1.0 3463:1.0 3464:1.0 3465:1.0 3466:1.0 3481:1.0 3482:1.0 3483:1.0 3484:1.0 3591:1.0 3592:1.0 3593:1.0 3594:1.0 3609:1.0 3610:1.0 3611:1.0 3612:1.0 3719:1.0 3720:1.0 3721:1.0 3722:1.0 3723:1.0 3737:1.0 3738:1.0 3739:1.0 3740:1.0 3847:1.0 3848:1.0 3849:1.0 3850:1.0 3851:1.0 3852:1.0 3853:1.0 3865:1.0 3866:1.0 3867:1.0 3868:1.0 3975:1.0 3976:1.0 3977:1.0 3978:1.0 3979:1.0 3980:1.0 3981:1.0 3993:1.0 3994:1.0 3995:1.0 3996:1.0 4103:1.0 4104:1.0 4105:1.0 4106:1.0 4108:1.0 4109:1.0 4110:1.0 4121:1.0 4122:1.0 4123:1.0 4124:1.0 4231:1.0 4232:1.0 4233:1.0 4234:1.0 4236:1.0 4237:1.0 4248:1.0 4249:1.0 4250:1.0 4251:1.0 4252:1.0 4359:1.0 4360:1.0 4361:1.0 4362:1.0 4363:1.0 4364:1.0 4365:1.0 4375:1.0 4376:1.0 4377:1.0 4378:1.0 4379:1.0 4488:1.0 4489:1.0 4490:1.0 4491:1.0 4492:1.0 4502:1.0 4503:1.0 4504:1.0 4505:1.0 4506:1.0 4628:1.0 4629:1.0 4630:1.0 4631:1.0 4632:1.0 4633:1.0 4754:1.0 4755:1.0 4756:1.0 4757:1.0 4758:1.0 4759:1.0 4881:1.0 4882:1.0 4883:1.0 4884:1.0 4885:1.0 5007:1.0 5008:1.0 5009:1.0 5010:1.0 5011:1.0 5133:1.0 5134:1.0 5135:1.0 5136:1.0 5137:1.0 5138:1.0 5259:1.0 5260:1.0 5261:1.0 5262:1.0 5263:1.0 5264:1.0 5276:1.0 5385:1.0 5386:1.0 5387:1.0 5388:1.0 5389:1.0 5390:1.0 5402:1.0 5403:1.0 5404:1.0 5511:1.0 5512:1.0 5513:1.0 5514:1.0 5515:1.0 5516:1.0 5529:1.0 5530:1.0 5531:1.0 5532:1.0 5639:1.0 5640:1.0 5641:1.0 5642:1.0 5657:1.0 5658:1.0 5659:1.0 5660:1.0 5767:1.0 5768:1.0 5769:1.0 5770:1.0 5785:1.0 5786:1.0 5787:1.0 5788:1.0 5895:1.0 5896:1.0 5897:1.0 5898:1.0 5913:1.0 5914:1.0 5915:1.0 5916:1.0 6023:1.0 6024:1.0 6025:1.0 6026:1.0 6041:1.0 6042:1.0 6043:1.0 6044:1.0 6151:1.0 6152:1.0 6153:1.0 6154:1.0 6169:1.0 6170:1.0 6171:1.0 6172:1.0 6279:1.0 6280:1.0 6281:1.0 6282:1.0 6296:1.0 6297:1.0 6298:1.0 6299:1.0 6300:1.0 6407:1.0 6408:1.0 6409:1.0 6410:1.0 6424:1.0 6425:1.0 6426:1.0 6427:1.0 6536:1.0 6537:1.0 6538:1.0 6539:1.0 6551:1.0 6552:1.0 6553:1.0 6554:1.0 6555:1.0 6664:1.0 6665:1.0 6666:1.0 6667:1.0 6668:1.0 6678:1.0 6679:1.0 6680:1.0 6681:1.0 6682:1.0 6793:1.0 6794:1.0 6795:1.0 6796:1.0 6797:1.0 6798:1.0 6799:1.0 6800:1.0 6801:1.0 6802:1.0 6803:1.0 6804:1.0 6805:1.0 6806:1.0 6807:1.0 6808:1.0 6809:1.0 6924:1.0 6925:1.0 6926:1.0 6927:1.0 6928:1.0 6929:1.0 6930:1.0 6931:1.0 6932:1.0 6933:1.0 6934:1.0 6935:1.0 
-1.0 -1.0 1.0 1.0 1.0 1.0 1.0 1.0 1.0 2828:1.0 2829:1.0 2830:1.0 2838:1.0 2839:1.0 2954:1.0 2955:1.0 2956:1.0 2957:1.0 2958:1.0 2959:1.0 2965:1.0 2966:1.0 2967:1.0 2968:1.0 3080:1.0 3081:1.0 3082:1.0 3083:1.0 3084:1.0 3085:1.0 3086:1.0 3087:1.0 3088:1.0 3089:1.0 3091:1.0 3092:1.0 3093:1.0 3094:1.0 3095:1.0 3096:1.0 3097:1.0 3098:1.0 3206:1.0 3207:1.0 3208:1.0 3209:1.0 3210:1.0 3212:1.0 3213:1.0 3214:1.0 3215:1.0 3216:1.0 3217:1.0 3218:1.0 3219:1.0 3220:1.0 3221:1.0 3222:1.0 3223:1.0 3224:1.0 3225:1.0 3226:1.0 3227:1.0 3333:1.0 3334:1.0 3335:1.0 3336:1.0 3342:1.0 3343:1.0 3344:1.0 3345:1.0 3346:1.0 3347:1.0 3348:1.0 3350:1.0 3351:1.0 3352:1.0 3353:1.0 3354:1.0 3355:1.0 3356:1.0 3357:1.0 3358:1.0 3461:1.0 3462:1.0 3463:1.0 3464:1.0 3465:1.0 3471:1.0 3472:1.0 3473:1.0 3474:1.0 3475:1.0 3480:1.0 3481:1.0 3482:1.0 3483:1.0 3484:1.0 3485:1.0 3591:1.0 3592:1.0 3593:1.0 3594:1.0 3600:1.0 3601:1.0 3602:1.0 3609:1.0 3610:1.0 3611:1.0 3612:1.0 3613:1.0 3720:1.0 3721:1.0 3980:1.0 3981:1.0 3982:1.0 3983:1.0 3984:1.0 3985:1.0 3986:1.0 3987:1.0 3988:1.0 3989:1.0 3990:1.0 3991:1.0 4105:1.0 4106:1.0 4107:1.0 4108:1.0 4109:1.0 4110:1.0 4111:1.0 4112:1.0 4113:1.0 4114:1.0 4115:1.0 4116:1.0 4117:1.0 4118:1.0 4119:1.0 4120:1.0 4121:1.0 4122:1.0 4232:1.0 4233:1.0 4234:1.0 4235:1.0 4236:1.0 4247:1.0 4248:1.0 4249:1.0 4250:1.0 4251:1.0 4360:1.0 4361:1.0 4362:1.0 4363:1.0 4376:1.0 4377:1.0 4378:1.0 4379:1.0 4487:1.0 4488:1.0 4489:1.0 4490:1.0 4505:1.0 4506:1.0 4507:1.0 4508:1.0 4615:1.0 4616:1.0 4617:1.0 4618:1.0 4633:1.0 4634:1.0 4635:1.0 4636:1.0 4743:1.0 4744:1.0 4745:1.0 4746:1.0 4761:1.0 4762:1.0 4763:1.0 4764:1.0 4871:1.0 4872:1.0 4873:1.0 4874:1.0 4889:1.0 4890:1.0 4891:1.0 4892:1.0 4999:1.0 5000:1.0 5001:1.0 5002:1.0 5017:1.0 5018:1.0 5019:1.0 5020:1.0 5127:1.0 5128:1.0 5129:1.0 5130:1.0 5145:1.0 5146:1.0 5147:1.0 5148:1.0 5255:1.0 5256:1.0 5257:1.0 5258:1.0 5273:1.0 5274:1.0 5275:1.0 5276:1.0 5383:1.0 5384:1.0 5385:1.0 5386:1.0 5401:1.0 5402:1.0 5403:1.0 5404:1.0 5511:1.0 5512:1.0 5513:1.0 5514:1.0 5529:1.0 5530:1.0 5531:1.0 5532:1.0 5639:1.0 5640:1.0 5641:1.0 5642:1.0 5647:1.0 5648:1.0 5649:1.0 5650:1.0 5657:1.0 5658:1.0 5659:1.0 5660:1.0 5767:1.0 5768:1.0 5769:1.0 5770:1.0 5774:1.0 5775:1.0 5776:1.0 5777:1.0 5778:1.0 5779:1.0 5785:1.0 5786:1.0 5787:1.0 5788:1.0 5895:1.0 5896:1.0 5897:1.0 5898:1.0 5901:1.0 5902:1.0 5903:1.0 5904:1.0 5905:1.0 5906:1.0 5907:1.0 5913:1.0 5914:1.0 5915:1.0 5916:1.0 6023:1.0 6024:1.0 6025:1.0 6026:1.0 6028:1.0 6029:1.0 6030:1.0 6031:1.0 6032:1.0 6033:1.0 6034:1.0 6041:1.0 6042:1.0 6043:1.0 6044:1.0 6151:1.0 6152:1.0 6153:1.0 6154:1.0 6155:1.0 6156:1.0 6157:1.0 6158:1.0 6169:1.0 6170:1.0 6171:1.0 6172:1.0 6279:1.0 6280:1.0 6281:1.0 6282:1.0 6283:1.0 6284:1.0 6285:1.0 6297:1.0 6298:1.0 6299:1.0 6300:1.0 6407:1.0 6408:1.0 6409:1.0 6410:1.0 6411:1.0 6412:1.0 6425:1.0 6426:1.0 6427:1.0 6428:1.0 6535:1.0 6536:1.0 6537:1.0 6538:1.0 6539:1.0 6540:1.0 6553:1.0 6554:1.0 6555:1.0 6556:1.0 6663:1.0 6664:1.0 6665:1.0 6666:1.0 6667:1.0 6681:1.0 6682:1.0 6683:1.0 6684:1.0 6791:1.0 6792:1.0 6793:1.0 6794:1.0 6809:1.0 6810:1.0 6811:1.0 6812:1.0 6919:1.0 6920:1.0 6921:1.0 6922:1.0 6937:1.0 6938:1.0 6939:1.0 6940:1.0 
-1.0 -1.0 -1.0 1.0 1.0 1.0 1.0 1.0 1.0 2823:1.0 2824:1.0 2825:1.0 2826:1.0 2842:1.0 2860:1.0 2950:1.0 2951:1.0 2952:1.0 2953:1.0 2954:1.0 2969:1.0 2970:1.0 2971:1.0 2987:1.0 2988:1.0 2989:1.0 3077:1.0 3078:1.0 3079:1.0 3080:1.0 3081:1.0 3082:1.0 3096:1.0 3097:1.0 3098:1.0 3099:1.0 3100:1.0 3101:1.0 3114:1.0 3115:1.0 3116:1.0 3117:1.0 3118:1.0 3119:1.0 3204:1.0 3205:1.0 3206:1.0 3207:1.0 3208:1.0 3209:1.0 3210:1.0 3224:1.0 3225:1.0 3226:1.0 3227:1.0 3228:1.0 3229:1.0 3230:1.0 3231:1.0 3232:1.0 3242:1.0 3243:1.0 3244:1.0 3245:1.0 3246:1.0 3247:1.0 3248:1.0 3249:1.0 3250:1.0 3332:1.0 3333:1.0 3334:1.0 3335:1.0 3336:1.0 3337:1.0 3338:1.0 3351:1.0 3352:1.0 3353:1.0 3354:1.0 3355:1.0 3356:1.0 3357:1.0 3358:1.0 3359:1.0 3369:1.0 3370:1.0 3371:1.0 3372:1.0 3373:1.0 3374:1.0 3375:1.0 3376:1.0 3377:1.0 3459:1.0 3460:1.0 3461:1.0 3463:1.0 3464:1.0 3465:1.0 3466:1.0 3478:1.0 3479:1.0 3480:1.0 3483:1.0 3484:1.0 3485:1.0 3486:1.0 3487:1.0 3496:1.0 3497:1.0 3498:1.0 3501:1.0 3502:1.0 3503:1.0 3504:1.0 3505:1.0 3587:1.0 3588:1.0 3591:1.0 3592:1.0 3593:1.0 3594:1.0 3605:1.0 3606:1.0 3607:1.0 3608:1.0 3612:1.0 3613:1.0 3614:1.0 3623:1.0 3624:1.0 3625:1.0 3626:1.0 3630:1.0 3631:1.0 3632:1.0 3715:1.0 3716:1.0 3719:1.0 3720:1.0 3721:1.0 3722:1.0 3733:1.0 3734:1.0 3735:1.0 3751:1.0 3752:1.0 3753:1.0 3843:1.0 3844:1.0 3847:1.0 3848:1.0 3849:1.0 3850:1.0 3861:1.0 3862:1.0 3863:1.0 3864:1.0 3879:1.0 3880:1.0 3881:1.0 3882:1.0 3972:1.0 3973:1.0 3974:1.0 3975:1.0 3976:1.0 3977:1.0 3978:1.0 3991:1.0 3992:1.0 3993:1.0 3994:1.0 4009:1.0 4010:1.0 4011:1.0 4012:1.0 4101:1.0 4102:1.0 4103:1.0 4104:1.0 4105:1.0 4106:1.0 4120:1.0 4121:1.0 4122:1.0 4123:1.0 4138:1.0 4139:1.0 4140:1.0 4141:1.0 4231:1.0 4232:1.0 4233:1.0 4234:1.0 4249:1.0 4250:1.0 4251:1.0 4252:1.0 4267:1.0 4268:1.0 4269:1.0 4270:1.0 4359:1.0 4360:1.0 4361:1.0 4362:1.0 4377:1.0 4378:1.0 4379:1.0 4380:1.0 4395:1.0 4396:1.0 4397:1.0 4398:1.0 4487:1.0 4488:1.0 4489:1.0 4490:1.0 4505:1.0 4506:1.0 4507:1.0 4508:1.0 4523:1.0 4524:1.0 4525:1.0 4526:1.0 4615:1.0 4616:1.0 4617:1.0 4618:1.0 4633:1.0 4634:1.0 4635:1.0 4636:1.0 4651:1.0 4652:1.0 4653:1.0 4654:1.0 4743:1.0 4744:1.0 4745:1.0 4746:1.0 4761:1.0 4762:1.0 4763:1.0 4764:1.0 4779:1.0 4780:1.0 4781:1.0 4782:1.0 4871:1.0 4872:1.0 4873:1.0 4874:1.0 4889:1.0 4890:1.0 4891:1.0 4892:1.0 4907:1.0 4908:1.0 4909:1.0 4910:1.0 4999:1.0 5000:1.0 5001:1.0 5002:1.0 5017:1.0 5018:1.0 5019:1.0 5020:1.0 5035:1.0 5036:1.0 5037:1.0 5038:1.0 5127:1.0 5128:1.0 5129:1.0 5130:1.0 5145:1.0 5146:1.0 5147:1.0 5148:1.0 5163:1.0 5164:1.0 5165:1.0 5166:1.0 5255:1.0 5256:1.0 5257:1.0 5258:1.0 5273:1.0 5274:1.0 5275:1.0 5276:1.0 5291:1.0 5292:1.0 5293:1.0 5294:1.0 5383:1.0 5384:1.0 5385:1.0 5386:1.0 5401:1.0 5402:1.0 5403:1.0 5404:1.0 5419:1.0 5420:1.0 5421:1.0 5422:1.0 5511:1.0 5512:1.0 5513:1.0 5514:1.0 5529:1.0 5530:1.0 5531:1.0 5532:1.0 5547:1.0 5548:1.0 5549:1.0 5550:1.0 5639:1.0 5640:1.0 5641:1.0 5642:1.0 5657:1.0 5658:1.0 5659:1.0 5660:1.0 5675:1.0 5676:1.0 5677:1.0 5678:1.0 5767:1.0 5768:1.0 5769:1.0 5770:1.0 5785:1.0 5786:1.0 5787:1.0 5788:1.0 5803:1.0 5804:1.0 5805:1.0 5806:1.0 5895:1.0 5896:1.0 5897:1.0 5898:1.0 5913:1.0 5914:1.0 5915:1.0 5916:1.0 5931:1.0 5932:1.0 5933:1.0 5934:1.0 6023:1.0 6024:1.0 6025:1.0 6026:1.0 6041:1.0 6042:1.0 6043:1.0 6044:1.0 6059:1.0 6060:1.0 6061:1.0 6062:1.0 6151:1.0 6152:1.0 6153:1.0 6154:1.0 6169:1.0 6170:1.0 6171:1.0 6172:1.0 6187:1.0 6188:1.0 6189:1.0 6190:1.0 6279:1.0 6280:1.0 6281:1.0 6282:1.0 6297:1.0 6298:1.0 6299:1.0 6300:1.0 6315:1.0 6316:1.0 6317:1.0 6318:1.0 6407:1.0 6408:1.0 6409:1.0 6410:1.0 6425:1.0 6426:1.0 6427:1.0 6428:1.0 6443:1.0 6444:1.0 6445:1.0 6446:1.0 6536:1.0 6537:1.0 6538:1.0 6539:1.0 6552:1.0 6553:1.0 6554:1.0 6555:1.0 6556:1.0 6557:1.0 6570:1.0 6571:1.0 6572:1.0 6573:1.0 6664:1.0 6665:1.0 6666:1.0 6667:1.0 6668:1.0 6679:1.0 6680:1.0 6681:1.0 6682:1.0 6683:1.0 6684:1.0 6685:1.0 6686:1.0 6697:1.0 6698:1.0 6699:1.0 6700:1.0 6701:1.0 6793:1.0 6794:1.0 6795:1.0 6796:1.0 6797:1.0 6798:1.0 6799:1.0 6800:1.0 6801:1.0 6802:1.0 6803:1.0 6804:1.0 6805:1.0 6806:1.0 6807:1.0 6808:1.0 6809:1.0 6810:1.0 6811:1.0 6812:1.0 6813:1.0 6814:1.0 6815:1.0 6816:1.0 6817:1.0 6818:1.0 6819:1.0 6820:1.0 6821:1.0 6822:1.0 6823:1.0 6824:1.0 6825:1.0 6826:1.0 6827:1.0 6828:1.0 6924:1.0 6925:1.0 6926:1.0 6927:1.0 6928:1.0 6929:1.0 6930:1.0 6931:1.0 6932:1.0 6933:1.0 6934:1.0 6935:1.0 6936:1.0 6941:1.0 6942:1.0 6943:1.0 6944:1.0 6945:1.0 6946:1.0 6947:1.0 6948:1.0 6949:1.0 6950:1.0 6951:1.0 6952:1.0 6953:1.0 
-1.0 -1.0 -1.0 -1.0 1.0 1.0 1.0 1.0 1.0 2182:1.0 2183:1.0 2184:1.0 2309:1.0 2310:1.0 2311:1.0 2312:1.0 2313:1.0 2437:1.0 2438:1.0 2439:1.0 2440:1.0 2441:1.0 2442:1.0 2567:1.0 2568:1.0 2569:1.0 2570:1.0 2695:1.0 2696:1.0 2697:1.0 2698:1.0 2823:1.0 2824:1.0 2825:1.0 2826:1.0 2835:1.0 2836:1.0 2837:1.0 2838:1.0 2839:1.0 2951:1.0 2952:1.0 2953:1.0 2954:1.0 2962:1.0 2963:1.0 2964:1.0 2965:1.0 2966:1.0 2967:1.0 2968:1.0 3079:1.0 3080:1.0 3081:1.0 3082:1.0 3089:1.0 3090:1.0 3091:1.0 3092:1.0 3093:1.0 3094:1.0 3095:1.0 3096:1.0 3097:1.0 3207:1.0 3208:1.0 3209:1.0 3210:1.0 3217:1.0 3218:1.0 3219:1.0 3223:1.0 3224:1.0 3225:1.0 3335:1.0 3336:1.0 3337:1.0 3338:1.0 3339:1.0 3345:1.0 3346:1.0 3347:1.0 3351:1.0 3352:1.0 3353:1.0 3464:1.0 3465:1.0 3466:1.0 3467:1.0 3468:1.0 3469:1.0 3470:1.0 3471:1.0 3472:1.0 3473:1.0 3474:1.0 3475:1.0 3476:1.0 3477:1.0 3478:1.0 3479:1.0 3480:1.0 3481:1.0 3594:1.0 3595:1.0 3596:1.0 3597:1.0 3598:1.0 3599:1.0 3600:1.0 3601:1.0 3602:1.0 3603:1.0 3604:1.0 3605:1.0 3606:1.0 3607:1.0 3608:1.0 3733:1.0 3734:1.0 3735:1.0 3736:1.0 3737:1.0 3738:1.0 3863:1.0 3864:1.0 3865:1.0 3866:1.0 3867:1.0 3868:1.0 3993:1.0 3994:1.0 3995:1.0 3996:1.0 4121:1.0 4122:1.0 4123:1.0 4124:1.0 4249:1.0 4250:1.0 4251:1.0 4252:1.0 4359:1.0 4360:1.0 4361:1.0 4362:1.0 4377:1.0 4378:1.0 4379:1.0 4380:1.0 4486:1.0 4487:1.0 4488:1.0 4489:1.0 4490:1.0 4505:1.0 4506:1.0 4507:1.0 4508:1.0 4613:1.0 4614:1.0 4615:1.0 4616:1.0 4617:1.0 4618:1.0 4633:1.0 4634:1.0 4635:1.0 4636:1.0 4740:1.0 4741:1.0 4742:1.0 4743:1.0 4744:1.0 4745:1.0 4746:1.0 4761:1.0 4762:1.0 4763:1.0 4764:1.0 4867:1.0 4868:1.0 4869:1.0 4871:1.0 4872:1.0 4873:1.0 4874:1.0 4889:1.0 4890:1.0 4891:1.0 4892:1.0 4995:1.0 4996:1.0 4999:1.0 5000:1.0 5001:1.0 5002:1.0 5017:1.0 5018:1.0 5019:1.0 5020:1.0 5123:1.0 5124:1.0 5127:1.0 5128:1.0 5129:1.0 5130:1.0 5145:1.0 5146:1.0 5147:1.0 5148:1.0 5251:1.0 5252:1.0 5253:1.0 5254:1.0 5255:1.0 5256:1.0 5257:1.0 5258:1.0 5273:1.0 5274:1.0 5275:1.0 5276:1.0 5380:1.0 5381:1.0 5382:1.0 5383:1.0 5384:1.0 5385:1.0 5386:1.0 5401:1.0 5402:1.0 5403:1.0 5404:1.0 5511:1.0 5512:1.0 5513:1.0 5514:1.0 5529:1.0 5530:1.0 5531:1.0 5532:1.0 5639:1.0 5640:1.0 5641:1.0 5642:1.0 5657:1.0 5658:1.0 5659:1.0 5660:1.0 5767:1.0 5768:1.0 5769:1.0 5770:1.0 5785:1.0 5786:1.0 5787:1.0 5788:1.0 5895:1.0 5896:1.0 5897:1.0 5898:1.0 5913:1.0 5914:1.0 5915:1.0 5916:1.0 6023:1.0 6024:1.0 6025:1.0 6026:1.0 6041:1.0 6042:1.0 6043:1.0 6044:1.0 6151:1.0 6152:1.0 6153:1.0 6154:1.0 6161:1.0 6162:1.0 6169:1.0 6170:1.0 6171:1.0 6172:1.0 6279:1.0 6280:1.0 6281:1.0 6282:1.0 6287:1.0 6288:1.0 6289:1.0 6290:1.0 6291:1.0 6292:1.0 6297:1.0 6298:1.0 6299:1.0 6300:1.0 6407:1.0 6408:1.0 6409:1.0 6410:1.0 6414:1.0 6415:1.0 6416:1.0 6417:1.0 6418:1.0 6419:1.0 6420:1.0 6421:1.0 6425:1.0 6426:1.0 6427:1.0 6428:1.0 6535:1.0 6536:1.0 6537:1.0 6538:1.0 6540:1.0 6541:1.0 6542:1.0 6543:1.0 6548:1.0 6549:1.0 6550:1.0 6551:1.0 6553:1.0 6554:1.0 6555:1.0 6556:1.0 6663:1.0 6664:1.0 6665:1.0 6666:1.0 6667:1.0 6668:1.0 6669:1.0 6670:1.0 6677:1.0 6678:1.0 6679:1.0 6680:1.0 6681:1.0 6682:1.0 6683:1.0 6684:1.0 6791:1.0 6792:1.0 6793:1.0 6794:1.0 6795:1.0 6796:1.0 6807:1.0 6808:1.0 6809:1.0 6810:1.0 6811:1.0 6812:1.0 6919:1.0 6920:1.0 6921:1.0 6922:1.0 6923:1.0 6936:1.0 6937:1.0 6938:1.0 6939:1.0 6940:1.0 
-1.0 -1.0 -1.0 -1.0 -1.0 1.0 1.0 1.0 1.0 2828:1.0 2829:1.0 2830:1.0 2838:1.0 2839:1.0 2954:1.0 2955:1.0 2956:1.0 2957:1.0 2958:1.0 2959:1.0 2965:1.0 2966:1.0 2967:1.0 2968:1.0 3080:1.0 3081:1.0 3082:1.0 3083:1.0 3084:1.0 3085:1.0 3086:1.0 3087:1.0 3088:1.0 3089:1.0 3091:1.0 3092:1.0 3093:1.0 3094:1.0 3095:1.0 3096:1.0 3097:1.0 3098:1.0 3206:1.0 3207:1.0 3208:1.0 3209:1.0 3212:1.0 3213:1.0 3214:1.0 3215:1.0 3216:1.0 3217:1.0 3218:1.0 3219:1.0 3220:1.0 3221:1.0 3222:1.0 3223:1.0 3224:1.0 3225:1.0 3226:1.0 3227:1.0 3333:1.0 3334:1.0 3335:1.0 3336:1.0 3341:1.0 3342:1.0 3343:1.0 3344:1.0 3345:1.0 3346:1.0 3347:1.0 3348:1.0 3350:1.0 3351:1.0 3352:1.0 3353:1.0 3354:1.0 3355:1.0 3356:1.0 3357:1.0 3358:1.0 3461:1.0 3462:1.0 3463:1.0 3464:1.0 3471:1.0 3472:1.0 3473:1.0 3474:1.0 3475:1.0 3480:1.0 3481:1.0 3482:1.0 3483:1.0 3484:1.0 3485:1.0 3590:1.0 3591:1.0 3592:1.0 3593:1.0 3600:1.0 3601:1.0 3602:1.0 3609:1.0 3610:1.0 3611:1.0 3612:1.0 3613:1.0 3718:1.0 3719:1.0 3720:1.0 3721:1.0 3722:1.0 3847:1.0 3848:1.0 3849:1.0 3850:1.0 3975:1.0 3976:1.0 3977:1.0 3978:1.0 4103:1.0 4104:1.0 4105:1.0 4106:1.0 4231:1.0 4232:1.0 4233:1.0 4234:1.0 4249:1.0 4250:1.0 4251:1.0 4252:1.0 4359:1.0 4360:1.0 4361:1.0 4362:1.0 4376:1.0 4377:1.0 4378:1.0 4379:1.0 4380:1.0 4487:1.0 4488:1.0 4489:1.0 4490:1.0 4503:1.0 4504:1.0 4505:1.0 4506:1.0 4507:1.0 4508:1.0 4615:1.0 4616:1.0 4617:1.0 4618:1.0 4630:1.0 4631:1.0 4632:1.0 4633:1.0 4634:1.0 4635:1.0 4636:1.0 4743:1.0 4744:1.0 4745:1.0 4746:1.0 4757:1.0 4758:1.0 4759:1.0 4761:1.0 4762:1.0 4763:1.0 4764:1.0 4871:1.0 4872:1.0 4873:1.0 4874:1.0 4885:1.0 4886:1.0 4887:1.0 4889:1.0 4890:1.0 4891:1.0 4892:1.0 4999:1.0 5000:1.0 5001:1.0 5002:1.0 5013:1.0 5014:1.0 5017:1.0 5018:1.0 5019:1.0 5020:1.0 5127:1.0 5128:1.0 5129:1.0 5130:1.0 5141:1.0 5142:1.0 5143:1.0 5144:1.0 5145:1.0 5146:1.0 5147:1.0 5148:1.0 5255:1.0 5256:1.0 5257:1.0 5258:1.0 5269:1.0 5270:1.0 5271:1.0 5272:1.0 5273:1.0 5274:1.0 5275:1.0 5276:1.0 5383:1.0 5384:1.0 5385:1.0 5386:1.0 5399:1.0 5400:1.0 5401:1.0 5402:1.0 5403:1.0 5404:1.0 5511:1.0 5512:1.0 5513:1.0 5514:1.0 5529:1.0 5530:1.0 5531:1.0 5532:1.0 5639:1.0 5640:1.0 5641:1.0 5642:1.0 5657:1.0 5658:1.0 5659:1.0 5660:1.0 5767:1.0 5768:1.0 5769:1.0 5770:1.0 5785:1.0 5786:1.0 5787:1.0 5788:1.0 5895:1.0 5896:1.0 5897:1.0 5898:1.0 5913:1.0 5914:1.0 5915:1.0 5916:1.0 6023:1.0 6024:1.0 6025:1.0 6026:1.0 6041:1.0 6042:1.0 6043:1.0 6044:1.0 6151:1.0 6152:1.0 6153:1.0 6154:1.0 6169:1.0 6170:1.0 6171:1.0 6172:1.0 6279:1.0 6280:1.0 6281:1.0 6282:1.0 6297:1.0 6298:1.0 6299:1.0 6300:1.0 6407:1.0 6408:1.0 6409:1.0 6410:1.0 6425:1.0 6426:1.0 6427:1.0 6428:1.0 6535:1.0 6536:1.0 6537:1.0 6538:1.0 6539:1.0 6552:1.0 6553:1.0 6554:1.0 6555:1.0 6556:1.0 6664:1.0 6665:1.0 6666:1.0 6667:1.0 6668:1.0 6679:1.0 6680:1.0 6681:1.0 6682:1.0 6683:1.0 6793:1.0 6794:1.0 6795:1.0 6796:1.0 6797:1.0 6798:1.0 6799:1.0 6800:1.0 6801:1.0 6802:1.0 6803:1.0 6804:1.0 6805:1.0 6806:1.0 6807:1.0 6808:1.0 6809:1.0 6810:1.0 6923:1.0 6924:1.0 6925:1.0 6926:1.0 6927:1.0 6928:1.0 6929:1.0 6930:1.0 6931:1.0 6932:1.0 6933:1.0 6934:1.0 6935:1.0 6936:1.0 
-1.0 -1.0 -1.0 -1.0 -1.0 -1.0 1.0 1.0 1.0 2828:1.0 2829:1.0 2830:1.0 2838:1.0 2839:1.0 2954:1.0 2955:1.0 2956:1.0 2957:1.0 2958:1.0 2959:1.0 2965:1.0 2966:1.0 2967:1.0 2968:1.0 3080:1.0 3081:1.0 3082:1.0 3083:1.0 3084:1.0 3085:1.0 3086:1.0 3087:1.0 3088:1.0 3089:1.0 3091:1.0 3092:1.0 3093:1.0 3094:1.0 3095:1.0 3096:1.0 3097:1.0 3098:1.0 3206:1.0 3207:1.0 3208:1.0 3209:1.0 3212:1.0 3213:1.0 3214:1.0 3215:1.0 3216:1.0 3217:1.0 3218:1.0 3219:1.0 3220:1.0 3221:1.0 3222:1.0 3223:1.0 3224:1.0 3225:1.0 3226:1.0 3227:1.0 3228:1.0 3229:1.0 3230:1.0 3333:1.0 3334:1.0 3335:1.0 3341:1.0 3342:1.0 3343:1.0 3344:1.0 3345:1.0 3346:1.0 3347:1.0 3348:1.0 3350:1.0 3351:1.0 3352:1.0 3353:1.0 3354:1.0 3355:1.0 3356:1.0 3357:1.0 3358:1.0 3461:1.0 3462:1.0 3463:1.0 3464:1.0 3471:1.0 3472:1.0 3473:1.0 3474:1.0 3475:1.0 3480:1.0 3481:1.0 3482:1.0 3483:1.0 3484:1.0 3485:1.0 3590:1.0 3591:1.0 3592:1.0 3593:1.0 3600:1.0 3601:1.0 3610:1.0 3611:1.0 3612:1.0 3719:1.0 3720:1.0 3721:1.0 3722:1.0 3847:1.0 3848:1.0 3849:1.0 3850:1.0 3975:1.0 3976:1.0 3977:1.0 3978:1.0 4103:1.0 4104:1.0 4105:1.0 4106:1.0 4231:1.0 4232:1.0 4233:1.0 4234:1.0 4249:1.0 4250:1.0 4251:1.0 4252:1.0 4359:1.0 4360:1.0 4361:1.0 4362:1.0 4376:1.0 4377:1.0 4378:1.0 4379:1.0 4380:1.0 4487:1.0 4488:1.0 4489:1.0 4490:1.0 4503:1.0 4504:1.0 4505:1.0 4506:1.0 4507:1.0 4508:1.0 4615:1.0 4616:1.0 4617:1.0 4618:1.0 4630:1.0 4631:1.0 4632:1.0 4633:1.0 4634:1.0 4635:1.0 4636:1.0 4743:1.0 4744:1.0 4745:1.0 4746:1.0 4758:1.0 4759:1.0 4760:1.0 4761:1.0 4762:1.0 4763:1.0 4764:1.0 4871:1.0 4872:1.0 4873:1.0 4874:1.0 4885:1.0 4886:1.0 4887:1.0 4889:1.0 4890:1.0 4891:1.0 4892:1.0 4999:1.0 5000:1.0 5001:1.0 5002:1.0 5013:1.0 5014:1.0 5017:1.0 5018:1.0 5019:1.0 5020:1.0 5127:1.0 5128:1.0 5129:1.0 5130:1.0 5141:1.0 5142:1.0 5145:1.0 5146:1.0 5147:1.0 5148:1.0 5255:1.0 5256:1.0 5257:1.0 5258:1.0 5269:1.0 5270:1.0 5271:1.0 5272:1.0 5273:1.0 5274:1.0 5275:1.0 5276:1.0 5383:1.0 5384:1.0 5385:1.0 5386:1.0 5398:1.0 5399:1.0 5400:1.0 5401:1.0 5402:1.0 5403:1.0 5404:1.0 5511:1.0 5512:1.0 5513:1.0 5514:1.0 5529:1.0 5530:1.0 5531:1.0 5532:1.0 5637:1.0 5638:1.0 5639:1.0 5640:1.0 5641:1.0 5642:1.0 5643:1.0 5644:1.0 5645:1.0 5646:1.0 5647:1.0 5657:1.0 5658:1.0 5659:1.0 5660:1.0 5765:1.0 5766:1.0 5767:1.0 5768:1.0 5769:1.0 5770:1.0 5771:1.0 5772:1.0 5773:1.0 5774:1.0 5775:1.0 5776:1.0 5785:1.0 5786:1.0 5787:1.0 5788:1.0 5892:1.0 5893:1.0 5895:1.0 5896:1.0 5897:1.0 5898:1.0 5903:1.0 5904:1.0 5905:1.0 5913:1.0 5914:1.0 5915:1.0 5916:1.0 6020:1.0 6021:1.0 6023:1.0 6024:1.0 6025:1.0 6026:1.0 6032:1.0 6033:1.0 6041:1.0 6042:1.0 6043:1.0 6044:1.0 6148:1.0 6149:1.0 6151:1.0 6152:1.0 6153:1.0 6154:1.0 6160:1.0 6161:1.0 6162:1.0 6169:1.0 6170:1.0 6171:1.0 6172:1.0 6276:1.0 6277:1.0 6279:1.0 6280:1.0 6281:1.0 6282:1.0 6288:1.0 6289:1.0 6290:1.0 6297:1.0 6298:1.0 6299:1.0 6300:1.0 6404:1.0 6405:1.0 6406:1.0 6407:1.0 6408:1.0 6409:1.0 6410:1.0 6416:1.0 6417:1.0 6418:1.0 6425:1.0 6426:1.0 6427:1.0 6428:1.0 6533:1.0 6534:1.0 6535:1.0 6536:1.0 6537:1.0 6538:1.0 6545:1.0 6546:1.0 6553:1.0 6554:1.0 6555:1.0 6556:1.0 6661:1.0 6662:1.0 6663:1.0 6664:1.0 6665:1.0 6666:1.0 6673:1.0 6674:1.0 6675:1.0 6680:1.0 6681:1.0 6682:1.0 6683:1.0 6790:1.0 6791:1.0 6792:1.0 6793:1.0 6794:1.0 6802:1.0 6803:1.0 6804:1.0 6805:1.0 6806:1.0 6807:1.0 6808:1.0 6809:1.0 6810:1.0 6919:1.0 6920:1.0 6921:1.0 6922:1.0 6931:1.0 6932:1.0 6933:1.0 6934:1.0 6935:1.0 6936:1.0 
-1.0 -1.0 -1.0 -1.0 -1.0 -1.0 -1.0 1.0 1.0 2327:1.0 2328:1.0 2329:1.0 2330:1.0 2454:1.0 2455:1.0 2456:1.0 2457:1.0 2458:1.0 2459:1.0 2583:1.0 2584:1.0 2585:1.0 2586:1.0 2587:1.0 2588:1.0 2712:1.0 2713:1.0 2714:1.0 2715:1.0 2716:1.0 2828:1.0 2829:1.0 2841:1.0 2842:1.0 2843:1.0 2844:1.0 2954:1.0 2955:1.0 2956:1.0 2957:1.0 2958:1.0 2959:1.0 2969:1.0 2970:1.0 2971:1.0 2972:1.0 3080:1.0 3081:1.0 3082:1.0 3083:1.0 3084:1.0 3085:1.0 3086:1.0 3087:1.0 3088:1.0 3097:1.0 3098:1.0 3099:1.0 3100:1.0 3207:1.0 3208:1.0 3209:1.0 3210:1.0 3212:1.0 3213:1.0 3214:1.0 3215:1.0 3216:1.0 3217:1.0 3225:1.0 3226:1.0 3227:1.0 3228:1.0 3333:1.0 3334:1.0 3335:1.0 3336:1.0 3341:1.0 3342:1.0 3343:1.0 3344:1.0 3345:1.0 3346:1.0 3351:1.0 3352:1.0 3353:1.0 3354:1.0 3355:1.0 3461:1.0 3462:1.0 3470:1.0 3471:1.0 3472:1.0 3473:1.0 3474:1.0 3475:1.0 3476:1.0 3477:1.0 3478:1.0 3479:1.0 3480:1.0 3481:1.0 3482:1.0 3589:1.0 3590:1.0 3591:1.0 3592:1.0 3600:1.0 3601:1.0 3602:1.0 3603:1.0 3604:1.0 3605:1.0 3606:1.0 3607:1.0 3608:1.0 3718:1.0 3719:1.0 3720:1.0 3721:1.0 3847:1.0 3848:1.0 3849:1.0 3850:1.0 3975:1.0 3976:1.0 3977:1.0 3978:1.0 4103:1.0 4104:1.0 4105:1.0 4106:1.0 4231:1.0 4232:1.0 4233:1.0 4234:1.0 4249:1.0 4250:1.0 4251:1.0 4252:1.0 4359:1.0 4360:1.0 4361:1.0 4362:1.0 4377:1.0 4378:1.0 4379:1.0 4380:1.0 4487:1.0 4488:1.0 4489:1.0 4490:1.0 4505:1.0 4506:1.0 4507:1.0 4508:1.0 4615:1.0 4616:1.0 4617:1.0 4618:1.0 4633:1.0 4634:1.0 4635:1.0 4636:1.0 4743:1.0 4744:1.0 4745:1.0 4746:1.0 4761:1.0 4762:1.0 4763:1.0 4764:1.0 4871:1.0 4872:1.0 4873:1.0 4874:1.0 4889:1.0 4890:1.0 4891:1.0 4892:1.0 4999:1.0 5000:1.0 5001:1.0 5002:1.0 5017:1.0 5018:1.0 5019:1.0 5020:1.0 5127:1.0 5128:1.0 5129:1.0 5130:1.0 5145:1.0 5146:1.0 5147:1.0 5148:1.0 5255:1.0 5256:1.0 5257:1.0 5258:1.0 5273:1.0 5274:1.0 5275:1.0 5276:1.0 5383:1.0 5384:1.0 5385:1.0 5386:1.0 5401:1.0 5402:1.0 5403:1.0 5404:1.0 5511:1.0 5512:1.0 5513:1.0 5514:1.0 5529:1.0 5530:1.0 5531:1.0 5532:1.0 5639:1.0 5640:1.0 5641:1.0 5642:1.0 5657:1.0 5658:1.0 5659:1.0 5660:1.0 5767:1.0 5768:1.0 5769:1.0 5770:1.0 5785:1.0 5786:1.0 5787:1.0 5788:1.0 5895:1.0 5896:1.0 5897:1.0 5898:1.0 5913:1.0 5914:1.0 5915:1.0 5916:1.0 6023:1.0 6024:1.0 6025:1.0 6026:1.0 6033:1.0 6041:1.0 6042:1.0 6043:1.0 6044:1.0 6151:1.0 6152:1.0 6153:1.0 6154:1.0 6160:1.0 6161:1.0 6162:1.0 6163:1.0 6169:1.0 6170:1.0 6171:1.0 6172:1.0 6279:1.0 6280:1.0 6281:1.0 6282:1.0 6287:1.0 6288:1.0 6289:1.0 6290:1.0 6291:1.0 6292:1.0 6297:1.0 6298:1.0 6299:1.0 6300:1.0 6407:1.0 6408:1.0 6409:1.0 6410:1.0 6413:1.0 6414:1.0 6415:1.0 6416:1.0 6417:1.0 6418:1.0 6419:1.0 6420:1.0 6421:1.0 6422:1.0 6425:1.0 6426:1.0 6427:1.0 6428:1.0 6535:1.0 6536:1.0 6537:1.0 6538:1.0 6540:1.0 6541:1.0 6542:1.0 6543:1.0 6548:1.0 6549:1.0 6550:1.0 6551:1.0 6553:1.0 6554:1.0 6555:1.0 6556:1.0 6663:1.0 6664:1.0 6665:1.0 6666:1.0 6667:1.0 6668:1.0 6669:1.0 6670:1.0 6677:1.0 6678:1.0 6679:1.0 6680:1.0 6681:1.0 6682:1.0 6683:1.0 6684:1.0 6791:1.0 6792:1.0 6793:1.0 6794:1.0 6795:1.0 6796:1.0 6807:1.0 6808:1.0 6809:1.0 6810:1.0 6811:1.0 6812:1.0 6919:1.0 6920:1.0 6921:1.0 6922:1.0 6923:1.0 6936:1.0 6937:1.0 6938:1.0 6939:1.0 6940:1.0 
-1.0 -1.0 -1.0 -1.0 -1.0 -1.0 -1.0 -1.0 1.0 2833:1.0 2834:1.0 2860:1.0 2879:1.0 2959:1.0 2960:1.0 2961:1.0 2962:1.0 2963:1.0 2964:1.0 2987:1.0 2988:1.0 2989:1.0 2990:1.0 3006:1.0 3007:1.0 3008:1.0 3009:1.0 3085:1.0 3086:1.0 3087:1.0 3088:1.0 3089:1.0 3090:1.0 3091:1.0 3092:1.0 3093:1.0 3094:1.0 3114:1.0 3115:1.0 3116:1.0 3117:1.0 3118:1.0 3119:1.0 3133:1.0 3134:1.0 3135:1.0 3136:1.0 3137:1.0 3138:1.0 3210:1.0 3211:1.0 3212:1.0 3213:1.0 3214:1.0 3215:1.0 3216:1.0 3217:1.0 3218:1.0 3219:1.0 3220:1.0 3221:1.0 3222:1.0 3223:1.0 3224:1.0 3225:1.0 3242:1.0 3243:1.0 3244:1.0 3245:1.0 3246:1.0 3247:1.0 3248:1.0 3249:1.0 3250:1.0 3261:1.0 3262:1.0 3263:1.0 3264:1.0 3265:1.0 3266:1.0 3267:1.0 3268:1.0 3269:1.0 3336:1.0 3337:1.0 3338:1.0 3339:1.0 3340:1.0 3341:1.0 3342:1.0 3345:1.0 3346:1.0 3347:1.0 3348:1.0 3349:1.0 3350:1.0 3351:1.0 3352:1.0 3353:1.0 3354:1.0 3355:1.0 3369:1.0 3370:1.0 3371:1.0 3372:1.0 3373:1.0 3374:1.0 3375:1.0 3376:1.0 3377:1.0 3388:1.0 3389:1.0 3390:1.0 3391:1.0 3392:1.0 3393:1.0 3394:1.0 3395:1.0 3396:1.0 3463:1.0 3464:1.0 3465:1.0 3466:1.0 3467:1.0 3468:1.0 3475:1.0 3476:1.0 3477:1.0 3478:1.0 3479:1.0 3480:1.0 3481:1.0 3482:1.0 3483:1.0 3484:1.0 3496:1.0 3497:1.0 3498:1.0 3501:1.0 3502:1.0 3503:1.0 3504:1.0 3505:1.0 3515:1.0 3516:1.0 3517:1.0 3520:1.0 3521:1.0 3522:1.0 3523:1.0 3524:1.0 3591:1.0 3592:1.0 3593:1.0 3594:1.0 3605:1.0 3606:1.0 3607:1.0 3608:1.0 3609:1.0 3610:1.0 3611:1.0 3612:1.0 3623:1.0 3624:1.0 3625:1.0 3626:1.0 3630:1.0 3631:1.0 3632:1.0 3642:1.0 3643:1.0 3644:1.0 3645:1.0 3649:1.0 3650:1.0 3651:1.0 3719:1.0 3720:1.0 3721:1.0 3722:1.0 3736:1.0 3737:1.0 3738:1.0 3739:1.0 3740:1.0 3751:1.0 3752:1.0 3753:1.0 3770:1.0 3771:1.0 3772:1.0 3847:1.0 3848:1.0 3849:1.0 3850:1.0 3865:1.0 3866:1.0 3867:1.0 3868:1.0 3879:1.0 3880:1.0 3881:1.0 3882:1.0 3898:1.0 3899:1.0 3900:1.0 3901:1.0 3975:1.0 3976:1.0 3977:1.0 3978:1.0 3993:1.0 3994:1.0 3995:1.0 3996:1.0 4009:1.0 4010:1.0 4011:1.0 4012:1.0 4028:1.0 4029:1.0 4030:1.0 4031:1.0 4103:1.0 4104:1.0 4105:1.0 4106:1.0 4121:1.0 4122:1.0 4123:1.0 4124:1.0 4138:1.0 4139:1.0 4140:1.0 4141:1.0 4157:1.0 4158:1.0 4159:1.0 4160:1.0 4231:1.0 4232:1.0 4233:1.0 4234:1.0 4249:1.0 4250:1.0 4251:1.0 4252:1.0 4267:1.0 4268:1.0 4269:1.0 4270:1.0 4286:1.0 4287:1.0 4288:1.0 4289:1.0 4359:1.0 4360:1.0 4361:1.0 4362:1.0 4377:1.0 4378:1.0 4379:1.0 4380:1.0 4395:1.0 4396:1.0 4397:1.0 4398:1.0 4414:1.0 4415:1.0 4416:1.0 4417:1.0 4487:1.0 4488:1.0 4489:1.0 4490:1.0 4505:1.0 4506:1.0 4507:1.0 4508:1.0 4523:1.0 4524:1.0 4525:1.0 4526:1.0 4542:1.0 4543:1.0 4544:1.0 4545:1.0 4615:1.0 4616:1.0 4617:1.0 4618:1.0 4633:1.0 4634:1.0 4635:1.0 4636:1.0 4651:1.0 4652:1.0 4653:1.0 4654:1.0 4670:1.0 4671:1.0 4672:1.0 4673:1.0 4743:1.0 4744:1.0 4745:1.0 4746:1.0 4761:1.0 4762:1.0 4763:1.0 4764:1.0 4779:1.0 4780:1.0 4781:1.0 4782:1.0 4798:1.0 4799:1.0 4800:1.0 4801:1.0 4871:1.0 4872:1.0 4873:1.0 4874:1.0 4889:1.0 4890:1.0 4891:1.0 4892:1.0 4907:1.0 4908:1.0 4909:1.0 4910:1.0 4926:1.0 4927:1.0 4928:1.0 4929:1.0 4999:1.0 5000:1.0 5001:1.0 5002:1.0 5017:1.0 5018:1.0 5019:1.0 5020:1.0 5035:1.0 5036:1.0 5037:1.0 5038:1.0 5054:1.0 5055:1.0 5056:1.0 5057:1.0 5127:1.0 5128:1.0 5129:1.0 5130:1.0 5145:1.0 5146:1.0 5147:1.0 5148:1.0 5163:1.0 5164:1.0 5165:1.0 5166:1.0 5182:1.0 5183:1.0 5184:1.0 5185:1.0 5255:1.0 5256:1.0 5257:1.0 5258:1.0 5273:1.0 5274:1.0 5275:1.0 5276:1.0 5291:1.0 5292:1.0 5293:1.0 5294:1.0 5310:1.0 5311:1.0 5312:1.0 5313:1.0 5383:1.0 5384:1.0 5385:1.0 5386:1.0 5401:1.0 5402:1.0 5403:1.0 5404:1.0 5419:1.0 5420:1.0 5421:1.0 5422:1.0 5438:1.0 5439:1.0 5440:1.0 5441:1.0 5511:1.0 5512:1.0 5513:1.0 5514:1.0 5529:1.0 5530:1.0 5531:1.0 5532:1.0 5547:1.0 5548:1.0 5549:1.0 5550:1.0 5566:1.0 5567:1.0 5568:1.0 5569:1.0 5639:1.0 5640:1.0 5641:1.0 5642:1.0 5643:1.0 5644:1.0 5645:1.0 5657:1.0 5658:1.0 5659:1.0 5660:1.0 5675:1.0 5676:1.0 5677:1.0 5678:1.0 5694:1.0 5695:1.0 5696:1.0 5697:1.0 5767:1.0 5768:1.0 5769:1.0 5770:1.0 5771:1.0 5772:1.0 5773:1.0 5774:1.0 5775:1.0 5785:1.0 5786:1.0 5787:1.0 5788:1.0 5803:1.0 5804:1.0 5805:1.0 5806:1.0 5822:1.0 5823:1.0 5824:1.0 5825:1.0 5895:1.0 5896:1.0 5897:1.0 5898:1.0 5902:1.0 5903:1.0 5913:1.0 5914:1.0 5915:1.0 5916:1.0 5931:1.0 5932:1.0 5933:1.0 5934:1.0 5950:1.0 5951:1.0 5952:1.0 5953:1.0 6023:1.0 6024:1.0 6025:1.0 6026:1.0 6030:1.0 6031:1.0 6041:1.0 6042:1.0 6043:1.0 6044:1.0 6059:1.0 6060:1.0 6061:1.0 6062:1.0 6078:1.0 6079:1.0 6080:1.0 6081:1.0 6151:1.0 6152:1.0 6153:1.0 6154:1.0 6158:1.0 6159:1.0 6169:1.0 6170:1.0 6171:1.0 6172:1.0 6187:1.0 6188:1.0 6189:1.0 6190:1.0 6206:1.0 6207:1.0 6208:1.0 6209:1.0 6279:1.0 6280:1.0 6281:1.0 6282:1.0 6285:1.0 6286:1.0 6287:1.0 6297:1.0 6298:1.0 6299:1.0 6300:1.0 6315:1.0 6316:1.0 6317:1.0 6318:1.0 6334:1.0 6335:1.0 6336:1.0 6337:1.0 6407:1.0 6408:1.0 6409:1.0 6410:1.0 6412:1.0 6413:1.0 6414:1.0 6425:1.0 6426:1.0 6427:1.0 6428:1.0 6443:1.0 6444:1.0 6445:1.0 6446:1.0 6462:1.0 6463:1.0 6464:1.0 6465:1.0 6535:1.0 6536:1.0 6537:1.0 6538:1.0 6539:1.0 6540:1.0 6541:1.0 6554:1.0 6555:1.0 6556:1.0 6557:1.0 6570:1.0 6571:1.0 6572:1.0 6573:1.0 6574:1.0 6575:1.0 6589:1.0 6590:1.0 6591:1.0 6592:1.0 6663:1.0 6664:1.0 6665:1.0 6666:1.0 6667:1.0 6668:1.0 6682:1.0 6683:1.0 6684:1.0 6685:1.0 6686:1.0 6697:1.0 6698:1.0 6699:1.0 6700:1.0 6701:1.0 6702:1.0 6703:1.0 6704:1.0 6716:1.0 6717:1.0 6718:1.0 6719:1.0 6720:1.0 6791:1.0 6792:1.0 6793:1.0 6794:1.0 6795:1.0 6811:1.0 6812:1.0 6813:1.0 6814:1.0 6815:1.0 6816:1.0 6817:1.0 6818:1.0 6819:1.0 6820:1.0 6821:1.0 6822:1.0 6823:1.0 6824:1.0 6825:1.0 6826:1.0 6827:1.0 6828:1.0 6829:1.0 6830:1.0 6831:1.0 6832:1.0 6833:1.0 6834:1.0 6835:1.0 6836:1.0 6837:1.0 6838:1.0 6839:1.0 6840:1.0 6841:1.0 6842:1.0 6843:1.0 6844:1.0 6845:1.0 6846:1.0 6847:1.0 6919:1.0 6920:1.0 6921:1.0 6922:1.0 6942:1.0 6943:1.0 6944:1.0 6945:1.0 6946:1.0 6947:1.0 6948:1.0 6949:1.0 6950:1.0 6951:1.0 6952:1.0 6953:1.0 6954:1.0 6960:1.0 6961:1.0 6962:1.0 6963:1.0 6964:1.0 6965:1.0 6966:1.0 6967:1.0 6968:1.0 6969:1.0 6970:1.0 6971:1.0 6972:1.0 
-1.0 -1.0 -1.0 -1.0 -1.0 -1.0 -1.0 -1.0 -1.0 2829:1.0 2838:1.0 2851:1.0 2852:1.0 2956:1.0 2957:1.0 2958:1.0 2965:1.0 2966:1.0 2967:1.0 2977:1.0 2978:1.0 2979:1.0 2980:1.0 2981:1.0 2982:1.0 3083:1.0 3084:1.0 3085:1.0 3086:1.0 3087:1.0 3092:1.0 3093:1.0 3094:1.0 3095:1.0 3096:1.0 3104:1.0 3105:1.0 3106:1.0 3107:1.0 3108:1.0 3109:1.0 3110:1.0 3111:1.0 3210:1.0 3211:1.0 3212:1.0 3213:1.0 3214:1.0 3215:1.0 3216:1.0 3219:1.0 3220:1.0 3221:1.0 3222:1.0 3223:1.0 3224:1.0 3225:1.0 3230:1.0 3231:1.0 3232:1.0 3233:1.0 3234:1.0 3235:1.0 3236:1.0 3237:1.0 3238:1.0 3239:1.0 3240:1.0 3241:1.0 3337:1.0 3338:1.0 3339:1.0 3340:1.0 3343:1.0 3344:1.0 3345:1.0 3346:1.0 3347:1.0 3348:1.0 3351:1.0 3352:1.0 3353:1.0 3354:1.0 3356:1.0 3357:1.0 3358:1.0 3359:1.0 3360:1.0 3363:1.0 3364:1.0 3365:1.0 3366:1.0 3367:1.0 3368:1.0 3369:1.0 3370:1.0 3371:1.0 3464:1.0 3465:1.0 3466:1.0 3467:1.0 3472:1.0 3473:1.0 3474:1.0 3475:1.0 3480:1.0 3481:1.0 3482:1.0 3483:1.0 3484:1.0 3485:1.0 3486:1.0 3487:1.0 3493:1.0 3494:1.0 3495:1.0 3496:1.0 3497:1.0 3498:1.0 3499:1.0 3500:1.0 3501:1.0 3591:1.0 3592:1.0 3593:1.0 3594:1.0 3601:1.0 3602:1.0 3609:1.0 3610:1.0 3611:1.0 3612:1.0 3613:1.0 3623:1.0 3624:1.0 3625:1.0 3626:1.0 3627:1.0 3628:1.0 3629:1.0 3630:1.0 3719:1.0 3720:1.0 3721:1.0 3722:1.0 3729:1.0 3737:1.0 3738:1.0 3739:1.0 3740:1.0 3753:1.0 3754:1.0 3755:1.0 3756:1.0 3757:1.0 3758:1.0 3847:1.0 3848:1.0 3849:1.0 3850:1.0 3865:1.0 3866:1.0 3867:1.0 3868:1.0 3882:1.0 3883:1.0 3884:1.0 3885:1.0 3886:1.0 3975:1.0 3976:1.0 3977:1.0 3978:1.0 3993:1.0 3994:1.0 3995:1.0 3996:1.0 4011:1.0 4012:1.0 4013:1.0 4014:1.0 4103:1.0 4104:1.0 4105:1.0 4106:1.0 4121:1.0 4122:1.0 4123:1.0 4124:1.0 4139:1.0 4140:1.0 4141:1.0 4142:1.0 4231:1.0 4232:1.0 4233:1.0 4234:1.0 4249:1.0 4250:1.0 4251:1.0 4252:1.0 4267:1.0 4268:1.0 4269:1.0 4270:1.0 4359:1.0 4360:1.0 4361:1.0 4362:1.0 4377:1.0 4378:1.0 4379:1.0 4380:1.0 4395:1.0 4396:1.0 4397:1.0 4398:1.0 4487:1.0 4488:1.0 4489:1.0 4490:1.0 4505:1.0 4506:1.0 4507:1.0 4508:1.0 4523:1.0 4524:1.0 4525:1.0 4526:1.0 4615:1.0 4616:1.0 4617:1.0 4618:1.0 4633:1.0 4634:1.0 4635:1.0 4636:1.0 4651:1.0 4652:1.0 4653:1.0 4654:1.0 4743:1.0 4744:1.0 4745:1.0 4746:1.0 4761:1.0 4762:1.0 4763:1.0 4764:1.0 4779:1.0 4780:1.0 4781:1.0 4782:1.0 4871:1.0 4872:1.0 4873:1.0 4874:1.0 4889:1.0 4890:1.0 4891:1.0 4892:1.0 4907:1.0 4908:1.0 4909:1.0 4910:1.0 4999:1.0 5000:1.0 5001:1.0 5002:1.0 5017:1.0 5018:1.0 5019:1.0 5020:1.0 5035:1.0 5036:1.0 5037:1.0 5038:1.0 5127:1.0 5128:1.0 5129:1.0 5130:1.0 5145:1.0 5146:1.0 5147:1.0 5148:1.0 5163:1.0 5164:1.0 5165:1.0 5166:1.0 5255:1.0 5256:1.0 5257:1.0 5258:1.0 5273:1.0 5274:1.0 5275:1.0 5276:1.0 5291:1.0 5292:1.0 5293:1.0 5294:1.0 5383:1.0 5384:1.0 5385:1.0 5386:1.0 5401:1.0 5402:1.0 5403:1.0 5404:1.0 5419:1.0 5420:1.0 5421:1.0 5422:1.0 5511:1.0 5512:1.0 5513:1.0 5514:1.0 5529:1.0 5530:1.0 5531:1.0 5532:1.0 5547:1.0 5548:1.0 5549:1.0 5550:1.0 5639:1.0 5640:1.0 5641:1.0 5642:1.0 5643:1.0 5644:1.0 5645:1.0 5657:1.0 5658:1.0 5659:1.0 5660:1.0 5675:1.0 5676:1.0 5677:1.0 5678:1.0 5767:1.0 5768:1.0 5769:1.0 5770:1.0 5771:1.0 5772:1.0 5773:1.0 5774:1.0 5775:1.0 5785:1.0 5786:1.0 5787:1.0 5788:1.0 5803:1.0 5804:1.0 5805:1.0 5806:1.0 5895:1.0 5896:1.0 5897:1.0 5898:1.0 5902:1.0 5903:1.0 5913:1.0 5914:1.0 5915:1.0 5916:1.0 5931:1.0 5932:1.0 5933:1.0 5934:1.0 6023:1.0 6024:1.0 6025:1.0 6026:1.0 6030:1.0 6031:1.0 6041:1.0 6042:1.0 6043:1.0 6044:1.0 6059:1.0 6060:1.0 6061:1.0 6062:1.0 6151:1.0 6152:1.0 6153:1.0 6154:1.0 6158:1.0 6159:1.0 6169:1.0 6170:1.0 6171:1.0 6172:1.0 6187:1.0 6188:1.0 6189:1.0 6190:1.0 6279:1.0 6280:1.0 6281:1.0 6282:1.0 6285:1.0 6286:1.0 6287:1.0 6297:1.0 6298:1.0 6299:1.0 6300:1.0 6315:1.0 6316:1.0 6317:1.0 6318:1.0 6407:1.0 6408:1.0 6409:1.0 6410:1.0 6412:1.0 6413:1.0 6414:1.0 6425:1.0 6426:1.0 6427:1.0 6428:1.0 6443:1.0 6444:1.0 6445:1.0 6446:1.0 6535:1.0 6536:1.0 6537:1.0 6538:1.0 6539:1.0 6540:1.0 6541:1.0 6553:1.0 6554:1.0 6555:1.0 6556:1.0 6571:1.0 6572:1.0 6573:1.0 6574:1.0 6663:1.0 6664:1.0 6665:1.0 6666:1.0 6667:1.0 6668:1.0 6681:1.0 6682:1.0 6683:1.0 6684:1.0 6699:1.0 6700:1.0 6701:1.0 6702:1.0 6791:1.0 6792:1.0 6793:1.0 6794:1.0 6795:1.0 6809:1.0 6810:1.0 6811:1.0 6812:1.0 6827:1.0 6828:1.0 6829:1.0 6830:1.0 6919:1.0 6920:1.0 6921:1.0 6922:1.0 6937:1.0 6938:1.0 6939:1.0 6940:1.0 6955:1.0 6956:1.0 6957:1.0 6958:1.0 7465:1.0 7466:1.0 7467:1.0 7468:1.0 7563:1.0 7564:1.0 7565:1.0 7566:1.0 7567:1.0 7568:1.0 7569:1.0 7570:1.0 7571:1.0 7572:1.0 7592:1.0 7593:1.0 7594:1.0 7595:1.0 7596:1.0 7597:1.0 7688:1.0 7689:1.0 7690:1.0 7691:1.0 7692:1.0 7693:1.0 7694:1.0 7695:1.0 7696:1.0 7697:1.0 7698:1.0 7699:1.0 7700:1.0 7701:1.0 7702:1.0 7703:1.0 7722:1.0 7723:1.0 7724:1.0 7725:1.0 7726:1.0 7815:1.0 7816:1.0 7817:1.0 7818:1.0 7827:1.0 7828:1.0 7829:1.0 7830:1.0 7831:1.0 7832:1.0 7833:1.0 7834:1.0 7851:1.0 7852:1.0 7853:1.0 7854:1.0 7943:1.0 7958:1.0 7959:1.0 7960:1.0 7961:1.0 7962:1.0 7963:1.0 7964:1.0 7979:1.0 7980:1.0 7981:1.0 7982:1.0 8088:1.0 8089:1.0 8090:1.0 8091:1.0 8092:1.0 8093:1.0 8107:1.0 8108:1.0 8109:1.0 8110:1.0 8217:1.0 8218:1.0 8219:1.0 8220:1.0 8221:1.0 8222:1.0 8235:1.0 8236:1.0 8237:1.0 8238:1.0 8347:1.0 8348:1.0 8349:1.0 8350:1.0 8351:1.0 8352:1.0 8362:1.0 8363:1.0 8364:1.0 8365:1.0 8476:1.0 8477:1.0 8478:1.0 8479:1.0 8480:1.0 8481:1.0 8482:1.0 8489:1.0 8490:1.0 8491:1.0 8492:1.0 8493:1.0 8606:1.0 8607:1.0 8608:1.0 8609:1.0 8610:1.0 8611:1.0 8612:1.0 8613:1.0 8614:1.0 8615:1.0 8616:1.0 8617:1.0 8618:1.0 8619:1.0 8620:1.0 8737:1.0 8738:1.0 8739:1.0 8740:1.0 8741:1.0 8742:1.0 8743:1.0 8744:1.0 8745:1.0 8746:1.0 
