svm_type c_svc
kernel_type rbf
gamma 0.0625
nr_class 10
total_sv 7494
rho 0.07723491610267423 0.07412690631636897 0.07791024192867962 9.174561883611665E-4 0.07772707780343346 0.001280197135260436 -2.0079466784262982E-4 0.07573500986405153 -9.221327510946243E-4 -0.0029364933100730546 5.382431502144676E-4 -0.07595168557091668 3.16493265063816E-4 -0.07595169296416368 -0.07723481507624813 -0.0015678886042488995 -0.07724679310217285 0.0036038720741986595 -0.07283946612100207 0.0034211975335597966 -0.07283945834020618 -0.07412688211126418 0.0014773327847961162 -0.07414572544934604 -0.07662795479795306 -1.450582006936535E-4 -0.07662796073093688 -0.07791019529992659 -0.0022924617828233877 -0.07792010660915398 0.0764445147068747 2.4246953601496886E-4 -0.0010875507846952203 0.07444954577523628 -0.0017794117057634967 -0.07644448202639748 -0.07772715843617177 -0.0020961645305594434 -0.0777372299234526 -0.0014446543700553883 0.07444954801804712 -0.002121024572509388 0.07573500654271888 -7.410897784623356E-4 -0.07574998295831135
label 8 2 1 4 6 0 5 9 7 3
nr_sv 719 780 779 780 720 780 720 719 778 719
SV
1.0 1.0 1.0 1.0 1.0 1.0 0.9999999999191631 1.0 0.9992559854146176 1:47.0 2:100.0 3:27.0 4:81.0 5:57.0 6:37.0 7:26.0 10:23.0 11:56.0 12:53.0 13:100.0 14:90.0 15:40.0 16:98.0 
1.0 1.0 1.0 1.0 1.0 1.0 0.9999999999201624 1.0 0.9992546216316145 1:48.0 2:96.0 3:62.0 4:65.0 5:88.0 6:27.0 7:21.0 9:21.0 10:33.0 11:79.0 12:67.0 13:100.0 14:100.0 16:85.0 
1.0 1.0 1.0 1.0 1.0 1.0 0.9999999999250191 1.0 0.9992546229423523 1:73.0 2:62.0 3:53.0 4:100.0 6:72.0 7:82.0 8:39.0 9:100.0 11:15.0 12:14.0 13:52.0 14:57.0 15:90.0 16:94.0 
1.0 1.0 1.0 1.0 1.0 1.0 0.99944183372698 1.0 0.99925467427166 1:61.0 2:59.0 3:58.0 4:100.0 6:84.0 7:44.0 8:42.0 9:80.0 11:8.0 12:5.0 13:33.0 14:44.0 15:100.0 16:70.0 
1.0 1.0 1.0 1.0 1.0 1.0 0.9999999999558191 1.0 0.9992489060107658 1:32.0 2:59.0 3:53.0 4:100.0 5:100.0 6:95.0 7:79.0 8:46.0 9:48.0 11:93.0 12:19.0 13:58.0 14:55.0 16:63.0 
1.0 1.0 1.0 1.0 1.0 1.0 0.9999999996806266 1.0 0.9993008627751635 1:57.0 2:63.0 3:100.0 4:100.0 6:91.0 7:36.0 8:53.0 9:95.0 10:16.0 11:2.0 13:5.0 14:36.0 15:91.0 16:67.0 
1.0 1.0 1.0 1.0 1.0 1.0 0.9999999999574629 1.0 0.9992367082490423 1:100.0 2:79.0 3:67.0 4:100.0 5:26.0 6:76.0 7:41.0 8:38.0 9:47.0 12:8.0 13:38.0 14:38.0 15:96.0 16:58.0 
1.0 1.0 1.0 1.0 1.0 1.0 0.9999999072258852 1.0 0.9993303286272693 1:94.0 2:79.0 3:40.0 4:100.0 5:13.0 6:65.0 7:59.0 8:30.0 9:67.0 12:17.0 13:45.0 14:52.0 15:100.0 16:83.0 
1.0 1.0 1.0 1.0 1.0 1.0 0.9999999999647355 1.0 0.9992366851432712 2:82.0 3:75.0 4:56.0 5:100.0 6:12.0 7:22.0 9:22.0 10:41.0 11:92.0 12:73.0 13:84.0 14:100.0 15:2.0 16:80.0 
1.0 1.0 1.0 1.0 1.0 1.0 0.9999999997833333 1.0 0.9992915889553912 1:42.0 2:83.0 3:60.0 4:53.0 5:89.0 6:11.0 7:13.0 10:33.0 11:77.0 12:57.0 13:100.0 14:92.0 15:18.0 16:100.0 
1.0 1.0 1.0 1.0 1.0 1.0 0.9999999999668716 1.0 0.9992359257026971 2:88.0 3:24.0 4:68.0 5:76.0 6:33.0 7:43.0 9:29.0 10:32.0 11:84.0 12:66.0 13:100.0 14:100.0 15:8.0 16:89.0 
1.0 1.0 1.0 1.0 1.0 1.0 0.9999999999714548 1.0 0.9992347380663328 1:100.0 2:89.0 3:40.0 4:83.0 5:63.0 6:40.0 7:84.0 10:7.0 11:53.0 12:53.0 13:80.0 14:100.0 15:3.0 16:78.0 
1.0 1.0 1.0 1.0 1.0 1.0 0.9993757332829579 1.0 0.9990489501297556 2:79.0 3:51.0 4:59.0 5:100.0 6:29.0 7:51.0 9:22.0 10:26.0 11:51.0 12:60.0 13:73.0 14:94.0 15:9.0 16:100.0 
1.0 1.0 1.0 1.0 1.0 1.0 0.9999999999843472 1.0 0.9992347616584241 1:54.0 2:93.0 4:88.0 5:54.0 6:46.0 7:70.0 9:5.0 10:9.0 11:54.0 12:52.0 13:100.0 14:96.0 15:7.0 16:100.0 
1.0 1.0 1.0 1.0 1.0 1.0 0.9999999999861902 1.0 0.9992349107273331 1:58.0 2:100.0 4:89.0 5:44.0 6:53.0 7:100.0 8:21.0 9:63.0 11:62.0 12:36.0 13:87.0 14:80.0 15:25.0 16:91.0 
1.0 1.0 1.0 1.0 1.0 1.0 0.9999999999885485 1.0 0.9992349866172275 1:78.0 2:85.0 3:65.0 4:66.0 5:100.0 6:25.0 7:49.0 9:15.0 10:29.0 11:58.0 12:67.0 13:66.0 14:100.0 16:84.0 
1.0 1.0 1.0 1.0 1.0 1.0 0.9999999999895254 1.0 0.9992349954498135 1:84.0 2:93.0 3:20.0 4:100.0 5:22.0 6:50.0 7:44.0 10:22.0 11:54.0 12:59.0 13:100.0 14:95.0 15:27.0 16:97.0 
1.0 1.0 1.0 1.0 1.0 1.0 0.9999999999898965 1.0 0.9992349957740777 1:95.0 2:68.0 3:77.0 4:100.0 5:21.0 6:76.0 7:60.0 8:38.0 9:68.0 12:15.0 13:29.0 14:53.0 15:100.0 16:81.0 
1.0 1.0 1.0 1.0 1.0 1.0 0.9999999999905087 1.0 0.9992346664171641 2:67.0 3:38.0 4:66.0 5:62.0 6:30.0 7:38.0 9:8.0 10:30.0 11:45.0 12:63.0 13:100.0 14:90.0 15:58.0 16:100.0 
1.0 1.0 1.0 1.0 1.0 1.0 0.9999999999905087 1.0 0.9992335621118645 1:100.0 2:75.0 3:95.0 4:100.0 5:24.0 6:81.0 7:38.0 8:44.0 9:69.0 10:8.0 13:45.0 14:33.0 15:96.0 16:64.0 
1.0 1.0 1.0 1.0 1.0 1.0 0.999999999991624 1.0 0.9992335795518272 1:100.0 2:100.0 3:14.0 4:90.0 5:74.0 6:55.0 7:79.0 8:97.0 9:37.0 10:62.0 12:39.0 13:36.0 15:39.0 16:44.0 
1.0 1.0 1.0 1.0 1.0 1.0 0.9999999999919776 1.0 0.9992151849852459 1:86.0 2:100.0 4:95.0 5:32.0 6:56.0 7:100.0 8:22.0 9:30.0 11:5.0 12:36.0 13:80.0 14:68.0 15:52.0 16:99.0 
1.0 1.0 1.0 1.0 1.0 1.0 0.9999999999934768 1.0 0.9992100417047389 2:68.0 3:73.0 4:45.0 5:100.0 6:8.0 7:20.0 9:37.0 10:38.0 11:92.0 12:72.0 13:85.0 14:100.0 15:7.0 16:81.0 
1.0 1.0 1.0 1.0 1.0 1.0 0.9999999999938698 1.0 0.9992077655120812 1:56.0 2:83.0 3:28.0 4:61.0 5:90.0 6:23.0 7:24.0 9:22.0 10:40.0 11:100.0 12:72.0 13:72.0 14:100.0 16:72.0 
1.0 1.0 1.0 1.0 1.0 1.0 0.9999999999945453 1.0 0.9992064462596388 1:76.0 2:85.0 4:100.0 5:16.0 6:63.0 7:81.0 8:31.0 9:69.0 11:6.0 12:25.0 13:34.0 14:64.0 15:100.0 16:95.0 
1.0 1.0 1.0 1.0 1.0 1.0 0.9999999999957883 1.0 0.9992055928760408 1:41.0 2:53.0 3:60.0 4:100.0 5:100.0 6:89.0 7:70.0 8:42.0 9:33.0 11:72.0 12:16.0 13:54.0 14:62.0 16:72.0 
1.0 1.0 1.0 1.0 1.0 1.0 0.9999999999966964 1.0 0.9992046105029198 1:92.0 2:65.0 3:50.0 4:100.0 6:82.0 7:47.0 8:46.0 9:87.0 10:6.0 11:42.0 13:54.0 14:45.0 15:100.0 16:79.0 
1.0 1.0 1.0 1.0 1.0 1.0 0.9999999986910024 1.0 0.9993242688240515 1:9.0 2:32.0 3:60.0 4:62.0 5:80.0 6:100.0 7:6.0 8:93.0 9:36.0 10:56.0 11:100.0 12:27.0 13:57.0 16:25.0 
1.0 1.0 1.0 1.0 1.0 1.0 0.9999999999972806 1.0 0.9991996038636732 2:78.0 3:40.0 4:100.0 5:97.0 6:78.0 7:69.0 8:39.0 9:44.0 11:100.0 12:7.0 13:35.0 14:37.0 15:22.0 16:73.0 
1.0 1.0 1.0 1.0 1.0 1.0 0.9999999999978952 1.0 0.9991952137901678 1:55.0 2:76.0 3:22.0 4:68.0 5:66.0 6:29.0 7:39.0 9:52.0 10:32.0 11:100.0 12:68.0 13:69.0 14:100.0 16:86.0 
1.0 1.0 1.0 1.0 1.0 1.0 0.999999999998131 1.0 0.9991946256012196 1:24.0 2:66.0 3:100.0 4:89.0 5:30.0 6:66.0 7:88.0 8:32.0 9:34.0 12:34.0 13:61.0 14:72.0 15:77.0 16:100.0 
1.0 1.0 1.0 1.0 1.0 1.0 0.999999999998131 1.0 0.999194573397153 1:93.0 2:100.0 3:5.0 4:96.0 5:42.0 6:65.0 7:85.0 8:32.0 9:58.0 12:14.0 13:36.0 14:47.0 15:100.0 16:74.0 
1.0 1.0 1.0 1.0 1.0 1.0 0.9999993558182414 1.0 0.9997219025913106 1:86.0 2:79.0 3:47.0 4:100.0 5:18.0 6:62.0 7:65.0 8:27.0 9:66.0 12:3.0 13:46.0 14:39.0 15:100.0 16:71.0 
1.0 1.0 1.0 1.0 1.0 1.0 0.9999999837531818 1.0 0.9993393708827051 1:86.0 2:78.0 3:48.0 4:100.0 5:14.0 6:72.0 7:19.0 8:35.0 9:2.0 12:29.0 13:49.0 14:59.0 15:100.0 16:88.0 
1.0 1.0 1.0 1.0 1.0 1.0 0.9999999989694219 1.0 0.999320915527455 1:100.0 2:100.0 3:26.0 4:97.0 5:1.0 6:66.0 7:45.0 8:33.0 9:29.0 12:26.0 13:38.0 14:61.0 15:87.0 16:93.0 
1.0 1.0 1.0 1.0 1.0 1.0 0.9999999999981513 1.0 0.9991944041590083 1:73.0 2:98.0 4:95.0 5:16.0 6:60.0 7:84.0 8:29.0 9:70.0 11:45.0 12:35.0 13:100.0 14:69.0 15:88.0 16:100.0 
1.0 1.0 1.0 1.0 1.0 1.0 0.9999999999982339 1.0 0.9991943352092615 1:100.0 2:66.0 3:56.0 4:100.0 5:23.0 6:73.0 7:77.0 8:34.0 9:65.0 12:24.0 13:55.0 14:58.0 15:73.0 16:77.0 
1.0 1.0 1.0 1.0 1.0 1.0 0.9998981606923394 1.0 0.9987673897647827 1:39.0 2:76.0 3:74.0 4:40.0 5:83.0 6:2.0 7:11.0 9:50.0 10:35.0 11:100.0 12:67.0 13:73.0 14:100.0 16:81.0 
1.0 1.0 1.0 1.0 1.0 1.0 0.9999999999982441 1.0 0.9991943027793839 1:72.0 2:83.0 3:49.0 4:100.0 5:61.0 6:58.0 7:82.0 8:17.0 11:25.0 12:33.0 13:100.0 14:61.0 15:75.0 16:92.0 
1.0 1.0 1.0 1.0 1.0 1.0 0.9999999999982443 1.0 0.9991942652111178 1:31.0 2:93.0 3:12.0 4:78.0 5:71.0 6:36.0 7:31.0 9:21.0 10:33.0 11:100.0 12:65.0 13:69.0 14:100.0 16:78.0 
1.0 1.0 1.0 1.0 1.0 1.0 0.9999999999983309 1.0 0.9991941106219323 1:64.0 2:100.0 3:34.0 4:73.0 5:100.0 6:39.0 7:94.0 8:3.0 11:38.0 12:38.0 13:90.0 14:74.0 15:76.0 16:95.0 
1.0 1.0 1.0 1.0 1.0 1.0 0.9999999999984641 1.0 0.9991940587636736 1:77.0 2:60.0 3:77.0 4:100.0 5:10.0 6:90.0 7:15.0 8:49.0 9:40.0 10:8.0 13:32.0 14:34.0 15:100.0 16:55.0 
1.0 1.0 1.0 1.0 1.0 1.0 0.9999999999984712 1.0 0.9991939878781051 1:33.0 2:76.0 3:48.0 4:100.0 5:100.0 6:97.0 7:74.0 8:50.0 9:44.0 10:4.0 11:77.0 13:39.0 14:40.0 16:79.0 
1.0 1.0 1.0 1.0 1.0 1.0 0.9999921464068124 1.0 0.998903413639568 1:86.0 2:71.0 3:72.0 4:100.0 5:32.0 6:75.0 7:55.0 8:35.0 9:42.0 12:17.0 13:48.0 14:45.0 15:100.0 16:70.0 
1.0 1.0 1.0 1.0 1.0 1.0 0.9999999999985445 1.0 0.9991939914025886 1:53.0 2:79.0 3:44.0 4:55.0 5:22.0 6:10.0 9:32.0 10:36.0 11:66.0 12:69.0 13:100.0 14:100.0 15:61.0 16:83.0 
1.0 1.0 1.0 1.0 1.0 1.0 0.9999999999986194 1.0 0.9991939654562101 2:12.0 3:50.0 4:48.0 5:84.0 6:87.0 7:24.0 8:100.0 9:29.0 10:65.0 11:100.0 12:35.0 13:84.0 15:9.0 16:11.0 
1.0 1.0 1.0 1.0 1.0 1.0 0.9999998207527248 1.0 0.9993123616002103 1:45.0 2:70.0 3:77.0 4:35.0 5:58.0 8:10.0 9:48.0 10:42.0 11:100.0 12:71.0 13:84.0 14:100.0 15:26.0 16:81.0 
1.0 1.0 1.0 1.0 1.0 1.0 0.9999999613236534 1.0 0.99934490345824 1:99.0 2:68.0 3:58.0 4:100.0 6:78.0 7:47.0 8:42.0 9:100.0 10:9.0 11:39.0 13:47.0 14:41.0 15:100.0 16:73.0 
1.0 1.0 1.0 1.0 1.0 1.0 0.9999985485228382 1.0 0.999422776031079 1:13.0 2:95.0 3:17.0 4:66.0 5:83.0 6:35.0 7:77.0 10:14.0 11:42.0 12:49.0 13:100.0 14:81.0 15:34.0 16:100.0 
1.0 1.0 1.0 1.0 1.0 1.0 0.9999999999987002 1.0 0.9991939633623288 1:38.0 2:63.0 3:74.0 4:100.0 5:11.0 6:86.0 7:34.0 8:43.0 9:67.0 12:7.0 13:27.0 14:48.0 15:100.0 16:76.0 
1.0 1.0 1.0 1.0 1.0 1.0 0.9999999999987115 1.0 0.99919382593889 1:100.0 2:97.0 3:40.0 4:100.0 6:65.0 7:35.0 8:27.0 9:39.0 11:40.0 12:38.0 13:87.0 14:73.0 15:87.0 16:100.0 
1.0 1.0 1.0 1.0 1.0 1.0 0.9999999999987155 1.0 0.9991938182550875 1:76.0 2:70.0 3:32.0 4:100.0 5:10.0 6:71.0 7:85.0 8:41.0 9:100.0 10:4.0 11:4.0 14:39.0 15:54.0 16:73.0 
1.0 1.0 1.0 1.0 1.0 1.0 0.9999999999987892 1.0 0.9991938487283882 1:59.0 2:85.0 3:25.0 4:71.0 5:88.0 6:35.0 7:79.0 9:7.0 10:29.0 11:62.0 12:64.0 13:100.0 14:100.0 16:99.0 
1.0 1.0 1.0 1.0 1.0 1.0 0.9999999999989997 1.0 0.999193858627256 1:78.0 2:99.0 4:100.0 5:17.0 6:63.0 7:57.0 8:28.0 9:47.0 11:7.0 12:31.0 13:45.0 14:65.0 15:100.0 16:95.0 
1.0 1.0 1.0 1.0 1.0 1.0 0.9994401196767166 1.0 0.9991938601650114 1:14.0 2:99.0 3:16.0 4:67.0 5:67.0 6:33.0 7:74.0 10:17.0 11:44.0 12:48.0 13:100.0 14:77.0 15:39.0 16:100.0 
1.0 1.0 1.0 1.0 1.0 1.0 0.9999999999991108 1.0 0.999193918214786 2:82.0 3:37.0 4:62.0 5:83.0 6:30.0 7:65.0 9:46.0 10:32.0 11:81.0 12:66.0 13:100.0 14:100.0 15:23.0 16:90.0 
1.0 1.0 1.0 1.0 1.0 1.0 0.9999995571397642 1.0 0.9992856154779021 1:57.0 2:68.0 3:52.0 4:100.0 5:4.0 6:71.0 7:48.0 8:37.0 9:63.0 12:13.0 13:27.0 14:49.0 15:100.0 16:78.0 
1.0 1.0 1.0 1.0 1.0 1.0 0.9999999999991593 1.0 0.9991939235753297 1:16.0 2:38.0 3:67.0 4:29.0 5:43.0 7:22.0 8:25.0 9:66.0 10:57.0 11:100.0 12:94.0 13:50.0 14:100.0 16:74.0 
1.0 1.0 1.0 1.0 1.0 1.0 0.9999999999992208 1.0 0.9991939184086358 1:35.0 2:73.0 3:77.0 4:55.0 5:100.0 6:20.0 7:39.0 9:37.0 10:35.0 11:79.0 12:68.0 13:86.0 14:100.0 16:84.0 
1.0 1.0 1.0 1.0 1.0 1.0 0.9999999999992681 1.0 0.9991939251201242 1:75.0 2:100.0 4:89.0 5:70.0 6:61.0 7:100.0 8:26.0 9:32.0 11:7.0 12:31.0 13:63.0 14:63.0 15:95.0 16:99.0 
1.0 1.0 1.0 1.0 1.0 1.0 0.9999999999993061 1.0 0.9991939291784502 1:86.0 2:90.0 3:28.0 4:100.0 6:52.0 7:46.0 8:4.0 9:26.0 11:25.0 12:51.0 13:100.0 14:83.0 15:73.0 16:99.0 
1.0 1.0 1.0 1.0 1.0 1.0 0.9999999999993108 1.0 0.999193929997516 1:62.0 2:76.0 3:23.0 4:100.0 6:67.0 7:67.0 8:35.0 9:89.0 11:22.0 12:22.0 13:56.0 14:60.0 15:100.0 16:96.0 
1.0 1.0 1.0 1.0 1.0 1.0 0.9999999998843725 1.0 0.9992784189228274 1:100.0 2:95.0 3:38.0 4:99.0 5:35.0 6:65.0 7:70.0 8:29.0 9:32.0 12:27.0 13:36.0 14:64.0 15:65.0 16:100.0 
1.0 1.0 1.0 1.0 1.0 1.0 0.9999999999993541 1.0 0.9991939329394437 1:3.0 2:57.0 3:83.0 4:70.0 5:100.0 6:100.0 7:6.0 8:85.0 9:20.0 10:52.0 11:71.0 12:20.0 15:37.0 16:32.0 
1.0 1.0 1.0 1.0 1.0 1.0 0.9999999999994222 1.0 0.9991939375685575 1:82.0 2:100.0 3:35.0 4:78.0 5:97.0 6:39.0 7:94.0 10:1.0 11:39.0 12:42.0 13:100.0 14:81.0 15:40.0 16:94.0 
1.0 1.0 1.0 1.0 1.0 1.0 0.99999999999943 1.0 0.9991723469044274 1:19.0 2:78.0 3:29.0 4:36.0 5:13.0 7:8.0 8:27.0 9:58.0 10:49.0 11:100.0 12:79.0 13:55.0 14:100.0 16:88.0 
1.0 1.0 1.0 1.0 1.0 1.0 0.9999999999994645 1.0 0.9991722929400182 1:55.0 2:40.0 3:100.0 4:64.0 5:92.0 6:100.0 7:48.0 8:81.0 9:45.0 10:40.0 11:55.0 14:4.0 15:11.0 16:38.0 
1.0 1.0 1.0 1.0 1.0 1.0 0.999999901244752 1.0 0.9993294495339506 1:73.0 2:64.0 3:54.0 4:100.0 6:75.0 7:60.0 8:40.0 9:91.0 11:13.0 12:13.0 13:46.0 14:55.0 15:100.0 16:87.0 
1.0 1.0 1.0 1.0 1.0 1.0 0.9999999908135373 1.0 0.9993383866981965 1:79.0 2:100.0 3:14.0 4:81.0 5:49.0 6:39.0 7:100.0 9:32.0 11:52.0 12:55.0 13:71.0 14:100.0 16:71.0 
1.0 1.0 1.0 1.0 1.0 1.0 0.9999999805329054 1.0 0.9993438141347427 1:85.0 2:69.0 3:47.0 4:100.0 6:75.0 7:44.0 8:38.0 9:72.0 11:16.0 12:16.0 13:57.0 14:55.0 15:100.0 16:87.0 
1.0 1.0 1.0 1.0 1.0 1.0 0.9999999999996751 1.0 0.999172148373222 1:45.0 2:74.0 3:23.0 4:68.0 5:92.0 6:35.0 7:77.0 9:45.0 10:28.0 11:100.0 12:64.0 13:95.0 14:100.0 16:80.0 
1.0 1.0 1.0 1.0 1.0 1.0 0.9999999999997308 1.0 0.999172105866345 1:56.0 2:60.0 3:65.0 4:100.0 5:100.0 6:83.0 7:81.0 8:39.0 9:51.0 11:85.0 12:16.0 13:56.0 14:50.0 16:55.0 
1.0 1.0 1.0 1.0 1.0 1.0 0.9999999999997877 1.0 0.9991720564683052 1:64.0 2:92.0 3:3.0 4:100.0 5:25.0 6:62.0 7:44.0 8:23.0 11:1.0 12:30.0 13:55.0 14:58.0 15:100.0 16:90.0 
1.0 1.0 1.0 1.0 1.0 1.0 0.9999999999998019 1.0 0.9991720470714615 1:98.0 2:89.0 3:48.0 4:100.0 5:29.0 6:65.0 7:58.0 8:25.0 9:6.0 12:31.0 13:53.0 14:63.0 15:100.0 16:91.0 
1.0 1.0 1.0 1.0 1.0 1.0 0.9999999999998261 1.0 0.999172012624326 1:47.0 2:68.0 4:70.0 5:53.0 6:34.0 7:85.0 9:22.0 10:12.0 11:53.0 12:59.0 13:100.0 14:100.0 15:46.0 16:88.0 
1.0 1.0 1.0 1.0 1.0 1.0 0.999999999999845 1.0 0.9991719946801461 1:48.0 2:97.0 3:9.0 4:67.0 5:100.0 6:64.0 7:66.0 8:100.0 9:24.0 10:57.0 13:87.0 14:8.0 15:15.0 16:41.0 
1.0 1.0 1.0 1.0 1.0 1.0 0.9999999999998466 1.0 0.9991719801870294 1:100.0 2:95.0 4:78.0 5:93.0 6:59.0 7:81.0 8:100.0 9:62.0 10:44.0 11:2.0 12:5.0 13:96.0 15:48.0 16:48.0 
1.0 1.0 1.0 1.0 1.0 1.0 0.9999999999998728 1.0 0.9991719794368741 1:61.0 2:96.0 4:83.0 5:61.0 6:66.0 7:100.0 8:30.0 9:49.0 11:5.0 12:30.0 13:39.0 14:68.0 15:42.0 16:100.0 
1.0 1.0 1.0 1.0 1.0 1.0 0.9999999999998797 1.0 0.999171966979058 1:47.0 2:69.0 3:42.0 4:100.0 5:6.0 6:75.0 7:54.0 8:39.0 9:47.0 12:21.0 13:42.0 14:58.0 15:100.0 16:90.0 
1.0 1.0 1.0 1.0 1.0 1.0 0.999999997212655 1.0 0.999330373593868 1:73.0 2:96.0 3:50.0 4:70.0 5:38.0 6:24.0 9:29.0 10:41.0 11:70.0 12:77.0 13:100.0 14:100.0 15:46.0 16:78.0 
1.0 1.0 1.0 1.0 1.0 1.0 0.9999999999998921 1.0 0.9991719798884351 1:100.0 2:92.0 3:18.0 4:81.0 5:46.0 6:39.0 7:62.0 9:1.0 10:13.0 11:43.0 12:56.0 13:74.0 14:100.0 16:75.0 
1.0 1.0 1.0 1.0 1.0 1.0 0.999999999999898 1.0 0.9991719653634815 1:50.0 2:100.0 3:5.0 4:82.0 5:71.0 6:42.0 7:91.0 9:7.0 10:18.0 11:78.0 12:56.0 13:100.0 14:92.0 16:90.0 
1.0 1.0 1.0 1.0 1.0 1.0 0.999999999999901 1.0 0.9991719719256594 1:100.0 2:75.0 3:47.0 4:100.0 6:79.0 7:49.0 8:41.0 9:66.0 11:3.0 12:25.0 13:27.0 14:66.0 15:98.0 16:91.0 
1.0 1.0 1.0 1.0 1.0 1.0 0.9999999999999021 1.0 0.9991719825761901 1:77.0 2:72.0 3:51.0 4:100.0 6:77.0 7:61.0 8:42.0 9:94.0 11:22.0 12:2.0 13:33.0 14:45.0 15:100.0 16:76.0 
1.0 1.0 1.0 1.0 1.0 1.0 0.9999999999999143 1.0 0.999172000697183 1:38.0 2:73.0 3:84.0 4:41.0 5:100.0 7:53.0 8:7.0 9:73.0 10:49.0 11:98.0 12:90.0 13:54.0 14:100.0 16:75.0 
1.0 1.0 1.0 1.0 1.0 1.0 0.9999999998345681 1.0 0.9992808497069651 2:23.0 3:63.0 4:46.0 5:100.0 6:87.0 7:50.0 8:100.0 9:34.0 10:57.0 11:86.0 12:23.0 13:57.0 15:9.0 16:22.0 
1.0 1.0 1.0 1.0 1.0 1.0 0.9999999999999228 1.0 0.9991628677517213 1:28.0 2:6.0 3:64.0 4:48.0 5:100.0 6:91.0 7:53.0 8:100.0 9:22.0 10:59.0 11:80.0 12:31.0 13:66.0 16:2.0 
1.0 1.0 1.0 1.0 1.0 1.0 0.9999999999999276 1.0 0.9991627372190366 1:25.0 2:89.0 3:65.0 4:55.0 5:100.0 6:21.0 7:20.0 10:30.0 11:55.0 12:62.0 13:94.0 14:95.0 15:22.0 16:100.0 
1.0 1.0 1.0 1.0 1.0 1.0 0.9999999999999276 1.0 0.9991488220992523 1:43.0 2:82.0 3:85.0 4:44.0 5:100.0 6:3.0 7:17.0 10:34.0 11:62.0 12:64.0 13:90.0 14:100.0 15:7.0 16:95.0 
1.0 1.0 1.0 1.0 1.0 1.0 0.9999999999999318 1.0 0.9991479521266352 1:51.0 2:69.0 3:74.0 4:37.0 5:100.0 7:52.0 8:4.0 9:41.0 10:41.0 11:73.0 12:75.0 13:60.0 14:100.0 16:83.0 
1.0 1.0 1.0 1.0 1.0 1.0 0.9999999999999449 1.0 0.9991458498317923 1:37.0 2:71.0 3:79.0 4:71.0 5:49.0 6:100.0 8:45.0 9:25.0 10:36.0 11:66.0 13:100.0 14:51.0 15:10.0 16:26.0 
1.0 1.0 1.0 1.0 1.0 1.0 0.9999999999999524 1.0 0.9991384229132579 1:96.0 2:100.0 4:98.0 5:22.0 6:54.0 7:87.0 8:15.0 9:51.0 11:25.0 12:39.0 13:100.0 14:73.0 15:38.0 16:94.0 
1.0 1.0 1.0 1.0 1.0 1.0 0.9999992702489182 1.0 0.9995957535971023 1:100.0 2:89.0 3:52.0 4:100.0 5:25.0 6:71.0 7:45.0 8:34.0 9:38.0 12:17.0 13:34.0 14:47.0 15:76.0 16:71.0 
1.0 1.0 1.0 1.0 1.0 1.0 0.9999999999999678 1.0 0.9991336279823619 1:90.0 2:94.0 3:13.0 4:95.0 5:26.0 6:56.0 7:96.0 8:27.0 9:52.0 12:26.0 13:45.0 14:64.0 15:100.0 16:100.0 
1.0 1.0 1.0 1.0 1.0 1.0 0.9999999999999734 1.0 0.9991336280065075 1:66.0 2:90.0 3:6.0 4:55.0 5:100.0 6:73.0 7:45.0 8:100.0 9:33.0 10:46.0 13:89.0 14:11.0 15:13.0 16:23.0 
1.0 1.0 1.0 1.0 1.0 1.0 0.9999999999999805 1.0 0.9991332392004937 1:96.0 2:85.0 3:31.0 4:100.0 5:44.0 6:64.0 7:96.0 8:27.0 9:37.0 12:31.0 13:72.0 14:62.0 15:100.0 16:91.0 
1.0 1.0 1.0 1.0 1.0 1.0 0.9999999471400569 1.0 0.9993420453798018 1:76.0 2:95.0 3:23.0 4:100.0 5:36.0 6:60.0 7:68.0 8:22.0 9:23.0 12:33.0 13:46.0 14:65.0 15:100.0 16:94.0 
1.0 1.0 1.0 1.0 1.0 1.0 0.9999999999999808 1.0 0.9991331927079137 1:32.0 2:52.0 3:22.0 5:100.0 6:2.0 7:78.0 8:63.0 9:35.0 10:37.0 11:14.0 12:100.0 13:71.0 14:92.0 16:73.0 
1.0 1.0 1.0 1.0 1.0 1.0 0.9999999999999812 1.0 0.9991306678966569 1:33.0 2:88.0 3:39.0 4:59.0 5:63.0 6:100.0 8:65.0 9:28.0 10:43.0 11:40.0 13:100.0 14:42.0 15:25.0 16:47.0 
1.0 1.0 1.0 1.0 1.0 1.0 0.999999999643687 1.0 0.9993014669379454 1:69.0 2:97.0 4:90.0 5:24.0 6:45.0 7:81.0 8:3.0 11:46.0 12:45.0 13:100.0 14:89.0 15:20.0 16:100.0 
1.0 1.0 1.0 1.0 1.0 1.0 0.9999999999999831 1.0 0.9991274574939065 1:35.0 2:88.0 3:30.0 4:57.0 5:50.0 6:17.0 7:11.0 10:38.0 11:56.0 12:68.0 13:100.0 14:100.0 15:20.0 16:100.0 
1.0 1.0 1.0 1.0 1.0 1.0 0.9999999999999851 1.0 0.9991274172884769 1:66.0 2:86.0 4:94.0 5:21.0 6:52.0 7:80.0 8:14.0 9:14.0 11:42.0 12:39.0 13:100.0 14:78.0 15:49.0 16:100.0 
1.0 1.0 1.0 1.0 1.0 1.0 0.9999998731954934 1.0 0.9993209137135093 1:78.0 2:67.0 3:65.0 4:100.0 6:75.0 7:56.0 8:37.0 9:84.0 11:2.0 12:10.0 13:35.0 14:52.0 15:100.0 16:86.0 
1.0 1.0 1.0 1.0 1.0 1.0 0.9999999999999878 1.0 0.9991272625805085 2:98.0 3:5.0 4:73.0 5:70.0 6:39.0 7:100.0 9:43.0 10:9.0 11:53.0 12:50.0 13:84.0 14:90.0 15:26.0 16:100.0 
1.0 1.0 1.0 1.0 1.0 1.0 0.9999999999999882 1.0 0.9991148680621504 1:28.0 2:61.0 3:59.0 4:27.0 5:33.0 7:2.0 8:20.0 9:63.0 10:46.0 11:100.0 12:79.0 13:48.0 14:100.0 16:74.0 
1.0 1.0 1.0 1.0 1.0 1.0 0.9999999999999889 1.0 0.9991148488556436 1:34.0 2:71.0 3:16.0 4:65.0 5:17.0 6:23.0 9:1.0 10:42.0 11:44.0 12:75.0 13:100.0 14:100.0 15:46.0 16:91.0 
1.0 1.0 1.0 1.0 1.0 1.0 0.9999999999999896 1.0 0.9991148367450734 1:56.0 2:80.0 3:5.0 4:100.0 5:10.0 6:65.0 7:87.0 8:33.0 9:71.0 12:22.0 13:58.0 14:59.0 15:100.0 16:97.0 
1.0 1.0 1.0 1.0 1.0 1.0 0.9999999999999908 1.0 0.999114822944309 1:45.0 2:72.0 3:18.0 4:100.0 6:64.0 7:64.0 8:33.0 9:98.0 11:7.0 12:5.0 13:26.0 14:41.0 15:100.0 16:68.0 
1.0 1.0 1.0 1.0 1.0 1.0 0.9999999999999913 1.0 0.9991148207762562 1:100.0 2:94.0 3:40.0 4:100.0 6:68.0 7:43.0 8:35.0 9:92.0 10:5.0 11:23.0 13:3.0 14:34.0 15:46.0 16:68.0 
1.0 1.0 1.0 1.0 1.0 1.0 0.9993618648600987 1.0 0.999114821085787 1:63.0 2:65.0 3:35.0 4:100.0 5:1.0 6:69.0 7:61.0 8:36.0 9:79.0 12:15.0 13:33.0 14:54.0 15:100.0 16:86.0 
1.0 1.0 1.0 1.0 1.0 1.0 0.9999999999999929 1.0 0.9991126355851179 1:49.0 2:100.0 3:19.0 4:91.0 5:31.0 6:54.0 7:36.0 8:15.0 11:7.0 12:36.0 13:51.0 14:63.0 15:100.0 16:87.0 
1.0 1.0 1.0 1.0 1.0 1.0 0.9999988696401558 1.0 0.9994500208362986 1:60.0 2:90.0 3:26.0 4:82.0 5:49.0 6:39.0 7:35.0 10:23.0 11:56.0 12:54.0 13:100.0 14:90.0 15:37.0 16:100.0 
1.0 1.0 1.0 1.0 1.0 1.0 0.9999999999999933 1.0 0.9991085058007996 1:40.0 2:100.0 3:7.0 4:84.0 5:72.0 6:47.0 7:100.0 8:5.0 9:22.0 11:52.0 12:45.0 13:84.0 14:90.0 16:94.0 
1.0 1.0 1.0 1.0 1.0 1.0 0.9999999999999937 1.0 0.9991085050034553 1:81.0 2:82.0 4:95.0 5:19.0 6:62.0 7:84.0 8:29.0 9:45.0 11:24.0 12:33.0 13:83.0 14:68.0 15:100.0 16:100.0 
1.0 1.0 1.0 1.0 1.0 1.0 0.9999999999999947 1.0 0.9991084856936201 1:59.0 2:99.0 3:16.0 4:72.0 5:89.0 6:38.0 7:91.0 9:28.0 10:18.0 11:73.0 12:58.0 13:100.0 14:100.0 16:95.0 
1.0 1.0 1.0 1.0 1.0 1.0 0.9999999999999959 1.0 0.9991084858638164 1:3.0 2:92.0 3:12.0 4:64.0 5:60.0 6:28.0 7:18.0 10:32.0 11:67.0 12:55.0 13:100.0 14:91.0 15:33.0 16:100.0 
1.0 1.0 1.0 1.0 1.0 1.0 0.9999999999999962 1.0 0.9990940376817575 1:44.0 2:68.0 3:58.0 4:44.0 5:100.0 6:7.0 9:7.0 10:36.0 11:78.0 12:68.0 13:93.0 14:100.0 15:11.0 16:74.0 
1.0 1.0 1.0 1.0 1.0 1.0 0.9999999999999976 1.0 0.9990931818499584 1:54.0 2:63.0 3:100.0 4:76.0 5:80.0 6:100.0 7:43.0 8:75.0 9:51.0 10:35.0 11:47.0 14:16.0 15:27.0 16:46.0 
1.0 1.0 1.0 1.0 1.0 1.0 0.9994140263484628 1.0 0.9990499917740022 1:88.0 2:78.0 3:34.0 4:100.0 6:73.0 7:45.0 8:38.0 9:78.0 11:21.0 12:11.0 13:50.0 14:49.0 15:100.0 16:82.0 
1.0 1.0 1.0 1.0 1.0 1.0 0.9990837857382556 1.0 0.9988404664445522 1:4.0 2:11.0 3:46.0 4:53.0 5:76.0 6:100.0 7:24.0 8:98.0 9:41.0 10:53.0 11:100.0 12:24.0 13:57.0 16:15.0 
1.0 1.0 1.0 1.0 1.0 1.0 0.9999999988161921 1.0 0.9993211538672244 1:100.0 2:100.0 3:31.0 4:89.0 5:36.0 6:55.0 7:70.0 8:22.0 9:23.0 12:28.0 13:43.0 14:58.0 15:86.0 16:89.0 
1.0 1.0 1.0 1.0 1.0 1.0 0.9999758006903224 1.0 0.9992789332877775 1:100.0 2:90.0 3:27.0 4:100.0 6:66.0 7:56.0 8:33.0 9:81.0 11:10.0 12:16.0 13:33.0 14:57.0 15:98.0 16:84.0 
1.0 1.0 1.0 1.0 1.0 1.0 0.9999999995703908 1.0 0.9993113632020937 1:53.0 2:93.0 3:3.0 4:71.0 5:47.0 6:34.0 7:23.0 10:29.0 11:59.0 12:63.0 13:100.0 14:100.0 15:9.0 16:98.0 
1.0 1.0 1.0 1.0 1.0 1.0 0.9999999999999977 1.0 0.9990926391830806 1:60.0 2:59.0 3:98.0 4:26.0 5:48.0 7:25.0 8:19.0 9:77.0 10:49.0 11:100.0 12:85.0 13:43.0 14:100.0 16:70.0 
1.0 1.0 1.0 1.0 1.0 1.0 0.9999999999999979 1.0 0.9990887241974539 1:54.0 2:64.0 3:30.0 4:96.0 5:15.0 6:61.0 7:69.0 8:27.0 9:52.0 12:30.0 13:48.0 14:66.0 15:100.0 16:100.0 
1.0 1.0 1.0 1.0 1.0 1.0 0.999999999897959 1.0 0.9992738608988891 1:81.0 2:69.0 3:63.0 4:100.0 6:82.0 7:41.0 8:41.0 9:81.0 11:19.0 12:3.0 13:41.0 14:44.0 15:100.0 16:74.0 
1.0 1.0 1.0 1.0 1.0 1.0 0.9999998265836478 1.0 0.999315761579813 1:89.0 2:92.0 3:20.0 4:100.0 5:11.0 6:67.0 7:43.0 8:34.0 9:54.0 12:24.0 13:34.0 14:56.0 15:100.0 16:82.0 
1.0 1.0 1.0 1.0 1.0 1.0 0.999999999999998 1.0 0.9990795311392555 1:77.0 2:87.0 3:87.0 4:57.0 5:100.0 6:19.0 7:13.0 9:28.0 10:35.0 11:83.0 12:69.0 13:94.0 14:100.0 16:79.0 
1.0 1.0 1.0 1.0 1.0 1.0 0.999999999999998 1.0 0.9990795313028161 2:53.0 3:84.0 4:42.0 5:100.0 6:6.0 7:10.0 9:2.0 10:34.0 11:66.0 12:66.0 13:86.0 14:100.0 15:5.0 16:84.0 
1.0 1.0 1.0 1.0 1.0 1.0 0.9999999997388938 1.0 0.999298940166539 1:44.0 2:89.0 3:62.0 4:48.0 5:61.0 8:6.0 9:35.0 10:47.0 11:100.0 12:72.0 13:81.0 14:100.0 15:14.0 16:84.0 
1.0 1.0 1.0 1.0 1.0 1.0 0.9999999999999982 1.0 0.9990793233407826 1:39.0 2:73.0 3:76.0 4:100.0 5:22.0 6:79.0 7:50.0 8:43.0 9:69.0 10:6.0 13:26.0 14:30.0 15:100.0 16:52.0 
1.0 1.0 1.0 1.0 1.0 1.0 0.9999999999999982 1.0 0.9990792910726551 1:87.0 2:100.0 3:31.0 4:76.0 5:100.0 6:91.0 7:38.0 8:80.0 9:22.0 10:62.0 13:73.0 14:9.0 15:33.0 16:64.0 
1.0 1.0 1.0 1.0 1.0 1.0 0.9999999999999986 1.0 0.9990724890310926 1:29.0 2:95.0 3:93.0 4:67.0 5:84.0 6:100.0 7:10.0 8:68.0 10:18.0 11:74.0 13:100.0 14:44.0 15:17.0 16:44.0 
1.0 1.0 1.0 1.0 1.0 1.0 0.9999999999999987 1.0 0.9990724892003645 1:100.0 2:100.0 3:9.0 4:95.0 6:52.0 7:98.0 8:26.0 9:48.0 11:46.0 12:45.0 13:98.0 14:90.0 15:18.0 16:71.0 
1.0 1.0 1.0 1.0 1.0 1.0 0.9999999999999987 1.0 0.9990722552915081 1:57.0 2:53.0 3:100.0 4:85.0 5:62.0 6:100.0 7:51.0 8:61.0 9:79.0 10:24.0 11:29.0 14:30.0 15:61.0 16:56.0 
1.0 1.0 1.0 1.0 1.0 1.0 0.9999962934425657 1.0 0.9992413447585282 2:31.0 3:52.0 4:59.0 5:46.0 6:100.0 7:11.0 8:81.0 9:65.0 10:52.0 11:100.0 12:17.0 13:38.0 15:9.0 16:26.0 
1.0 1.0 1.0 1.0 1.0 1.0 0.9999999999999989 1.0 0.9990722424170745 1:88.0 2:99.0 3:9.0 4:100.0 6:54.0 7:55.0 8:12.0 9:4.0 11:24.0 12:40.0 13:100.0 14:73.0 15:63.0 16:94.0 
1.0 1.0 1.0 1.0 1.0 1.0 0.9999999989027317 1.0 0.9993211671509218 1:72.0 2:100.0 3:5.0 4:97.0 5:53.0 6:52.0 7:93.0 8:6.0 11:11.0 12:43.0 13:100.0 14:77.0 15:58.0 16:99.0 
1.0 1.0 1.0 1.0 1.0 1.0 0.9999999999999991 1.0 0.9990722223146846 1:100.0 2:94.0 3:53.0 4:80.0 5:68.0 6:39.0 7:68.0 11:17.0 12:36.0 13:62.0 14:69.0 15:88.0 16:100.0 
1.0 1.0 1.0 1.0 1.0 1.0 0.9999999999999991 1.0 0.9990716821526132 1:44.0 2:87.0 3:21.0 4:78.0 5:68.0 6:41.0 7:70.0 10:13.0 11:45.0 12:47.0 13:100.0 14:80.0 15:41.0 16:100.0 
1.0 1.0 1.0 1.0 1.0 1.0 0.9999999999999991 1.0 0.9990716729967917 1:83.0 2:95.0 4:86.0 5:56.0 6:49.0 7:100.0 8:13.0 9:17.0 11:48.0 12:40.0 13:99.0 14:79.0 15:37.0 16:100.0 
1.0 1.0 1.0 1.0 1.0 1.0 0.9999999988305524 1.0 0.9993211334524297 1:63.0 2:66.0 3:58.0 4:100.0 5:11.0 6:76.0 7:36.0 8:38.0 9:63.0 12:3.0 13:36.0 14:36.0 15:100.0 16:62.0 
1.0 1.0 1.0 1.0 1.0 1.0 0.9999647428524128 1.0 0.9988420951685729 1:70.0 2:61.0 3:65.0 4:100.0 5:15.0 6:70.0 7:72.0 8:34.0 9:87.0 12:10.0 13:23.0 14:50.0 15:100.0 16:76.0 
1.0 1.0 1.0 1.0 1.0 1.0 0.9999999999999991 1.0 0.9990716718840736 1:42.0 2:98.0 4:69.0 5:54.0 6:36.0 7:71.0 9:14.0 10:16.0 11:54.0 12:54.0 13:100.0 14:91.0 15:39.0 16:100.0 
1.0 1.0 1.0 1.0 1.0 1.0 0.9999999999999992 1.0 0.9990716718866323 1:4.0 2:100.0 3:23.0 4:65.0 5:89.0 6:36.0 7:100.0 9:20.0 10:8.0 11:32.0 12:49.0 13:79.0 14:85.0 16:89.0 
1.0 1.0 1.0 1.0 1.0 1.0 0.9999999997699565 1.0 0.9992969987618097 1:84.0 2:92.0 3:41.0 4:91.0 5:37.0 6:46.0 7:66.0 10:9.0 11:46.0 12:49.0 13:100.0 14:85.0 15:33.0 16:100.0 
1.0 1.0 1.0 1.0 1.0 1.0 0.999965387378376 1.0 0.9989123158812402 1:100.0 2:100.0 3:37.0 4:89.0 5:43.0 6:57.0 7:69.0 8:26.0 9:33.0 12:19.0 13:35.0 14:48.0 15:83.0 16:73.0 
1.0 1.0 1.0 1.0 1.0 1.0 0.9999999999999992 1.0 0.9990716722018167 1:65.0 2:60.0 3:100.0 4:100.0 5:5.0 6:100.0 7:19.0 8:57.0 9:65.0 10:15.0 13:13.0 14:43.0 15:97.0 16:75.0 
1.0 1.0 1.0 1.0 1.0 1.0 0.9999999999999993 1.0 0.9990716729249152 1:19.0 2:93.0 3:9.0 4:74.0 5:100.0 6:94.0 7:25.0 8:100.0 9:1.0 10:49.0 13:93.0 14:16.0 15:46.0 16:60.0 
1.0 1.0 1.0 1.0 1.0 1.0 0.9999999999999993 1.0 0.9990716573382492 1:62.0 2:100.0 3:100.0 4:98.0 5:77.0 6:61.0 7:45.0 8:28.0 9:39.0 11:79.0 12:25.0 13:50.0 14:57.0 16:72.0 
1.0 1.0 1.0 1.0 1.0 1.0 0.9999999999999993 1.0 0.9990581540991835 1:68.0 2:89.0 4:100.0 5:38.0 6:59.0 7:98.0 8:23.0 9:80.0 11:39.0 12:35.0 13:100.0 14:69.0 15:75.0 16:92.0 
1.0 1.0 1.0 1.0 1.0 1.0 0.9999985005385916 1.0 0.999414559599103 2:63.0 3:61.0 4:38.0 5:67.0 7:20.0 8:14.0 9:56.0 10:50.0 11:100.0 12:85.0 13:50.0 14:100.0 15:2.0 16:71.0 
1.0 1.0 1.0 1.0 1.0 1.0 0.9999999999999993 1.0 0.9990581507620409 1:70.0 2:92.0 4:83.0 5:57.0 6:49.0 7:100.0 8:13.0 9:16.0 11:5.0 12:37.0 13:48.0 14:74.0 15:64.0 16:100.0 
1.0 1.0 1.0 1.0 1.0 1.0 0.9999999999999993 1.0 0.9990581451686175 1:50.0 2:90.0 4:89.0 5:62.0 6:47.0 7:88.0 9:5.0 10:4.0 11:42.0 12:51.0 13:100.0 14:95.0 15:11.0 16:100.0 
1.0 1.0 1.0 1.0 1.0 1.0 0.9999999999999993 1.0 0.9990581443633796 1:23.0 2:57.0 3:70.0 4:39.0 5:100.0 7:40.0 8:1.0 9:51.0 10:43.0 11:89.0 12:83.0 13:60.0 14:100.0 16:75.0 
1.0 1.0 1.0 1.0 1.0 1.0 0.9999999999999993 1.0 0.9990581444749791 1:90.0 2:66.0 3:49.0 4:100.0 6:72.0 7:67.0 8:40.0 9:100.0 11:25.0 12:11.0 13:34.0 14:55.0 15:84.0 16:93.0 
1.0 1.0 1.0 1.0 1.0 1.0 0.9999999999999996 1.0 0.9990581447484344 1:46.0 2:79.0 3:37.0 4:60.0 5:59.0 6:22.0 9:19.0 10:35.0 11:78.0 12:64.0 13:100.0 14:97.0 15:29.0 16:100.0 
1.0 1.0 1.0 1.0 1.0 1.0 0.9999999997826449 1.0 0.9992940889894798 1:51.0 2:60.0 3:47.0 4:100.0 5:16.0 6:68.0 7:75.0 8:35.0 9:83.0 12:2.0 13:31.0 14:39.0 15:100.0 16:68.0 
1.0 1.0 1.0 1.0 1.0 1.0 0.9999999999999996 1.0 0.9990575729395283 1:46.0 2:92.0 3:45.0 4:62.0 5:38.0 6:22.0 9:9.0 10:39.0 11:57.0 12:70.0 13:100.0 14:100.0 15:27.0 16:98.0 
1.0 1.0 1.0 1.0 1.0 1.0 0.9999999999999996 1.0 0.9990575698935898 1:51.0 2:78.0 4:68.0 5:47.0 6:34.0 7:100.0 9:19.0 10:7.0 11:63.0 12:43.0 13:85.0 14:82.0 15:9.0 16:100.0 
1.0 1.0 1.0 1.0 1.0 1.0 0.9999999987568848 1.0 0.9993217086679983 1:81.0 2:85.0 3:10.0 4:79.0 5:42.0 6:38.0 7:56.0 10:21.0 11:45.0 12:62.0 13:100.0 14:100.0 15:29.0 16:82.0 
1.0 1.0 1.0 1.0 1.0 1.0 0.9999999999999996 1.0 0.9990575699224863 1:100.0 2:94.0 3:29.0 4:84.0 5:32.0 6:41.0 7:59.0 10:1.0 11:42.0 12:38.0 13:87.0 14:74.0 15:52.0 16:100.0 
1.0 1.0 1.0 1.0 1.0 1.0 0.9999999999999996 1.0 0.9990575671104316 1:12.0 2:14.0 3:56.0 4:48.0 5:100.0 6:84.0 7:53.0 8:100.0 9:32.0 10:65.0 11:80.0 12:30.0 13:62.0 16:17.0 
1.0 1.0 1.0 1.0 1.0 1.0 0.9999999999999997 1.0 0.9990575676990265 1:26.0 2:100.0 3:21.0 4:65.0 5:91.0 6:32.0 7:66.0 9:38.0 10:25.0 11:91.0 12:61.0 13:100.0 14:99.0 16:98.0 
1.0 1.0 1.0 1.0 1.0 1.0 0.999461386739942 1.0 0.9990575680276712 1:55.0 2:92.0 3:17.0 4:78.0 5:55.0 6:38.0 7:50.0 10:21.0 11:56.0 12:55.0 13:100.0 14:92.0 15:25.0 16:100.0 
1.0 1.0 1.0 1.0 1.0 1.0 0.9999999999999997 1.0 0.9990510738055697 1:67.0 2:99.0 3:62.0 4:62.0 5:97.0 6:13.0 9:7.0 10:34.0 11:100.0 12:59.0 13:100.0 14:100.0 15:10.0 16:93.0 
1.0 1.0 1.0 1.0 1.0 1.0 0.9999999999999998 1.0 0.9990510708090603 1:32.0 2:98.0 3:8.0 4:71.0 5:56.0 6:25.0 7:28.0 10:42.0 11:77.0 12:69.0 13:100.0 14:100.0 15:15.0 16:92.0 
1.0 1.0 1.0 1.0 1.0 1.0 0.9999999999999998 1.0 0.9990510674490176 1:42.0 2:85.0 3:85.0 4:100.0 5:100.0 6:68.0 7:76.0 8:32.0 9:45.0 11:50.0 12:1.0 13:38.0 14:40.0 16:65.0 
1.0 1.0 1.0 1.0 1.0 1.0 0.9999999999999998 1.0 0.9990510680126948 2:66.0 3:48.0 4:100.0 5:100.0 6:83.0 7:69.0 8:41.0 9:37.0 11:81.0 12:26.0 13:76.0 14:69.0 15:8.0 16:93.0 
1.0 1.0 1.0 1.0 1.0 1.0 0.9999999999999998 1.0 0.9990510581648219 1:56.0 2:76.0 3:73.0 4:52.0 5:93.0 6:13.0 9:37.0 10:35.0 11:100.0 12:69.0 13:100.0 14:100.0 15:17.0 16:76.0 
1.0 1.0 1.0 1.0 1.0 1.0 0.9999999999999998 1.0 0.9990510514432588 1:86.0 2:62.0 3:64.0 4:100.0 6:80.0 7:40.0 8:44.0 9:92.0 10:12.0 11:29.0 13:41.0 14:37.0 15:100.0 16:65.0 
1.0 1.0 1.0 1.0 1.0 1.0 0.9994093066558597 1.0 0.9990510490534549 1:65.0 2:93.0 3:68.0 4:73.0 5:92.0 6:23.0 7:13.0 10:38.0 11:87.0 12:65.0 13:100.0 14:100.0 15:5.0 16:98.0 
1.0 1.0 1.0 1.0 1.0 1.0 0.9998212979884258 1.0 0.9993370099834483 1:18.0 2:74.0 3:3.0 4:67.0 5:74.0 6:34.0 7:41.0 9:3.0 10:27.0 11:59.0 12:63.0 13:100.0 14:100.0 16:95.0 
1.0 1.0 1.0 1.0 1.0 1.0 0.9999999999999999 1.0 0.9990510484909593 1:66.0 2:98.0 3:22.0 4:67.0 5:100.0 6:88.0 7:17.0 8:100.0 9:11.0 10:52.0 13:79.0 14:13.0 15:22.0 16:53.0 
1.0 1.0 1.0 1.0 1.0 1.0 1.0 1.0 0.9990477926217658 1:41.0 2:100.0 4:70.0 5:76.0 6:37.0 7:100.0 9:10.0 10:5.0 11:41.0 12:43.0 13:97.0 14:79.0 15:27.0 16:91.0 
1.0 1.0 1.0 1.0 1.0 1.0 1.0 1.0 0.999047790186338 1:64.0 2:100.0 3:100.0 4:92.0 5:94.0 6:56.0 7:72.0 8:22.0 9:72.0 11:91.0 12:31.0 13:52.0 14:59.0 16:80.0 
1.0 1.0 1.0 1.0 1.0 1.0 0.9999852779453363 1.0 0.9988867700921709 1:100.0 2:83.0 3:64.0 4:100.0 5:50.0 6:65.0 7:75.0 8:26.0 9:35.0 12:22.0 13:46.0 14:53.0 15:100.0 16:78.0 
1.0 1.0 1.0 1.0 1.0 1.0 1.0 1.0 0.9990389670827482 1:12.0 2:76.0 3:27.0 4:98.0 5:45.0 6:48.0 7:28.0 10:14.0 11:54.0 12:56.0 13:100.0 14:100.0 15:30.0 16:96.0 
1.0 1.0 1.0 1.0 1.0 1.0 1.0 1.0 0.9990389667578508 1:61.0 2:90.0 3:67.0 4:61.0 5:99.0 6:100.0 7:9.0 8:71.0 9:17.0 10:56.0 13:100.0 14:25.0 15:17.0 16:61.0 
1.0 1.0 1.0 1.0 1.0 1.0 1.0 1.0 0.9990389649787343 1:62.0 2:87.0 3:41.0 4:63.0 5:100.0 6:100.0 7:22.0 8:72.0 9:8.0 10:41.0 11:30.0 13:93.0 14:42.0 16:34.0 
1.0 1.0 1.0 1.0 1.0 1.0 1.0 1.0 0.9990389646774473 1:67.0 2:99.0 4:95.0 5:29.0 6:61.0 7:100.0 8:36.0 9:87.0 11:43.0 12:21.0 13:70.0 14:60.0 15:83.0 16:100.0 
1.0 1.0 1.0 1.0 1.0 1.0 1.0 1.0 0.9990389648839877 2:88.0 3:65.0 4:55.0 5:100.0 6:16.0 7:45.0 9:43.0 10:40.0 11:90.0 12:77.0 13:68.0 14:100.0 15:8.0 16:69.0 
1.0 1.0 1.0 1.0 1.0 1.0 1.0 1.0 0.9990389649160424 1:88.0 2:88.0 3:53.0 4:78.0 5:100.0 6:40.0 7:91.0 10:1.0 11:5.0 12:39.0 13:57.0 14:76.0 15:18.0 16:100.0 
1.0 1.0 1.0 1.0 1.0 1.0 1.0 1.0 0.9990389651379801 1:22.0 2:100.0 3:66.0 4:50.0 5:100.0 6:94.0 7:45.0 8:95.0 9:5.0 10:41.0 11:58.0 13:78.0 14:42.0 16:46.0 
1.0 1.0 1.0 1.0 1.0 1.0 1.0 1.0 0.9990389652657252 1:36.0 2:53.0 3:100.0 4:82.0 5:55.0 6:100.0 7:2.0 8:69.0 9:36.0 10:34.0 11:74.0 14:14.0 15:62.0 16:44.0 
1.0 1.0 1.0 1.0 1.0 1.0 1.0 1.0 0.9990384693031236 1:73.0 2:78.0 3:10.0 4:73.0 5:60.0 6:35.0 7:43.0 10:25.0 11:57.0 12:62.0 13:100.0 14:100.0 15:20.0 16:96.0 
1.0 1.0 1.0 1.0 1.0 1.0 0.9994401234673908 1.0 0.9990337215954254 1:67.0 2:100.0 3:18.0 4:81.0 5:44.0 6:39.0 7:35.0 10:28.0 11:53.0 12:57.0 13:100.0 14:88.0 15:42.0 16:94.0 
1.0 1.0 1.0 1.0 1.0 1.0 0.9999999817322318 1.0 0.9993412589152015 1:76.0 2:97.0 3:64.0 4:62.0 5:100.0 6:15.0 7:14.0 10:35.0 11:90.0 12:59.0 13:98.0 14:100.0 16:98.0 
1.0 1.0 1.0 1.0 1.0 1.0 1.0 1.0 0.999038467538495 1:55.0 2:77.0 3:3.0 4:100.0 5:39.0 6:57.0 7:100.0 8:16.0 11:26.0 12:38.0 13:97.0 14:77.0 15:23.0 16:78.0 
1.0 1.0 1.0 1.0 1.0 1.0 0.9994418405816893 1.0 0.999038467562056 1:67.0 2:66.0 3:56.0 4:100.0 5:10.0 6:74.0 7:59.0 8:38.0 9:70.0 12:15.0 13:29.0 14:54.0 15:100.0 16:82.0 
1.0 1.0 1.0 1.0 1.0 1.0 1.0 1.0 0.9990384676027125 1:75.0 2:75.0 3:36.0 4:100.0 5:6.0 6:68.0 7:62.0 8:35.0 9:100.0 12:6.0 13:31.0 14:41.0 15:93.0 16:74.0 
1.0 1.0 1.0 1.0 1.0 1.0 1.0 1.0 0.9990299917959702 1:5.0 2:55.0 3:79.0 4:87.0 5:5.0 6:100.0 7:38.0 8:53.0 9:67.0 10:6.0 13:27.0 14:47.0 15:100.0 16:84.0 
1.0 1.0 1.0 1.0 1.0 1.0 1.0 1.0 0.9990273879189052 1:88.0 2:59.0 3:100.0 4:100.0 5:16.0 6:85.0 7:42.0 8:45.0 9:82.0 10:8.0 13:32.0 14:40.0 15:89.0 16:77.0 
1.0 1.0 1.0 1.0 1.0 1.0 1.0 1.0 0.9989954149157556 1:59.0 2:82.0 3:11.0 4:67.0 5:100.0 6:65.0 7:54.0 8:100.0 9:40.0 10:48.0 12:22.0 13:60.0 15:43.0 16:52.0 
1.0 1.0 1.0 1.0 1.0 1.0 1.0 1.0 0.9989954123430875 1:100.0 2:84.0 3:55.0 4:99.0 5:4.0 6:72.0 7:49.0 8:33.0 9:43.0 12:28.0 13:41.0 14:69.0 15:97.0 16:100.0 
1.0 1.0 1.0 1.0 1.0 1.0 0.9994212395311056 1.0 0.9991750783979282 2:26.0 3:57.0 4:56.0 5:98.0 6:94.0 7:31.0 8:100.0 9:45.0 10:63.0 11:100.0 12:31.0 13:78.0 15:9.0 16:16.0 
1.0 1.0 1.0 1.0 1.0 1.0 1.0 1.0 0.9989954125549511 1:32.0 2:100.0 3:17.0 4:75.0 5:87.0 6:41.0 7:64.0 9:12.0 10:20.0 11:79.0 12:55.0 13:100.0 14:96.0 16:96.0 
1.0 1.0 1.0 1.0 1.0 1.0 0.9999999996428386 1.0 0.9993091780751715 1:37.0 2:100.0 4:60.0 5:94.0 6:94.0 7:3.0 8:89.0 9:29.0 10:54.0 13:100.0 14:28.0 15:8.0 16:38.0 
1.0 1.0 1.0 1.0 1.0 1.0 0.9999999983008636 1.0 0.999325016095082 2:71.0 3:52.0 4:100.0 5:100.0 6:75.0 7:53.0 8:37.0 9:13.0 11:82.0 12:7.0 13:34.0 14:44.0 15:16.0 16:83.0 
1.0 1.0 1.0 1.0 1.0 1.0 1.0 1.0 0.9989940226259276 1:60.0 2:100.0 3:14.0 4:67.0 5:100.0 6:55.0 7:80.0 8:98.0 9:39.0 10:56.0 12:13.0 13:80.0 15:50.0 16:45.0 
1.0 1.0 1.0 1.0 1.0 1.0 1.0 1.0 0.9989734801752993 1:57.0 2:87.0 4:100.0 5:17.0 6:63.0 7:100.0 8:28.0 9:94.0 11:20.0 12:34.0 13:89.0 14:71.0 15:37.0 16:87.0 
1.0 1.0 1.0 1.0 1.0 1.0 1.0 1.0 0.9989731123478692 1:37.0 2:90.0 3:4.0 4:97.0 5:35.0 6:57.0 7:100.0 8:22.0 9:49.0 12:33.0 13:54.0 14:72.0 15:35.0 16:100.0 
1.0 1.0 1.0 1.0 1.0 1.0 1.0 1.0 0.9989731025593657 1:27.0 2:100.0 4:74.0 5:60.0 6:43.0 7:100.0 8:3.0 9:34.0 11:29.0 12:44.0 13:74.0 14:81.0 15:10.0 16:58.0 
1.0 1.0 1.0 1.0 1.0 1.0 1.0 1.0 0.9989730913512392 1:35.0 2:97.0 3:35.0 4:61.0 5:44.0 6:19.0 9:23.0 10:38.0 11:61.0 12:68.0 13:100.0 14:99.0 15:51.0 16:100.0 
1.0 1.0 1.0 1.0 1.0 1.0 1.0 1.0 0.9989730908424468 1:46.0 2:84.0 3:65.0 4:46.0 5:65.0 6:9.0 9:30.0 10:29.0 11:84.0 12:57.0 13:100.0 14:94.0 15:44.0 16:100.0 
1.0 1.0 1.0 1.0 1.0 1.0 1.0 1.0 0.998973081263262 1:35.0 2:86.0 3:56.0 4:65.0 5:100.0 6:27.0 7:23.0 9:6.0 10:28.0 11:65.0 12:64.0 13:98.0 14:100.0 16:85.0 
1.0 1.0 1.0 1.0 1.0 1.0 1.0 1.0 0.9989730809585086 1:98.0 2:98.0 3:34.0 4:96.0 5:8.0 6:59.0 7:63.0 8:27.0 9:34.0 12:32.0 13:42.0 14:70.0 15:100.0 16:100.0 
1.0 1.0 1.0 1.0 1.0 1.0 1.0 1.0 0.9989730803281389 1:100.0 2:100.0 3:21.0 4:86.0 5:45.0 6:47.0 7:86.0 8:11.0 9:3.0 12:33.0 13:65.0 14:65.0 15:99.0 16:96.0 
1.0 1.0 1.0 1.0 1.0 1.0 1.0 1.0 0.9989730802076205 1:48.0 2:97.0 3:7.0 4:76.0 5:22.0 6:35.0 9:5.0 10:31.0 11:49.0 12:65.0 13:100.0 14:95.0 15:52.0 16:100.0 
1.0 1.0 1.0 1.0 1.0 1.0 1.0 1.0 0.9989730704607075 1:61.0 2:95.0 3:39.0 4:68.0 5:100.0 6:100.0 7:45.0 8:76.0 10:45.0 11:10.0 13:90.0 14:36.0 15:21.0 16:50.0 
1.0 1.0 1.0 1.0 1.0 1.0 1.0 1.0 0.9989730699776088 1:25.0 2:46.0 3:100.0 4:31.0 5:80.0 8:9.0 9:38.0 10:45.0 11:89.0 12:78.0 13:54.0 14:100.0 15:20.0 16:68.0 
1.0 1.0 1.0 1.0 1.0 1.0 1.0 1.0 0.9989730697588564 1:32.0 2:90.0 4:64.0 5:66.0 6:29.0 7:79.0 9:12.0 10:26.0 11:60.0 12:67.0 13:100.0 14:100.0 15:16.0 16:79.0 
1.0 1.0 1.0 1.0 1.0 1.0 0.9993771909756818 1.0 0.9989730696431031 1:48.0 2:94.0 4:76.0 5:53.0 6:39.0 7:47.0 9:3.0 10:14.0 11:70.0 12:46.0 13:100.0 14:88.0 15:28.0 16:100.0 
1.0 1.0 1.0 1.0 1.0 1.0 1.0 1.0 0.9989730696687084 1:41.0 2:84.0 3:93.0 4:52.0 5:100.0 6:12.0 7:33.0 9:47.0 10:39.0 11:93.0 12:74.0 13:72.0 14:100.0 16:81.0 
1.0 1.0 1.0 1.0 1.0 1.0 0.9994415336580337 1.0 0.9991532112192792 2:20.0 3:57.0 4:51.0 5:94.0 6:89.0 7:38.0 8:100.0 9:44.0 10:61.0 11:100.0 12:30.0 13:76.0 15:12.0 16:14.0 
1.0 1.0 1.0 1.0 1.0 1.0 0.9994093066558598 1.0 0.9989730697895688 1:78.0 2:79.0 3:40.0 4:100.0 5:6.0 6:71.0 7:16.0 8:33.0 9:16.0 12:32.0 13:46.0 14:58.0 15:100.0 16:80.0 
1.0 1.0 1.0 1.0 1.0 1.0 1.0 1.0 0.998973069795815 1:35.0 2:100.0 4:88.0 5:58.0 6:44.0 7:55.0 9:30.0 10:39.0 11:100.0 12:73.0 13:94.0 14:97.0 15:28.0 16:84.0 
1.0 1.0 1.0 1.0 1.0 1.0 0.9999765018380105 1.0 0.9993242086092536 1:75.0 2:91.0 3:30.0 4:100.0 5:24.0 6:60.0 7:53.0 8:21.0 9:11.0 12:37.0 13:44.0 14:70.0 15:100.0 16:93.0 
1.0 1.0 1.0 1.0 1.0 1.0 1.0 1.0 0.9989730698203927 1:66.0 2:93.0 3:50.0 4:56.0 5:80.0 6:100.0 8:55.0 9:17.0 10:35.0 11:59.0 13:100.0 14:52.0 16:29.0 
1.0 1.0 1.0 1.0 1.0 1.0 1.0 1.0 0.9989730692920031 1:59.0 2:100.0 3:9.0 4:86.0 5:61.0 6:44.0 7:74.0 10:1.0 11:53.0 12:39.0 13:100.0 14:82.0 15:35.0 16:88.0 
1.0 1.0 1.0 1.0 1.0 1.0 1.0 1.0 0.9989730692657484 1:70.0 2:99.0 3:42.0 4:69.0 5:35.0 6:30.0 9:19.0 10:29.0 11:60.0 12:58.0 13:100.0 14:88.0 15:54.0 16:100.0 
1.0 1.0 1.0 1.0 1.0 1.0 0.9994401201662819 1.0 0.9989730691102576 1:100.0 2:89.0 3:41.0 4:100.0 5:23.0 6:69.0 7:54.0 8:35.0 9:38.0 12:11.0 13:25.0 14:47.0 15:60.0 16:81.0 
1.0 1.0 1.0 1.0 1.0 1.0 0.9999999181297774 1.0 0.9993391380961745 1:66.0 2:91.0 3:22.0 4:73.0 5:50.0 6:27.0 7:19.0 10:33.0 11:65.0 12:60.0 13:100.0 14:96.0 15:24.0 16:100.0 
1.0 1.0 1.0 1.0 1.0 1.0 0.9999991730042659 1.0 0.9995715930521378 1:63.0 2:62.0 3:67.0 4:100.0 5:5.0 6:79.0 7:52.0 8:41.0 9:73.0 12:2.0 13:32.0 14:42.0 15:100.0 16:75.0 
1.0 1.0 1.0 1.0 1.0 1.0 1.0 1.0 0.9989730690229074 1:67.0 2:86.0 3:59.0 4:66.0 5:95.0 6:26.0 7:44.0 10:30.0 11:59.0 12:63.0 13:100.0 14:98.0 15:19.0 16:100.0 
1.0 1.0 1.0 1.0 1.0 1.0 1.0 1.0 0.9989730690323197 1:39.0 2:83.0 3:17.0 4:65.0 5:37.0 6:26.0 7:17.0 10:36.0 11:44.0 12:70.0 13:100.0 14:100.0 15:32.0 16:93.0 
1.0 1.0 1.0 1.0 1.0 1.0 1.0 1.0 0.9989730690394694 1:77.0 2:100.0 3:28.0 4:80.0 5:63.0 6:41.0 7:59.0 10:10.0 11:47.0 12:44.0 13:100.0 14:75.0 15:61.0 16:94.0 
1.0 1.0 1.0 1.0 1.0 1.0 0.9999999971985954 1.0 0.9993335321485877 1:44.0 2:75.0 3:21.0 4:38.0 7:18.0 8:28.0 9:56.0 10:60.0 11:100.0 12:90.0 13:82.0 14:100.0 15:28.0 16:81.0 
1.0 1.0 1.0 1.0 1.0 1.0 1.0 1.0 0.9989730690688801 1:100.0 2:100.0 3:39.0 4:84.0 5:58.0 6:51.0 7:88.0 8:20.0 9:25.0 12:24.0 13:42.0 14:54.0 15:98.0 16:81.0 
1.0 1.0 1.0 1.0 1.0 1.0 0.9993902842770409 1.0 0.9989730691265202 2:85.0 3:19.0 4:63.0 5:86.0 6:31.0 7:94.0 9:3.0 10:15.0 11:39.0 12:50.0 13:100.0 14:83.0 15:29.0 16:100.0 
1.0 1.0 1.0 1.0 1.0 1.0 1.0 1.0 0.9989729564741894 2:76.0 3:49.0 4:100.0 5:100.0 6:82.0 7:58.0 8:41.0 9:28.0 11:82.0 12:15.0 13:28.0 14:51.0 15:34.0 16:88.0 
1.0 1.0 1.0 1.0 1.0 1.0 1.0 1.0 0.9989512118708792 1:54.0 2:85.0 3:94.0 4:100.0 5:96.0 6:61.0 7:79.0 8:22.0 9:84.0 11:100.0 12:32.0 13:53.0 14:52.0 16:58.0 
1.0 1.0 1.0 1.0 1.0 1.0 1.0 1.0 0.9989512118710482 1:35.0 2:100.0 4:80.0 5:45.0 6:41.0 7:96.0 8:3.0 9:44.0 11:34.0 12:38.0 13:100.0 14:67.0 15:78.0 16:93.0 
1.0 1.0 1.0 1.0 1.0 1.0 1.0 1.0 0.9989341478893141 1:69.0 2:79.0 3:48.0 4:57.0 5:69.0 6:19.0 9:30.0 10:34.0 11:93.0 12:63.0 13:100.0 14:100.0 15:37.0 16:76.0 
1.0 1.0 1.0 1.0 1.0 1.0 1.0 1.0 0.9989341328816084 1:100.0 2:100.0 3:22.0 4:97.0 5:23.0 6:62.0 7:94.0 8:33.0 9:69.0 12:18.0 13:25.0 14:59.0 15:78.0 16:95.0 
1.0 1.0 1.0 1.0 1.0 1.0 1.0 1.0 0.9989341181106786 1:22.0 2:93.0 4:70.0 5:69.0 6:37.0 7:100.0 9:15.0 10:20.0 11:51.0 12:60.0 13:77.0 14:94.0 15:42.0 16:100.0 
1.0 1.0 1.0 1.0 1.0 1.0 1.0 1.0 0.998934118013351 1:16.0 2:78.0 3:66.0 4:100.0 5:100.0 6:75.0 7:46.0 8:39.0 11:66.0 12:4.0 13:24.0 14:45.0 15:23.0 16:85.0 
1.0 1.0 1.0 1.0 1.0 1.0 1.0 1.0 0.9989341030694696 1:55.0 2:65.0 3:100.0 4:87.0 5:61.0 6:100.0 7:53.0 8:66.0 9:71.0 10:29.0 11:40.0 14:21.0 15:39.0 16:47.0 
1.0 1.0 1.0 1.0 1.0 1.0 1.0 1.0 0.998934103072017 1:27.0 2:100.0 3:43.0 4:66.0 5:67.0 6:31.0 7:45.0 10:27.0 11:47.0 12:59.0 13:100.0 14:91.0 15:20.0 16:97.0 
1.0 1.0 1.0 1.0 1.0 1.0 1.0 1.0 0.9989341030722831 1:30.0 2:63.0 3:61.0 4:100.0 5:100.0 6:82.0 7:76.0 8:39.0 9:42.0 11:74.0 12:9.0 13:53.0 14:49.0 16:63.0 
1.0 1.0 1.0 1.0 1.0 1.0 1.0 1.0 0.998934103072357 1:73.0 2:100.0 4:91.0 5:49.0 6:63.0 7:100.0 8:31.0 9:58.0 11:16.0 12:28.0 13:45.0 14:69.0 15:30.0 16:98.0 
1.0 1.0 1.0 1.0 1.0 1.0 1.0 1.0 0.9989340883490386 1:19.0 2:74.0 3:75.0 4:62.0 5:78.0 6:23.0 7:3.0 9:28.0 10:38.0 11:94.0 12:72.0 13:100.0 14:100.0 16:80.0 
1.0 1.0 1.0 1.0 1.0 1.0 1.0 1.0 0.9989340882345437 1:100.0 2:86.0 3:47.0 4:100.0 6:73.0 7:42.0 8:43.0 9:85.0 10:15.0 11:28.0 13:37.0 14:36.0 15:84.0 16:66.0 
1.0 1.0 1.0 1.0 1.0 1.0 1.0 1.0 0.9989340881608832 1:59.0 2:72.0 3:36.0 4:100.0 6:72.0 7:23.0 8:36.0 9:52.0 12:1.0 13:44.0 14:27.0 15:100.0 16:55.0 
1.0 1.0 1.0 1.0 1.0 1.0 1.0 1.0 0.9989340881520297 1:35.0 2:90.0 3:24.0 4:61.0 5:100.0 6:100.0 7:12.0 8:84.0 10:29.0 11:49.0 13:96.0 14:57.0 15:7.0 16:28.0 
1.0 1.0 1.0 1.0 1.0 1.0 1.0 1.0 0.9989340881553476 1:20.0 2:70.0 3:39.0 4:100.0 5:100.0 6:88.0 7:67.0 8:44.0 9:30.0 10:1.0 11:64.0 13:22.0 14:41.0 16:85.0 
1.0 1.0 1.0 1.0 1.0 1.0 1.0 1.0 0.9989340881554577 1:52.0 2:98.0 3:69.0 4:67.0 5:78.0 6:28.0 7:13.0 10:26.0 11:54.0 12:58.0 13:100.0 14:93.0 15:54.0 16:100.0 
1.0 1.0 1.0 1.0 1.0 1.0 0.9999999815129097 1.0 0.9993431719730514 1:60.0 2:90.0 3:43.0 4:68.0 5:52.0 6:22.0 7:21.0 10:39.0 11:52.0 12:66.0 13:100.0 14:95.0 15:38.0 16:100.0 
1.0 1.0 1.0 1.0 1.0 1.0 0.9999987190755464 1.0 0.9994370082220858 1:60.0 2:81.0 3:12.0 4:100.0 6:70.0 7:28.0 8:34.0 9:28.0 11:12.0 12:33.0 13:52.0 14:64.0 15:100.0 16:91.0 
1.0 1.0 1.0 1.0 1.0 1.0 1.0 1.0 0.9989340881569226 1:7.0 2:60.0 3:100.0 4:79.0 5:76.0 6:100.0 7:24.0 8:71.0 9:80.0 10:36.0 11:84.0 14:14.0 15:47.0 16:50.0 
1.0 1.0 1.0 1.0 1.0 1.0 1.0 1.0 0.9989340881647011 1:83.0 2:85.0 3:17.0 4:98.0 5:37.0 6:57.0 7:94.0 8:19.0 9:38.0 12:38.0 13:65.0 14:71.0 15:100.0 16:100.0 
1.0 1.0 1.0 1.0 1.0 1.0 0.9999999999139624 1.0 0.9992582960798849 1:44.0 2:90.0 4:79.0 5:79.0 6:43.0 7:95.0 9:13.0 10:10.0 11:50.0 12:55.0 13:100.0 14:98.0 15:19.0 16:100.0 
1.0 1.0 1.0 1.0 1.0 1.0 1.0 1.0 0.9989287716996549 1:12.0 2:75.0 3:3.0 4:59.0 5:67.0 6:25.0 7:20.0 9:27.0 10:36.0 11:95.0 12:68.0 13:100.0 14:100.0 16:95.0 
1.0 1.0 1.0 1.0 1.0 1.0 1.0 1.0 0.9989287716158106 1:62.0 2:100.0 4:57.0 5:94.0 6:71.0 7:34.0 8:93.0 9:26.0 10:47.0 11:13.0 13:100.0 14:37.0 15:8.0 16:39.0 
1.0 1.0 1.0 1.0 1.0 1.0 1.0 1.0 0.9989287716231802 1:15.0 2:92.0 4:96.0 5:38.0 6:47.0 7:79.0 9:4.0 10:8.0 11:46.0 12:58.0 13:100.0 14:100.0 15:12.0 16:86.0 
1.0 1.0 1.0 1.0 1.0 1.0 1.0 1.0 0.9989287716243087 1:100.0 2:100.0 3:21.0 4:86.0 5:64.0 6:41.0 7:71.0 9:13.0 10:23.0 11:73.0 12:66.0 13:74.0 14:100.0 16:70.0 
1.0 1.0 1.0 1.0 1.0 1.0 1.0 1.0 0.9989241009233274 1:81.0 2:76.0 3:15.0 4:100.0 6:65.0 7:100.0 8:33.0 9:65.0 11:10.0 12:28.0 13:90.0 14:64.0 15:73.0 16:94.0 
1.0 1.0 1.0 1.0 1.0 1.0 0.9994401243985266 1.0 0.9987707938934766 1:100.0 2:90.0 3:60.0 4:100.0 5:36.0 6:66.0 7:54.0 8:29.0 9:34.0 12:19.0 13:37.0 14:48.0 15:79.0 16:74.0 
1.0 1.0 1.0 1.0 1.0 1.0 1.0 1.0 0.9989241009050182 1:100.0 2:51.0 3:72.0 4:100.0 6:88.0 7:28.0 8:42.0 9:77.0 11:2.0 12:11.0 13:5.0 14:55.0 15:78.0 16:82.0 
1.0 1.0 1.0 1.0 1.0 1.0 0.9993902707571319 1.0 0.9989241009064731 2:56.0 3:76.0 4:49.0 5:100.0 6:11.0 7:31.0 9:45.0 10:39.0 11:95.0 12:73.0 13:71.0 14:100.0 15:11.0 16:74.0 
1.0 1.0 1.0 1.0 1.0 1.0 1.0 1.0 0.9989241009097269 1:58.0 2:100.0 4:85.0 5:51.0 6:50.0 7:79.0 8:11.0 9:14.0 11:44.0 12:39.0 13:100.0 14:71.0 15:51.0 16:83.0 
1.0 1.0 1.0 1.0 1.0 1.0 1.0 1.0 0.9989241009105796 1:100.0 2:63.0 3:71.0 4:100.0 5:10.0 6:85.0 7:24.0 8:43.0 9:56.0 10:4.0 13:26.0 14:38.0 15:88.0 16:55.0 
1.0 1.0 1.0 1.0 1.0 1.0 0.9993902691510799 1.0 0.9987708387208301 2:30.0 3:46.0 4:60.0 5:59.0 6:100.0 7:21.0 8:81.0 9:67.0 10:50.0 11:100.0 12:16.0 13:38.0 15:7.0 16:28.0 
1.0 1.0 1.0 1.0 1.0 1.0 0.9999999989676513 1.0 0.9993213604912284 1:23.0 2:83.0 3:74.0 4:49.0 5:100.0 6:13.0 7:19.0 9:24.0 10:35.0 11:82.0 12:66.0 13:73.0 14:100.0 16:84.0 
1.0 1.0 1.0 1.0 1.0 1.0 0.999350348592096 1.0 0.9989241009151315 1:64.0 2:89.0 3:66.0 4:58.0 5:74.0 6:8.0 9:20.0 10:41.0 11:92.0 12:64.0 13:100.0 14:100.0 15:24.0 16:95.0 
1.0 1.0 1.0 1.0 1.0 1.0 0.999999997950446 1.0 0.999324744800803 1:56.0 2:86.0 3:39.0 4:69.0 5:100.0 6:34.0 7:59.0 10:17.0 11:53.0 12:54.0 13:95.0 14:94.0 15:22.0 16:100.0 
1.0 1.0 1.0 1.0 1.0 1.0 0.9999998561799135 1.0 0.999320716152594 1:69.0 2:89.0 3:6.0 4:100.0 5:10.0 6:64.0 7:35.0 8:26.0 9:10.0 12:36.0 13:47.0 14:64.0 15:100.0 16:91.0 
1.0 1.0 1.0 1.0 1.0 1.0 1.0 1.0 0.998919526324227 1:50.0 2:83.0 3:26.0 4:62.0 5:58.0 6:100.0 7:14.0 8:60.0 9:2.0 10:30.0 11:50.0 13:100.0 14:51.0 16:34.0 
1.0 1.0 1.0 1.0 1.0 1.0 1.0 1.0 0.9989147757108419 2:95.0 3:21.0 4:65.0 5:86.0 6:30.0 7:54.0 9:14.0 10:25.0 11:68.0 12:62.0 13:100.0 14:100.0 16:90.0 
1.0 1.0 1.0 1.0 1.0 1.0 1.0 1.0 0.998914775711898 1:85.0 2:90.0 3:10.0 4:65.0 5:100.0 6:69.0 7:34.0 8:100.0 9:53.0 10:41.0 13:92.0 14:5.0 15:35.0 16:48.0 
1.0 1.0 1.0 1.0 1.0 1.0 1.0 1.0 0.9989124446376785 1:55.0 2:68.0 3:71.0 4:40.0 5:100.0 6:6.0 7:5.0 9:14.0 10:35.0 11:66.0 12:68.0 13:89.0 14:100.0 16:83.0 
1.0 1.0 1.0 1.0 1.0 1.0 1.0 1.0 0.9989071379438871 1:41.0 2:58.0 3:99.0 4:39.0 5:100.0 6:1.0 7:27.0 9:33.0 10:40.0 11:80.0 12:75.0 13:66.0 14:100.0 16:83.0 
1.0 1.0 1.0 1.0 1.0 1.0 1.0 1.0 0.9989062734895545 1:13.0 2:78.0 3:44.0 4:47.0 5:36.0 9:48.0 10:39.0 11:100.0 12:74.0 13:85.0 14:100.0 15:20.0 16:79.0 
1.0 1.0 1.0 1.0 1.0 1.0 0.999999270252668 1.0 0.9996390432644353 1:19.0 2:90.0 3:57.0 4:61.0 5:96.0 6:19.0 7:17.0 9:2.0 10:34.0 11:81.0 12:64.0 13:100.0 14:100.0 16:99.0 
1.0 1.0 1.0 1.0 1.0 1.0 1.0 1.0 0.9988965354476506 1:100.0 2:100.0 3:29.0 4:88.0 5:45.0 6:52.0 7:79.0 8:16.0 9:16.0 12:33.0 13:42.0 14:68.0 15:44.0 16:98.0 
1.0 1.0 1.0 1.0 1.0 1.0 1.0 1.0 0.9988839850583685 1:44.0 2:73.0 3:77.0 4:100.0 5:100.0 6:68.0 7:78.0 8:28.0 9:68.0 11:100.0 12:33.0 13:56.0 14:51.0 16:53.0 
1.0 1.0 1.0 1.0 1.0 1.0 1.0 1.0 0.9988774335888723 1:16.0 2:92.0 4:70.0 5:68.0 6:36.0 7:68.0 9:15.0 10:25.0 11:53.0 12:63.0 13:100.0 14:100.0 15:34.0 16:92.0 
1.0 1.0 1.0 1.0 1.0 1.0 1.0 1.0 0.9988774334147297 2:20.0 3:38.0 4:56.0 5:46.0 6:100.0 7:6.0 8:81.0 9:58.0 10:56.0 11:100.0 12:24.0 13:50.0 15:7.0 16:15.0 
1.0 1.0 1.0 1.0 1.0 1.0 1.0 1.0 0.9988774332126134 1:65.0 2:98.0 3:41.0 4:74.0 5:100.0 6:100.0 7:32.0 8:85.0 9:10.0 10:60.0 13:73.0 14:12.0 15:33.0 16:62.0 
1.0 1.0 1.0 1.0 1.0 1.0 0.999467430169453 1.0 0.9988774332124292 1:76.0 2:100.0 3:59.0 4:66.0 5:89.0 6:23.0 7:9.0 10:31.0 11:80.0 12:62.0 13:100.0 14:96.0 15:2.0 16:86.0 
1.0 1.0 1.0 1.0 1.0 1.0 1.0 1.0 0.9988774332086547 1:66.0 2:74.0 3:23.0 4:100.0 5:14.0 6:69.0 7:64.0 8:36.0 9:47.0 12:23.0 13:35.0 14:60.0 15:100.0 16:87.0 
1.0 1.0 1.0 1.0 1.0 1.0 1.0 1.0 0.9988774331951659 1:21.0 2:93.0 4:65.0 5:56.0 6:35.0 7:48.0 9:17.0 10:26.0 11:61.0 12:60.0 13:100.0 14:95.0 15:32.0 16:100.0 
1.0 1.0 1.0 1.0 1.0 1.0 1.0 1.0 0.9988774331956939 1:36.0 2:100.0 3:39.0 4:66.0 5:100.0 6:97.0 7:34.0 8:100.0 9:29.0 10:47.0 13:73.0 14:10.0 15:32.0 16:66.0 
1.0 1.0 1.0 1.0 1.0 1.0 1.0 1.0 0.9988774331987524 2:73.0 3:54.0 4:47.0 5:100.0 6:15.0 7:43.0 9:51.0 10:35.0 11:81.0 12:69.0 13:63.0 14:100.0 15:2.0 16:72.0 
1.0 1.0 1.0 1.0 1.0 1.0 1.0 1.0 0.9988712013743106 1:62.0 2:76.0 4:100.0 5:22.0 6:68.0 7:90.0 8:37.0 9:100.0 11:13.0 12:8.0 13:13.0 14:47.0 15:68.0 16:81.0 
1.0 1.0 1.0 1.0 1.0 1.0 1.0 1.0 0.9988712013752037 1:23.0 2:100.0 3:46.0 4:57.0 5:100.0 6:79.0 7:49.0 8:89.0 10:48.0 11:20.0 13:79.0 14:22.0 15:24.0 16:53.0 
1.0 1.0 1.0 1.0 1.0 1.0 1.0 1.0 0.9988629408890065 1:65.0 2:95.0 4:77.0 5:46.0 6:36.0 7:35.0 9:5.0 10:26.0 11:73.0 12:61.0 13:100.0 14:100.0 15:6.0 16:84.0 
1.0 1.0 1.0 1.0 1.0 1.0 0.9994399136266906 1.0 0.9989728591260204 1:40.0 2:83.0 3:81.0 4:46.0 5:79.0 6:7.0 7:5.0 9:51.0 10:35.0 11:100.0 12:71.0 13:72.0 14:100.0 16:77.0 
1.0 1.0 1.0 1.0 1.0 1.0 1.0 1.0 0.9988629408761684 1:75.0 2:92.0 3:23.0 4:83.0 5:58.0 6:39.0 7:77.0 10:13.0 11:42.0 12:51.0 13:100.0 14:86.0 15:32.0 16:100.0 
1.0 1.0 1.0 1.0 1.0 1.0 1.0 1.0 0.9988629408765244 1:40.0 2:81.0 3:67.0 4:65.0 5:100.0 6:27.0 7:38.0 10:24.0 11:46.0 12:61.0 13:81.0 14:99.0 15:27.0 16:100.0 
1.0 1.0 1.0 1.0 1.0 1.0 1.0 1.0 0.9988629408766583 1:21.0 2:73.0 3:84.0 4:42.0 5:90.0 6:7.0 9:19.0 10:35.0 11:81.0 12:66.0 13:100.0 14:100.0 15:9.0 16:89.0 
1.0 1.0 1.0 1.0 1.0 1.0 0.9994690248959651 1.0 0.9987697507905565 1:80.0 2:81.0 3:34.0 4:100.0 6:70.0 7:45.0 8:39.0 9:76.0 11:28.0 12:12.0 13:57.0 14:54.0 15:100.0 16:85.0 
1.0 1.0 1.0 1.0 1.0 1.0 0.9999962936597214 1.0 0.999381418531063 1:2.0 2:20.0 3:44.0 4:53.0 5:63.0 6:100.0 7:14.0 8:98.0 9:53.0 10:59.0 11:100.0 12:25.0 13:57.0 16:13.0 
1.0 1.0 1.0 1.0 1.0 1.0 1.0 1.0 0.9988593527241791 1:70.0 2:81.0 3:25.0 4:100.0 6:74.0 7:42.0 8:40.0 9:77.0 10:5.0 11:40.0 13:53.0 14:40.0 15:100.0 16:70.0 
1.0 1.0 1.0 1.0 1.0 1.0 1.0 1.0 0.9988593333014322 1:50.0 2:54.0 3:80.0 4:96.0 5:38.0 6:100.0 7:37.0 8:50.0 9:46.0 12:15.0 13:45.0 14:45.0 15:100.0 16:61.0 
1.0 1.0 1.0 1.0 1.0 1.0 0.9999999994304832 1.0 0.9993153222152303 1:100.0 2:83.0 3:20.0 4:100.0 6:68.0 7:71.0 8:36.0 9:89.0 11:17.0 12:15.0 13:42.0 14:55.0 15:98.0 16:91.0 
1.0 1.0 1.0 1.0 1.0 1.0 1.0 1.0 0.9988593138574686 1:2.0 2:77.0 3:54.0 4:100.0 5:100.0 6:79.0 7:86.0 8:47.0 9:59.0 10:16.0 11:63.0 13:73.0 14:27.0 16:43.0 
1.0 1.0 1.0 1.0 1.0 1.0 1.0 1.0 0.9988593138596565 1:23.0 2:74.0 3:42.0 4:38.0 5:51.0 8:7.0 9:26.0 10:42.0 11:81.0 12:69.0 13:100.0 14:97.0 15:25.0 16:100.0 
1.0 1.0 1.0 1.0 1.0 1.0 1.0 1.0 0.9988592944250605 1:43.0 2:39.0 3:100.0 4:73.0 5:69.0 6:100.0 7:7.0 8:70.0 9:60.0 10:36.0 11:57.0 14:16.0 15:67.0 16:48.0 
1.0 1.0 1.0 1.0 1.0 1.0 0.9999991197045313 1.0 0.9995661445997177 1:95.0 2:68.0 3:76.0 4:100.0 5:34.0 6:78.0 7:50.0 8:39.0 9:52.0 12:6.0 13:40.0 14:39.0 15:100.0 16:60.0 
1.0 1.0 1.0 1.0 1.0 1.0 0.9994276369554664 1.0 0.9988592944251113 1:77.0 2:83.0 3:47.0 4:72.0 5:78.0 6:27.0 7:22.0 10:30.0 11:68.0 12:60.0 13:100.0 14:100.0 15:20.0 16:90.0 
1.0 1.0 1.0 1.0 1.0 1.0 1.0 1.0 0.998859294425575 1:72.0 2:100.0 3:2.0 4:77.0 5:59.0 6:36.0 7:100.0 10:7.0 11:31.0 12:52.0 13:100.0 14:92.0 15:22.0 16:91.0 
1.0 1.0 1.0 1.0 1.0 1.0 0.9999999174201448 1.0 0.9993367604343102 1:49.0 2:78.0 3:34.0 4:60.0 5:30.0 6:18.0 9:19.0 10:39.0 11:57.0 12:73.0 13:100.0 14:100.0 15:44.0 16:82.0 
1.0 1.0 1.0 1.0 1.0 1.0 1.0 1.0 0.9988592944257796 1:38.0 2:81.0 3:92.0 4:100.0 5:100.0 6:66.0 7:65.0 8:33.0 9:37.0 11:100.0 12:20.0 13:67.0 14:51.0 16:72.0 
1.0 1.0 1.0 1.0 1.0 1.0 1.0 1.0 0.9988584087966627 1:48.0 2:92.0 3:29.0 4:62.0 5:92.0 6:100.0 7:16.0 8:67.0 10:38.0 11:36.0 13:100.0 14:43.0 15:10.0 16:41.0 
1.0 1.0 1.0 1.0 1.0 1.0 1.0 1.0 0.9988584087967136 1:82.0 2:100.0 4:85.0 5:67.0 6:49.0 7:100.0 8:10.0 9:6.0 11:12.0 12:41.0 13:82.0 14:77.0 15:69.0 16:99.0 
1.0 1.0 1.0 1.0 1.0 1.0 1.0 1.0 0.998858408797299 1:20.0 2:60.0 4:83.0 5:15.0 6:39.0 7:100.0 8:9.0 9:30.0 11:47.0 12:54.0 13:67.0 14:100.0 15:2.0 16:59.0 
1.0 1.0 1.0 1.0 1.0 1.0 0.9994604429130873 1.0 0.9988584087975558 1:74.0 2:74.0 3:62.0 4:100.0 5:10.0 6:76.0 7:36.0 8:39.0 9:62.0 10:2.0 13:24.0 14:30.0 15:100.0 16:50.0 
1.0 1.0 1.0 1.0 1.0 1.0 0.9998915913732613 1.0 0.9987347831330584 1:46.0 2:92.0 4:75.0 5:48.0 6:39.0 7:44.0 9:7.0 10:19.0 11:52.0 12:57.0 13:100.0 14:92.0 15:37.0 16:100.0 
1.0 1.0 1.0 1.0 1.0 1.0 1.0 1.0 0.9988581333793898 1:82.0 2:86.0 4:67.0 5:38.0 6:29.0 7:96.0 9:25.0 10:20.0 11:65.0 12:61.0 13:100.0 14:100.0 15:18.0 16:73.0 
1.0 1.0 1.0 1.0 1.0 1.0 0.999439711829575 1.0 0.9987267247736039 2:77.0 3:52.0 4:57.0 5:100.0 6:26.0 7:54.0 9:23.0 10:24.0 11:56.0 12:58.0 13:75.0 14:94.0 15:21.0 16:100.0 
1.0 1.0 1.0 1.0 1.0 1.0 1.0 1.0 0.9988548434546556 1:100.0 2:86.0 3:49.0 4:100.0 5:3.0 6:79.0 7:37.0 8:43.0 9:59.0 10:5.0 11:9.0 14:40.0 15:43.0 16:70.0 
1.0 1.0 1.0 1.0 1.0 1.0 0.9999808988815682 1.0 0.9987410376492298 1:66.0 2:76.0 3:34.0 4:100.0 5:5.0 6:76.0 7:43.0 8:39.0 9:44.0 12:17.0 13:45.0 14:50.0 15:100.0 16:76.0 
1.0 1.0 1.0 1.0 1.0 1.0 1.0 1.0 0.9988503487042231 1:100.0 2:70.0 3:46.0 4:94.0 5:32.0 6:51.0 7:87.0 8:9.0 11:38.0 12:46.0 13:80.0 14:91.0 15:19.0 16:100.0 
1.0 1.0 1.0 1.0 1.0 1.0 0.9993314359149916 1.0 0.9989542087717642 1:1.0 2:13.0 3:46.0 4:53.0 5:72.0 6:100.0 7:13.0 8:97.0 9:39.0 10:54.0 11:100.0 12:23.0 13:56.0 16:19.0 
1.0 1.0 1.0 1.0 1.0 1.0 0.9999999734185374 1.0 0.9993457492760404 2:24.0 3:43.0 4:59.0 5:64.0 6:100.0 7:18.0 8:94.0 9:67.0 10:61.0 11:100.0 12:23.0 13:43.0 15:7.0 16:29.0 
1.0 1.0 1.0 1.0 1.0 1.0 1.0 1.0 0.9988463938847436 1:75.0 2:61.0 3:85.0 4:100.0 5:22.0 6:82.0 7:37.0 8:42.0 9:55.0 10:2.0 13:31.0 14:36.0 15:100.0 16:60.0 
1.0 1.0 1.0 1.0 1.0 1.0 1.0 1.0 0.9988422922943019 1:69.0 2:94.0 4:81.0 5:73.0 6:55.0 7:100.0 8:21.0 9:32.0 11:20.0 12:33.0 13:58.0 14:67.0 15:51.0 16:100.0 
1.0 1.0 1.0 1.0 1.0 1.0 0.9994604376152139 1.0 0.9988371218256851 1:100.0 2:100.0 3:33.0 4:95.0 6:60.0 7:47.0 8:28.0 9:48.0 11:5.0 12:21.0 13:40.0 14:59.0 15:87.0 16:92.0 
1.0 1.0 1.0 1.0 1.0 1.0 0.9999999857474993 1.0 0.9993382228974685 1:32.0 2:87.0 3:24.0 4:54.0 5:81.0 6:100.0 8:72.0 9:18.0 10:44.0 11:36.0 13:100.0 14:44.0 15:19.0 16:49.0 
1.0 1.0 1.0 1.0 1.0 1.0 1.0 1.0 0.9988371218256078 2:96.0 3:31.0 4:63.0 5:100.0 6:32.0 7:86.0 9:12.0 10:18.0 11:53.0 12:53.0 13:98.0 14:87.0 15:41.0 16:100.0 
1.0 1.0 1.0 1.0 1.0 1.0 1.0 1.0 0.9988143683938171 1:28.0 2:49.0 3:35.0 4:93.0 5:100.0 6:100.0 7:81.0 8:54.0 9:41.0 10:13.0 11:52.0 13:66.0 14:45.0 16:63.0 
1.0 1.0 1.0 1.0 1.0 1.0 0.9994898037679846 1.0 0.9988060614959595 1:25.0 2:94.0 3:6.0 4:58.0 5:87.0 6:30.0 7:85.0 10:17.0 11:49.0 12:53.0 13:100.0 14:89.0 15:35.0 16:100.0 
1.0 1.0 1.0 1.0 1.0 1.0 1.0 1.0 0.9987739007101628 1:97.0 2:91.0 3:33.0 4:93.0 5:55.0 6:46.0 7:54.0 10:10.0 11:49.0 12:49.0 13:100.0 14:87.0 15:30.0 16:100.0 
1.0 1.0 1.0 1.0 1.0 1.0 0.9999999988182735 1.0 0.9993211661994275 1:61.0 2:96.0 3:46.0 4:68.0 5:71.0 6:22.0 7:11.0 10:34.0 11:67.0 12:63.0 13:100.0 14:100.0 15:25.0 16:93.0 
1.0 1.0 1.0 1.0 1.0 1.0 0.999421637142116 1.0 0.998770918033066 1:46.0 2:78.0 3:26.0 4:54.0 5:84.0 6:100.0 8:75.0 9:24.0 10:42.0 11:29.0 13:100.0 14:44.0 15:20.0 16:39.0 
1.0 1.0 1.0 1.0 1.0 1.0 0.9999999561748452 1.0 0.9993432311044241 1:57.0 2:95.0 3:59.0 4:56.0 5:76.0 6:12.0 9:28.0 10:33.0 11:100.0 12:60.0 13:96.0 14:100.0 15:21.0 16:88.0 
1.0 1.0 1.0 1.0 1.0 1.0 0.9993902707568805 1.0 0.9987708662259877 1:86.0 2:83.0 3:40.0 4:100.0 6:72.0 7:49.0 8:37.0 9:63.0 11:10.0 12:20.0 13:52.0 14:55.0 15:100.0 16:82.0 
1.0 1.0 1.0 1.0 1.0 1.0 1.0 1.0 0.9987708921280507 1:36.0 2:82.0 3:45.0 4:60.0 5:81.0 6:100.0 8:70.0 9:19.0 10:45.0 11:25.0 13:100.0 14:37.0 15:4.0 16:32.0 
1.0 1.0 1.0 1.0 1.0 1.0 1.0 1.0 0.9987708662262579 1:100.0 2:92.0 3:20.0 4:90.0 5:7.0 6:42.0 7:65.0 10:10.0 11:18.0 12:58.0 13:78.0 14:100.0 15:45.0 16:97.0 
1.0 1.0 1.0 1.0 1.0 1.0 1.0 1.0 0.9987708403256743 1:94.0 2:83.0 3:29.0 4:77.0 5:100.0 6:41.0 7:78.0 10:11.0 11:45.0 12:56.0 13:92.0 14:100.0 15:10.0 16:79.0 
1.0 1.0 1.0 1.0 1.0 1.0 1.0 1.0 0.9987708403242882 1:89.0 2:98.0 3:57.0 4:76.0 5:63.0 6:34.0 7:19.0 10:25.0 11:55.0 12:56.0 13:100.0 14:91.0 15:36.0 16:100.0 
1.0 1.0 1.0 1.0 1.0 1.0 0.9999938832337008 1.0 0.9990775590489848 1:55.0 2:90.0 3:44.0 4:56.0 5:29.0 6:13.0 9:28.0 10:38.0 11:64.0 12:69.0 13:100.0 14:100.0 15:63.0 16:99.0 
1.0 1.0 1.0 1.0 1.0 1.0 1.0 1.0 0.9987708403243746 1:56.0 2:71.0 3:31.0 4:100.0 5:16.0 6:66.0 7:24.0 8:23.0 11:17.0 12:34.0 13:57.0 14:57.0 15:100.0 16:76.0 
1.0 1.0 1.0 1.0 1.0 1.0 1.0 1.0 0.9987708403244683 2:21.0 3:49.0 4:57.0 5:79.0 6:100.0 7:15.0 8:81.0 9:45.0 10:44.0 11:100.0 12:15.0 13:29.0 15:5.0 16:25.0 
1.0 1.0 1.0 1.0 1.0 1.0 0.9994798827480801 1.0 0.9993322900556579 1:84.0 2:74.0 3:74.0 4:100.0 5:32.0 6:74.0 7:58.0 8:34.0 9:49.0 12:8.0 13:48.0 14:37.0 15:100.0 16:62.0 
1.0 1.0 1.0 1.0 1.0 1.0 0.9993503440940459 1.0 0.9987707940152863 1:93.0 2:77.0 3:47.0 4:100.0 5:8.0 6:68.0 7:70.0 8:33.0 9:74.0 12:20.0 13:52.0 14:57.0 15:100.0 16:92.0 
1.0 1.0 1.0 1.0 1.0 1.0 1.0 1.0 0.9987708164670641 1:40.0 2:84.0 3:33.0 4:81.0 5:100.0 6:42.0 7:81.0 10:13.0 11:46.0 12:57.0 13:94.0 14:100.0 15:11.0 16:90.0 
1.0 1.0 1.0 1.0 1.0 1.0 0.9994401340452364 1.0 0.9987708154539471 1:54.0 2:77.0 3:30.0 4:37.0 7:13.0 8:25.0 9:55.0 10:54.0 11:100.0 12:80.0 13:89.0 14:100.0 15:37.0 16:86.0 
1.0 1.0 1.0 1.0 1.0 1.0 1.0 1.0 0.9987708144423135 1:61.0 2:83.0 3:19.0 4:100.0 5:3.0 6:62.0 7:15.0 8:21.0 12:40.0 13:47.0 14:62.0 15:100.0 16:79.0 
1.0 1.0 1.0 1.0 1.0 1.0 0.9999952409193638 1.0 0.9991481568566583 1:59.0 2:100.0 3:28.0 4:71.0 5:26.0 6:20.0 9:28.0 10:40.0 11:72.0 12:67.0 13:100.0 14:99.0 15:49.0 16:99.0 
1.0 1.0 1.0 1.0 1.0 1.0 0.9994700919743068 1.0 0.9987708144411511 1:40.0 2:100.0 4:58.0 5:93.0 6:90.0 7:6.0 8:92.0 9:11.0 10:52.0 11:9.0 13:100.0 14:34.0 16:38.0 
1.0 1.0 1.0 1.0 1.0 1.0 1.0 1.0 0.9987708144410512 1:48.0 2:84.0 3:38.0 4:41.0 5:20.0 8:14.0 9:37.0 10:51.0 11:89.0 12:81.0 13:100.0 14:100.0 15:36.0 16:84.0 
1.0 1.0 1.0 1.0 1.0 1.0 0.999390284276896 1.0 0.9987708144410589 1:3.0 2:61.0 3:69.0 4:34.0 5:69.0 8:13.0 9:45.0 10:46.0 11:100.0 12:78.0 13:71.0 14:100.0 15:29.0 16:71.0 
1.0 1.0 1.0 1.0 1.0 1.0 1.0 1.0 0.998770814441169 1:100.0 2:91.0 3:44.0 4:100.0 6:76.0 7:10.0 8:37.0 9:30.0 11:3.0 12:25.0 13:25.0 14:61.0 15:72.0 16:86.0 
1.0 1.0 1.0 1.0 1.0 1.0 0.9999999994102393 1.0 0.999320631437449 1:57.0 2:100.0 4:75.0 5:62.0 6:40.0 7:62.0 9:2.0 10:15.0 11:56.0 12:53.0 13:100.0 14:93.0 15:23.0 16:95.0 
1.0 1.0 1.0 1.0 1.0 1.0 1.0 1.0 0.9987708144412115 1:32.0 2:84.0 3:66.0 4:100.0 5:100.0 6:80.0 7:64.0 8:40.0 9:30.0 11:68.0 12:11.0 13:36.0 14:52.0 16:91.0 
1.0 1.0 1.0 1.0 1.0 1.0 1.0 1.0 0.9987707947174305 1:54.0 2:97.0 3:20.0 4:73.0 5:48.0 6:34.0 7:35.0 10:22.0 11:50.0 12:50.0 13:100.0 14:78.0 15:71.0 16:100.0 
1.0 1.0 1.0 1.0 1.0 1.0 0.9999910676610799 1.0 0.998895949704703 1:86.0 2:74.0 3:21.0 4:100.0 6:73.0 7:66.0 8:38.0 9:100.0 11:12.0 12:8.0 13:49.0 14:49.0 15:100.0 16:76.0 
1.0 1.0 1.0 1.0 1.0 1.0 0.999461595726527 1.0 0.9987707943672753 1:100.0 2:87.0 3:9.0 4:100.0 6:67.0 7:74.0 8:37.0 9:94.0 11:21.0 12:15.0 13:60.0 14:56.0 15:93.0 16:94.0 
1.0 1.0 1.0 1.0 1.0 1.0 0.9994093066559241 1.0 0.9987707940174883 1:36.0 2:93.0 3:31.0 4:55.0 5:79.0 6:100.0 8:73.0 9:31.0 10:53.0 11:27.0 13:100.0 14:37.0 15:32.0 16:46.0 
1.0 1.0 1.0 1.0 1.0 1.0 0.9999994316922292 1.0 0.9992849275583612 1:51.0 2:62.0 3:56.0 4:100.0 5:1.0 6:82.0 7:33.0 8:42.0 9:65.0 10:1.0 13:32.0 14:40.0 15:100.0 16:65.0 
1.0 1.0 1.0 1.0 1.0 1.0 1.0 1.0 0.998770794017235 1:36.0 2:86.0 4:75.0 5:35.0 6:34.0 7:12.0 9:11.0 10:35.0 11:75.0 12:68.0 13:100.0 14:100.0 15:12.0 16:89.0 
1.0 1.0 1.0 1.0 1.0 1.0 1.0 1.0 0.9987707940172635 1:47.0 2:97.0 3:17.0 4:79.0 5:57.0 6:40.0 7:70.0 10:17.0 11:33.0 12:53.0 13:100.0 14:79.0 15:65.0 16:100.0 
1.0 1.0 1.0 1.0 1.0 1.0 1.0 1.0 0.9987707940173264 1:26.0 2:94.0 4:80.0 5:47.0 6:41.0 7:68.0 9:5.0 10:9.0 11:52.0 12:46.0 13:100.0 14:84.0 15:36.0 16:100.0 
1.0 1.0 1.0 1.0 1.0 1.0 1.0 1.0 0.9987707527625862 1:51.0 2:67.0 3:81.0 4:100.0 6:89.0 7:33.0 8:50.0 9:83.0 10:13.0 11:13.0 13:41.0 14:34.0 15:100.0 16:62.0 
1.0 1.0 1.0 1.0 1.0 1.0 0.9998518508408389 1.0 0.9991949604586099 1:32.0 2:87.0 3:76.0 4:51.0 5:98.0 6:14.0 7:16.0 9:46.0 10:32.0 11:100.0 12:66.0 13:76.0 14:100.0 16:82.0 
1.0 1.0 1.0 1.0 1.0 1.0 0.9994799002330322 1.0 0.9991720006934453 1:48.0 2:88.0 3:28.0 4:58.0 5:34.0 6:9.0 9:25.0 10:42.0 11:66.0 12:77.0 13:100.0 14:100.0 15:49.0 16:78.0 
1.0 1.0 1.0 1.0 1.0 1.0 0.9999999998381568 1.0 0.9992790014872932 1:65.0 2:100.0 4:79.0 5:67.0 6:41.0 7:99.0 9:10.0 10:3.0 11:41.0 12:42.0 13:100.0 14:80.0 15:6.0 16:90.0 
1.0 1.0 1.0 1.0 1.0 1.0 0.9993618630422166 1.0 0.9987708126237916 1:64.0 2:97.0 3:32.0 4:67.0 5:19.0 6:26.0 9:30.0 10:36.0 11:67.0 12:67.0 13:100.0 14:100.0 15:47.0 16:88.0 
1.0 1.0 1.0 1.0 1.0 1.0 1.0 1.0 0.9987678593990775 1:25.0 2:67.0 3:79.0 4:49.0 5:100.0 6:13.0 7:51.0 9:54.0 10:37.0 11:78.0 12:73.0 13:61.0 14:100.0 16:79.0 
1.0 1.0 1.0 1.0 1.0 1.0 0.9993902978406469 1.0 0.9992940130496779 1:44.0 2:76.0 3:61.0 4:100.0 5:6.0 6:75.0 7:41.0 8:38.0 9:70.0 13:33.0 14:36.0 15:100.0 16:62.0 
1.0 1.0 1.0 1.0 1.0 1.0 1.0 1.0 0.9987678593986946 1:51.0 2:91.0 3:5.0 4:86.0 6:43.0 7:22.0 9:8.0 10:24.0 11:50.0 12:61.0 13:100.0 14:93.0 15:45.0 16:100.0 
1.0 1.0 1.0 1.0 1.0 1.0 1.0 1.0 0.9987675995763132 1:72.0 2:97.0 3:4.0 4:91.0 5:14.0 6:45.0 7:29.0 10:30.0 11:61.0 12:65.0 13:100.0 14:100.0 15:20.0 16:86.0 
1.0 1.0 1.0 1.0 1.0 1.0 1.0 1.0 0.9987288441221968 1:59.0 2:61.0 3:91.0 4:100.0 5:37.0 6:92.0 7:36.0 8:46.0 9:45.0 12:6.0 13:35.0 14:36.0 15:100.0 16:38.0 
1.0 1.0 1.0 1.0 1.0 1.0 1.0 1.0 0.9987288421072968 1:73.0 2:95.0 3:7.0 4:76.0 5:78.0 6:40.0 7:100.0 8:2.0 11:37.0 12:41.0 13:82.0 14:82.0 15:51.0 16:100.0 
1.0 1.0 1.0 1.0 1.0 1.0 1.0 1.0 0.9987288400924793 1:27.0 2:73.0 3:35.0 4:48.0 5:100.0 6:14.0 7:70.0 9:38.0 10:38.0 11:89.0 12:75.0 13:94.0 14:100.0 16:86.0 
1.0 1.0 1.0 1.0 1.0 1.0 1.0 1.0 0.9992849276069221 1:60.0 2:56.0 3:56.0 4:100.0 6:79.0 7:46.0 8:38.0 9:100.0 11:45.0 12:1.0 13:39.0 14:48.0 15:91.0 16:86.0 
1.0 1.0 1.0 1.0 1.0 1.0 1.0 1.0 0.9989083281478528 1:37.0 2:89.0 3:25.0 4:54.0 5:80.0 6:20.0 7:15.0 10:26.0 11:62.0 12:58.0 13:100.0 14:97.0 15:23.0 16:100.0 
1.0 1.0 1.0 1.0 1.0 1.0 1.0 1.0 0.9987288816614674 1:58.0 2:95.0 3:60.0 4:64.0 5:100.0 6:32.0 7:83.0 9:17.0 10:20.0 11:62.0 12:51.0 13:69.0 14:85.0 16:100.0 
1.0 1.0 1.0 1.0 1.0 1.0 0.9988795859056594 1.0 0.998752075273192 1:87.0 2:80.0 3:54.0 4:100.0 5:24.0 6:68.0 7:61.0 8:34.0 9:37.0 12:19.0 13:52.0 14:48.0 15:100.0 16:80.0 
1.0 1.0 1.0 1.0 1.0 1.0 1.0 1.0 0.9987288422784832 1:45.0 2:100.0 3:68.0 4:64.0 5:100.0 6:24.0 7:39.0 9:5.0 10:33.0 11:68.0 12:65.0 13:85.0 14:97.0 16:97.0 
1.0 1.0 1.0 1.0 1.0 1.0 1.0 1.0 0.9993047936720721 1:88.0 2:100.0 3:9.0 4:93.0 5:8.0 6:45.0 7:55.0 10:6.0 11:37.0 12:50.0 13:100.0 14:84.0 15:44.0 16:99.0 
1.0 1.0 1.0 1.0 1.0 1.0 0.9994700919743068 1.0 0.9988319593507767 1:79.0 2:78.0 3:42.0 4:100.0 5:27.0 6:66.0 7:68.0 8:30.0 9:50.0 12:22.0 13:45.0 14:54.0 15:100.0 16:82.0 
1.0 1.0 1.0 1.0 1.0 1.0 1.0 1.0 0.9993102662170565 1:100.0 2:83.0 3:29.0 4:100.0 5:27.0 6:65.0 7:86.0 8:32.0 9:59.0 12:21.0 13:45.0 14:58.0 15:99.0 16:89.0 
1.0 1.0 1.0 1.0 1.0 1.0 1.0 1.0 0.9988480924914072 1:36.0 2:86.0 3:30.0 4:70.0 5:78.0 6:35.0 7:55.0 10:21.0 11:62.0 12:53.0 13:100.0 14:89.0 15:9.0 16:100.0 
1.0 1.0 1.0 1.0 1.0 1.0 0.9994613867399427 1.0 0.9988230387074474 1:65.0 2:67.0 3:72.0 4:100.0 5:1.0 6:75.0 7:32.0 8:37.0 9:61.0 12:4.0 13:32.0 14:44.0 15:100.0 16:74.0 
1.0 1.0 1.0 1.0 1.0 1.0 0.999350037881393 1.0 0.9988771280863211 1:30.0 2:79.0 3:4.0 4:66.0 5:68.0 6:31.0 7:41.0 10:28.0 11:57.0 12:64.0 13:100.0 14:100.0 16:92.0 
1.0 1.0 1.0 1.0 1.0 1.0 0.9999999985746699 1.0 0.999324203027562 1:100.0 2:82.0 3:61.0 4:100.0 5:50.0 6:68.0 7:72.0 8:31.0 9:38.0 12:16.0 13:31.0 14:49.0 15:78.0 16:76.0 
1.0 1.0 1.0 1.0 1.0 1.0 1.0 1.0 0.9993157615906185 1:44.0 2:93.0 4:100.0 5:32.0 6:60.0 7:85.0 8:27.0 9:61.0 11:41.0 12:36.0 13:100.0 14:65.0 15:72.0 16:88.0 
1.0 1.0 1.0 1.0 1.0 1.0 1.0 1.0 0.9988112620477643 1:67.0 2:78.0 3:54.0 4:100.0 6:83.0 7:36.0 8:43.0 9:61.0 11:15.0 12:14.0 13:51.0 14:54.0 15:100.0 16:80.0 
1.0 1.0 1.0 1.0 1.0 1.0 0.9993618648611695 1.0 0.9993188131403179 1:12.0 2:79.0 3:62.0 4:46.0 5:100.0 6:12.0 7:23.0 9:41.0 10:33.0 11:86.0 12:67.0 13:82.0 14:100.0 16:88.0 
1.0 1.0 1.0 1.0 1.0 1.0 1.0 1.0 0.9987938085486844 1:17.0 2:97.0 3:25.0 4:59.0 5:85.0 6:100.0 8:82.0 9:27.0 10:51.0 11:23.0 13:100.0 14:36.0 15:19.0 16:33.0 
1.0 1.0 1.0 1.0 1.0 1.0 1.0 1.0 0.9993275187623831 1:69.0 2:82.0 4:100.0 5:22.0 6:64.0 7:96.0 8:36.0 9:96.0 11:33.0 12:20.0 13:93.0 14:53.0 15:100.0 16:79.0 
1.0 1.0 1.0 1.0 1.0 1.0 1.0 1.0 0.9993303286323638 1:11.0 2:58.0 3:85.0 4:41.0 5:87.0 8:9.0 9:23.0 10:50.0 11:100.0 12:78.0 13:71.0 14:100.0 15:10.0 16:77.0 
1.0 1.0 1.0 1.0 1.0 1.0 1.0 1.0 0.9987976727426471 1:23.0 2:100.0 3:13.0 4:70.0 5:66.0 6:36.0 7:33.0 10:25.0 11:59.0 12:58.0 13:100.0 14:96.0 15:28.0 16:97.0 
1.0 1.0 1.0 1.0 1.0 1.0 1.0 1.0 0.9987685734541223 1:31.0 2:100.0 4:82.0 5:47.0 6:46.0 7:97.0 8:12.0 9:44.0 11:31.0 12:33.0 13:95.0 14:61.0 15:100.0 16:91.0 
1.0 1.0 1.0 1.0 1.0 1.0 0.9999934874772427 1.0 0.9989712908575303 1:24.0 2:97.0 3:55.0 4:60.0 5:77.0 6:22.0 7:21.0 10:31.0 11:51.0 12:62.0 13:100.0 14:95.0 15:30.0 16:100.0 
1.0 1.0 1.0 1.0 1.0 1.0 1.0 1.0 0.999339138098907 1:72.0 2:100.0 3:3.0 4:76.0 5:100.0 6:63.0 7:49.0 8:99.0 9:29.0 10:45.0 12:28.0 13:53.0 15:33.0 16:48.0 
1.0 1.0 1.0 1.0 1.0 1.0 1.0 1.0 0.9993367604380451 1:32.0 2:85.0 3:67.0 4:55.0 5:95.0 6:10.0 7:4.0 9:12.0 10:40.0 11:95.0 12:71.0 13:100.0 14:100.0 16:87.0 
1.0 1.0 1.0 1.0 1.0 1.0 0.999999958833043 1.0 0.9993455558796495 1:72.0 2:68.0 3:42.0 4:100.0 6:68.0 7:61.0 8:34.0 9:79.0 11:1.0 12:16.0 13:50.0 14:53.0 15:100.0 16:88.0 
1.0 1.0 1.0 1.0 1.0 1.0 1.0 1.0 0.9987292594172791 1:83.0 2:100.0 3:18.0 4:88.0 5:37.0 6:43.0 7:61.0 10:20.0 11:53.0 12:56.0 13:100.0 14:91.0 15:22.0 16:97.0 
1.0 1.0 1.0 1.0 1.0 1.0 0.9994700919681871 1.0 0.9990575671042707 2:25.0 3:52.0 4:58.0 5:76.0 6:98.0 7:15.0 8:100.0 9:54.0 10:64.0 11:100.0 12:29.0 13:49.0 15:9.0 16:28.0 
1.0 1.0 1.0 1.0 1.0 1.0 1.0 1.0 0.9993420453814594 1:29.0 2:61.0 3:97.0 4:31.0 5:78.0 8:12.0 9:45.0 10:45.0 11:100.0 12:77.0 13:80.0 14:100.0 15:9.0 16:73.0 
1.0 1.0 1.0 1.0 1.0 1.0 0.9999998074546619 1.0 0.9993102662047028 1:51.0 2:91.0 3:46.0 4:56.0 5:29.0 6:15.0 9:36.0 10:33.0 11:72.0 12:64.0 13:100.0 14:100.0 15:48.0 16:92.0 
1.0 1.0 1.0 1.0 1.0 1.0 1.0 1.0 0.9987363715458152 1:30.0 2:81.0 3:62.0 4:43.0 5:64.0 7:29.0 8:15.0 9:62.0 10:52.0 11:100.0 12:87.0 13:58.0 14:100.0 16:87.0 
1.0 1.0 1.0 1.0 1.0 1.0 1.0 1.0 0.9993432311056161 1:43.0 2:100.0 4:88.0 5:67.0 6:47.0 7:85.0 9:17.0 10:16.0 11:83.0 12:56.0 13:100.0 14:93.0 15:17.0 16:74.0 
1.0 1.0 1.0 1.0 1.0 1.0 0.9999995849932906 1.0 0.9992940130165181 1:43.0 2:67.0 3:83.0 4:33.0 5:78.0 7:9.0 8:9.0 9:57.0 10:41.0 11:100.0 12:73.0 13:57.0 14:100.0 16:78.0 
1.0 1.0 1.0 1.0 1.0 1.0 0.9994898037646861 1.0 0.999114820772958 1:49.0 2:75.0 3:44.0 4:100.0 5:23.0 6:73.0 7:43.0 8:37.0 9:47.0 12:16.0 13:40.0 14:45.0 15:100.0 16:68.0 
1.0 1.0 1.0 1.0 1.0 1.0 0.9999999994817929 1.0 0.9993139085967686 1:73.0 2:92.0 4:100.0 5:23.0 6:63.0 7:77.0 8:31.0 9:50.0 11:7.0 12:30.0 13:52.0 14:66.0 15:100.0 16:98.0 
1.0 1.0 1.0 1.0 1.0 1.0 1.0 1.0 0.9993425906530594 1:29.0 2:100.0 3:20.0 4:62.0 5:100.0 6:96.0 7:15.0 8:96.0 9:14.0 10:51.0 11:25.0 13:90.0 14:47.0 16:44.0 
1.0 1.0 1.0 1.0 1.0 1.0 1.0 1.0 0.9993449034592453 1:53.0 2:61.0 3:100.0 4:73.0 5:92.0 6:100.0 7:55.0 8:72.0 9:58.0 10:36.0 11:51.0 12:1.0 15:29.0 16:31.0 
1.0 1.0 1.0 1.0 1.0 1.0 1.0 1.0 0.9987516355790976 1:100.0 2:98.0 3:51.0 4:100.0 5:11.0 6:72.0 7:44.0 8:35.0 9:43.0 12:20.0 13:22.0 14:61.0 15:65.0 16:92.0 
1.0 1.0 1.0 1.0 1.0 1.0 0.9999999994119111 1.0 0.9993163749029382 1:86.0 2:59.0 3:56.0 4:100.0 6:81.0 7:48.0 8:42.0 9:71.0 11:11.0 12:8.0 13:45.0 14:52.0 15:100.0 16:88.0 
1.0 1.0 1.0 1.0 1.0 1.0 1.0 1.0 0.999343814135364 1:81.0 2:60.0 3:96.0 4:100.0 6:98.0 7:49.0 8:54.0 9:96.0 10:11.0 11:13.0 13:33.0 14:45.0 15:100.0 16:86.0 
1.0 1.0 1.0 1.0 1.0 1.0 0.9994401238337254 1.0 0.9992991013007003 1:77.0 2:97.0 3:13.0 4:85.0 5:62.0 6:41.0 7:100.0 9:24.0 10:11.0 11:48.0 12:63.0 13:72.0 14:100.0 16:76.0 
1.0 1.0 1.0 1.0 1.0 1.0 1.0 1.0 0.9987412000131106 1:18.0 2:68.0 3:50.0 4:54.0 5:100.0 6:19.0 7:30.0 9:24.0 10:35.0 11:84.0 12:68.0 13:90.0 14:100.0 16:84.0 
1.0 1.0 1.0 1.0 1.0 1.0 1.0 1.0 0.9987403918683448 1:49.0 2:49.0 3:100.0 4:79.0 5:54.0 6:100.0 7:8.0 8:68.0 9:35.0 10:27.0 13:6.0 14:35.0 15:71.0 16:63.0 
1.0 1.0 1.0 1.0 1.0 1.0 0.9994418332189434 1.0 0.9993211538746499 1:77.0 2:99.0 3:43.0 4:77.0 5:34.0 6:36.0 9:23.0 10:34.0 11:66.0 12:68.0 13:100.0 14:100.0 15:39.0 16:78.0 
1.0 1.0 1.0 1.0 1.0 1.0 0.9994418406171498 1.0 0.9987585267383433 2:77.0 3:50.0 4:100.0 5:100.0 6:72.0 7:40.0 8:39.0 9:13.0 11:74.0 12:1.0 13:23.0 14:38.0 15:12.0 16:77.0 
1.0 1.0 1.0 1.0 1.0 1.0 1.0 1.0 0.9993410544952274 1:49.0 2:73.0 3:61.0 4:100.0 6:84.0 7:42.0 8:42.0 9:81.0 11:26.0 12:10.0 13:43.0 14:56.0 15:100.0 16:86.0 
1.0 1.0 1.0 1.0 1.0 1.0 1.0 1.0 0.9993382228975218 1:49.0 2:91.0 3:31.0 4:63.0 5:71.0 6:29.0 7:11.0 10:32.0 11:49.0 12:67.0 13:100.0 14:100.0 16:83.0 
1.0 1.0 1.0 1.0 1.0 1.0 1.0 1.0 0.9993376134641223 1:100.0 2:75.0 3:49.0 4:100.0 5:24.0 6:61.0 7:100.0 8:27.0 9:91.0 12:18.0 13:66.0 14:55.0 15:93.0 16:85.0 
1.0 1.0 1.0 1.0 1.0 1.0 0.9994418337777363 1.0 0.998928771515102 1:75.0 2:77.0 3:41.0 4:100.0 5:19.0 6:68.0 7:65.0 8:36.0 9:59.0 12:5.0 13:43.0 14:38.0 15:100.0 16:66.0 
1.0 1.0 1.0 1.0 1.0 1.0 0.9999999930201061 1.0 0.9993373086145679 1:6.0 2:27.0 3:47.0 4:57.0 5:62.0 6:100.0 7:8.0 8:91.0 9:48.0 10:56.0 11:100.0 12:25.0 13:51.0 16:22.0 
1.0 1.0 1.0 1.0 1.0 1.0 1.0 1.0 0.9987467526323718 1:13.0 2:65.0 3:73.0 4:34.0 5:94.0 9:27.0 10:34.0 11:82.0 12:65.0 13:100.0 14:100.0 15:27.0 16:77.0 
1.0 1.0 1.0 1.0 1.0 1.0 1.0 1.0 0.9993383684391273 1:77.0 2:97.0 3:63.0 4:73.0 5:91.0 6:32.0 7:54.0 10:24.0 11:49.0 12:54.0 13:100.0 14:86.0 15:46.0 16:100.0 
1.0 1.0 1.0 1.0 1.0 1.0 1.0 1.0 0.999325016095087 1:69.0 2:91.0 3:10.0 4:95.0 5:34.0 6:46.0 7:50.0 10:23.0 11:62.0 12:50.0 13:100.0 14:87.0 15:36.0 16:100.0 
1.0 1.0 1.0 1.0 1.0 1.0 1.0 1.0 0.9993247448008086 2:71.0 3:64.0 4:52.0 5:100.0 6:16.0 7:34.0 9:21.0 10:36.0 11:69.0 12:68.0 13:80.0 14:100.0 15:8.0 16:93.0 
1.0 1.0 1.0 1.0 1.0 1.0 0.9994216371421693 1.0 0.9993211671509252 1:97.0 2:75.0 3:60.0 4:100.0 5:35.0 6:68.0 7:68.0 8:32.0 9:49.0 12:22.0 13:39.0 14:57.0 15:100.0 16:83.0 
1.0 1.0 1.0 1.0 1.0 1.0 0.9993503485933656 1.0 0.9993242030275665 1:95.0 2:69.0 3:60.0 4:100.0 5:35.0 6:66.0 7:63.0 8:28.0 9:24.0 12:23.0 13:41.0 14:56.0 15:100.0 16:82.0 
1.0 1.0 1.0 1.0 1.0 1.0 0.9994398963876229 1.0 0.9993248572970944 1:44.0 2:95.0 3:1.0 4:72.0 5:39.0 6:36.0 7:38.0 10:24.0 11:49.0 12:57.0 13:100.0 14:90.0 15:34.0 16:100.0 
1.0 1.0 1.0 1.0 1.0 1.0 1.0 1.0 0.9993209155274579 1:56.0 2:76.0 3:18.0 4:100.0 6:69.0 7:57.0 8:37.0 9:71.0 11:12.0 12:20.0 13:62.0 14:55.0 15:100.0 16:83.0 
1.0 1.0 1.0 1.0 1.0 1.0 0.9994700919743532 1.0 0.9993014208536192 1:66.0 2:94.0 4:92.0 5:38.0 6:48.0 7:90.0 8:5.0 9:11.0 11:36.0 12:45.0 13:100.0 14:84.0 15:18.0 16:100.0 
1.0 1.0 1.0 1.0 1.0 1.0 0.9999999876114141 1.0 0.9993395703653478 1:67.0 2:73.0 3:41.0 4:100.0 5:16.0 6:67.0 7:73.0 8:34.0 9:78.0 12:10.0 13:35.0 14:47.0 15:100.0 16:77.0 
1.0 1.0 1.0 1.0 1.0 1.0 1.0 1.0 0.999321166199431 1:76.0 2:56.0 3:75.0 4:100.0 6:90.0 7:35.0 8:53.0 9:95.0 10:21.0 11:47.0 13:57.0 14:44.0 15:100.0 16:85.0 
1.0 1.0 1.0 1.0 1.0 1.0 1.0 1.0 0.9987296124084671 1:50.0 2:93.0 3:4.0 4:100.0 5:38.0 6:58.0 7:100.0 8:17.0 9:25.0 12:43.0 13:54.0 14:87.0 15:6.0 16:89.0 
1.0 1.0 1.0 1.0 1.0 1.0 0.9999999963464776 1.0 0.9993371965767066 1:100.0 2:99.0 3:43.0 4:100.0 5:8.0 6:68.0 7:38.0 8:32.0 9:25.0 12:30.0 13:41.0 14:63.0 15:95.0 16:86.0 
1.0 1.0 1.0 1.0 1.0 1.0 1.0 1.0 0.999315322215232 1:58.0 2:56.0 3:55.0 4:100.0 6:74.0 7:68.0 8:42.0 9:100.0 11:19.0 12:1.0 13:29.0 14:45.0 15:87.0 16:83.0 
1.0 1.0 1.0 1.0 1.0 1.0 1.0 1.0 0.9993091780751722 2:77.0 3:49.0 4:100.0 5:100.0 6:74.0 7:85.0 8:37.0 9:58.0 11:93.0 12:13.0 13:69.0 14:48.0 15:5.0 16:74.0 
1.0 1.0 1.0 1.0 1.0 1.0 1.0 1.0 0.9993014669379459 1:41.0 2:94.0 3:71.0 4:72.0 5:95.0 6:33.0 7:34.0 10:27.0 11:51.0 12:63.0 13:100.0 14:100.0 15:41.0 16:94.0 
1.0 1.0 1.0 1.0 1.0 1.0 1.0 1.0 0.9992915889553913 2:54.0 3:59.0 4:54.0 5:100.0 6:23.0 7:45.0 9:41.0 10:34.0 11:79.0 12:69.0 13:65.0 14:100.0 15:13.0 16:75.0 
1.0 1.0 1.0 1.0 1.0 1.0 1.0 1.0 0.9992940889894801 1:29.0 2:83.0 4:83.0 5:41.0 6:42.0 7:53.0 9:17.0 10:20.0 11:50.0 12:61.0 13:100.0 14:100.0 15:29.0 16:95.0 
1.0 1.0 1.0 1.0 1.0 1.0 1.0 1.0 0.9992784189228274 1:76.0 2:81.0 3:25.0 4:100.0 5:35.0 6:64.0 7:94.0 8:31.0 9:75.0 12:22.0 13:28.0 14:58.0 15:100.0 16:88.0 
1.0 1.0 1.0 1.0 1.0 1.0 1.0 1.0 0.999258296079885 1:35.0 2:74.0 3:71.0 4:42.0 5:100.0 6:9.0 7:62.0 9:76.0 10:38.0 11:89.0 12:76.0 13:48.0 14:100.0 16:82.0 
1.0 1.0 1.0 1.0 1.0 1.0 1.0 1.0 0.9992546744305311 1:59.0 2:85.0 3:4.0 4:100.0 5:49.0 6:50.0 7:94.0 10:24.0 11:49.0 12:56.0 13:100.0 14:88.0 15:4.0 16:90.0 
1.0 1.0 1.0 1.0 1.0 1.0 0.9999999132055541 1.0 0.9993323074937529 1:67.0 2:96.0 3:20.0 4:100.0 5:21.0 6:59.0 7:41.0 8:20.0 9:11.0 12:35.0 13:48.0 14:65.0 15:100.0 16:93.0 
1.0 1.0 1.0 1.0 1.0 1.0 1.0 1.0 0.9992563969807577 2:33.0 3:66.0 4:60.0 5:100.0 6:100.0 7:48.0 8:78.0 9:84.0 10:37.0 11:52.0 13:30.0 14:32.0 15:85.0 16:68.0 
1.0 1.0 1.0 1.0 1.0 1.0 1.0 1.0 0.9992347616584241 1:37.0 2:55.0 3:100.0 4:72.0 5:94.0 6:100.0 7:52.0 8:75.0 9:57.0 10:37.0 11:57.0 14:2.0 15:9.0 16:36.0 
1.0 1.0 1.0 1.0 1.0 1.0 0.9994401238486381 1.0 0.9993455558807183 1:10.0 2:23.0 3:56.0 4:59.0 5:67.0 6:100.0 8:93.0 9:44.0 10:57.0 11:100.0 12:25.0 13:50.0 15:16.0 16:26.0 
1.0 1.0 1.0 1.0 1.0 1.0 1.0 1.0 0.9992349866172275 2:69.0 3:28.0 4:100.0 5:100.0 6:97.0 7:77.0 8:55.0 9:40.0 10:15.0 11:86.0 13:38.0 14:33.0 15:9.0 16:72.0 
1.0 1.0 1.0 1.0 1.0 1.0 0.9999993559484119 1.0 0.9992746759737479 1:72.0 2:64.0 3:54.0 4:100.0 5:24.0 6:73.0 7:54.0 8:36.0 9:45.0 12:19.0 13:41.0 14:53.0 15:100.0 16:80.0 
1.0 1.0 1.0 1.0 1.0 1.0 0.9994416363874958 1.0 0.9990387698060541 1:65.0 2:66.0 3:61.0 4:100.0 5:13.0 6:67.0 7:76.0 8:34.0 9:90.0 12:5.0 13:32.0 14:44.0 15:100.0 16:75.0 
1.0 1.0 1.0 1.0 1.0 1.0 0.9994420853342764 1.0 0.9989340882012329 1:38.0 2:71.0 3:72.0 4:36.0 5:81.0 7:12.0 8:11.0 9:57.0 10:45.0 11:100.0 12:80.0 13:49.0 14:100.0 16:70.0 
1.0 1.0 1.0 1.0 1.0 1.0 0.9996662300524929 1.0 0.9991081134974211 1:56.0 2:66.0 3:100.0 4:94.0 5:44.0 6:100.0 7:35.0 8:64.0 9:63.0 10:29.0 11:37.0 14:22.0 15:42.0 16:54.0 
1.0 1.0 1.0 1.0 1.0 1.0 1.0 1.0 0.9992349954498135 1:79.0 2:87.0 3:32.0 4:63.0 5:85.0 6:32.0 7:73.0 10:12.0 11:42.0 12:44.0 13:100.0 14:75.0 15:70.0 16:100.0 
1.0 1.0 1.0 1.0 1.0 1.0 0.999999062812269 1.0 0.9994831877792536 1:7.0 2:61.0 3:75.0 4:35.0 5:72.0 8:7.0 9:42.0 10:41.0 11:100.0 12:72.0 13:79.0 14:100.0 15:14.0 16:75.0 
1.0 1.0 1.0 1.0 1.0 1.0 0.999350348593236 1.0 0.9992335621118644 1:30.0 2:68.0 3:63.0 4:39.0 5:77.0 8:6.0 9:44.0 10:41.0 11:100.0 12:75.0 13:63.0 14:100.0 15:9.0 16:69.0 
1.0 1.0 1.0 1.0 1.0 1.0 1.0 1.0 0.9992349107273331 1:64.0 2:83.0 3:16.0 4:87.0 5:11.0 6:43.0 9:5.0 10:33.0 11:54.0 12:68.0 13:100.0 14:100.0 15:25.0 16:90.0 
1.0 1.0 1.0 1.0 1.0 1.0 1.0 1.0 0.9992346664171641 1:85.0 2:100.0 3:19.0 4:76.0 5:100.0 6:62.0 7:47.0 8:97.0 9:26.0 10:50.0 12:18.0 13:81.0 15:48.0 16:43.0 
1.0 1.0 1.0 1.0 1.0 1.0 0.999999999915405 1.0 0.9992563969807575 1:31.0 2:74.0 3:62.0 4:37.0 5:55.0 8:17.0 9:46.0 10:49.0 11:100.0 12:78.0 13:83.0 14:100.0 15:34.0 16:72.0 
1.0 1.0 1.0 1.0 1.0 1.0 0.9999999533518218 1.0 0.9993425905811246 1:80.0 2:71.0 3:59.0 4:100.0 5:18.0 6:73.0 7:44.0 8:34.0 9:50.0 12:20.0 13:46.0 14:50.0 15:100.0 16:74.0 
1.0 1.0 1.0 1.0 1.0 1.0 1.0 1.0 0.9992077655120812 1:68.0 2:94.0 3:67.0 4:75.0 5:100.0 6:100.0 7:39.0 8:70.0 10:42.0 11:20.0 13:97.0 14:25.0 15:33.0 16:65.0 
1.0 1.0 1.0 1.0 1.0 1.0 1.0 1.0 0.9992055928760408 1:89.0 2:93.0 3:31.0 4:100.0 5:40.0 6:50.0 7:53.0 11:46.0 12:41.0 13:100.0 14:79.0 15:36.0 16:85.0 
1.0 1.0 1.0 1.0 1.0 1.0 1.0 1.0 0.9991996038636732 1:67.0 2:79.0 3:33.0 4:62.0 5:100.0 6:30.0 7:71.0 9:43.0 10:32.0 11:87.0 12:68.0 13:93.0 14:100.0 16:79.0 
1.0 1.0 1.0 1.0 1.0 1.0 1.0 1.0 0.999194573397153 1:56.0 2:89.0 3:55.0 4:63.0 5:100.0 6:29.0 7:53.0 9:52.0 10:33.0 11:93.0 12:68.0 13:82.0 14:100.0 16:84.0 
1.0 1.0 1.0 1.0 1.0 1.0 0.9993503387600818 1.0 0.9987707841929848 1:9.0 2:70.0 3:41.0 4:100.0 5:100.0 6:85.0 7:68.0 8:42.0 9:27.0 10:2.0 11:75.0 13:45.0 14:42.0 16:80.0 
1.0 1.0 1.0 1.0 1.0 1.0 1.0 1.0 0.9991944041590083 1:65.0 2:81.0 3:100.0 4:48.0 5:88.0 6:10.0 7:7.0 9:40.0 10:35.0 11:97.0 12:68.0 13:78.0 14:100.0 16:87.0 
1.0 1.0 1.0 1.0 1.0 1.0 0.9994799002367697 1.0 0.9991943027793836 1:91.0 2:73.0 3:55.0 4:100.0 6:73.0 7:49.0 8:37.0 9:83.0 11:17.0 12:7.0 13:56.0 14:44.0 15:100.0 16:77.0 
1.0 1.0 1.0 1.0 1.0 1.0 0.9999945899735586 1.0 0.9990937334772674 1:5.0 2:28.0 3:50.0 4:60.0 5:69.0 6:100.0 7:17.0 8:90.0 9:60.0 10:58.0 11:100.0 12:24.0 13:49.0 16:22.0 
1.0 1.0 1.0 1.0 1.0 1.0 0.9994155274026425 1.0 0.9991939633623288 1:59.0 2:99.0 3:8.0 4:100.0 5:24.0 6:58.0 7:81.0 8:28.0 9:57.0 12:25.0 13:39.0 14:64.0 15:100.0 16:93.0 
1.0 1.0 1.0 1.0 1.0 1.0 1.0 1.0 0.9991938182550875 1:56.0 2:94.0 3:21.0 4:74.0 5:100.0 6:89.0 7:29.0 8:100.0 10:63.0 11:2.0 13:74.0 14:21.0 15:20.0 16:66.0 
1.0 1.0 1.0 1.0 1.0 1.0 1.0 1.0 0.99919382593889 1:92.0 2:100.0 3:8.0 4:87.0 5:54.0 6:50.0 7:100.0 8:15.0 11:5.0 12:37.0 13:64.0 14:73.0 15:48.0 16:99.0 
1.0 1.0 1.0 1.0 1.0 1.0 1.0 1.0 0.9991941106219323 1:100.0 2:94.0 3:4.0 4:100.0 5:2.0 6:57.0 7:87.0 8:19.0 11:7.0 12:44.0 13:78.0 14:87.0 15:7.0 16:91.0 
1.0 1.0 1.0 1.0 1.0 1.0 1.0 1.0 0.9991938586272561 1:100.0 2:73.0 3:56.0 4:100.0 5:3.0 6:72.0 7:55.0 8:37.0 9:80.0 12:3.0 13:27.0 14:41.0 15:95.0 16:70.0 
1.0 1.0 1.0 1.0 1.0 1.0 1.0 1.0 0.999193991402787 1:97.0 2:98.0 3:19.0 4:80.0 5:100.0 6:57.0 7:69.0 8:100.0 9:45.0 10:50.0 12:19.0 13:73.0 15:31.0 16:43.0 
1.0 1.0 1.0 1.0 1.0 1.0 1.0 1.0 0.9991942652111178 1:5.0 2:66.0 3:16.0 4:100.0 5:100.0 6:98.0 7:69.0 8:58.0 9:29.0 10:20.0 11:75.0 13:21.0 14:32.0 16:71.0 
1.0 1.0 1.0 1.0 1.0 1.0 1.0 1.0 0.9991939251201242 1:77.0 2:57.0 3:87.0 4:100.0 6:95.0 7:43.0 8:55.0 9:100.0 10:15.0 11:40.0 13:28.0 14:45.0 15:86.0 16:85.0 
1.0 1.0 1.0 1.0 1.0 1.0 1.0 1.0 0.9991939184086358 1:13.0 2:69.0 3:78.0 4:100.0 5:100.0 6:73.0 7:59.0 8:36.0 9:11.0 11:87.0 12:11.0 13:87.0 14:45.0 16:69.0 
1.0 1.0 1.0 1.0 1.0 1.0 0.999999885857491 1.0 0.9993275187565993 1:68.0 2:100.0 3:11.0 4:89.0 5:59.0 6:45.0 7:61.0 10:17.0 11:65.0 12:55.0 13:100.0 14:100.0 15:18.0 16:98.0 
1.0 1.0 1.0 1.0 1.0 1.0 1.0 1.0 0.9991939375685575 1:91.0 2:90.0 3:59.0 4:64.0 5:50.0 6:16.0 9:21.0 10:44.0 11:94.0 12:73.0 13:100.0 14:100.0 15:11.0 16:92.0 
1.0 1.0 1.0 1.0 1.0 1.0 1.0 1.0 0.9991719946801461 1:59.0 2:77.0 3:15.0 4:63.0 5:88.0 6:31.0 7:47.0 9:14.0 10:26.0 11:66.0 12:62.0 13:100.0 14:100.0 16:99.0 
1.0 1.0 1.0 1.0 1.0 1.0 1.0 1.0 0.9991723469044274 1:27.0 2:50.0 3:79.0 4:68.0 5:100.0 6:100.0 7:46.0 8:85.0 9:42.0 10:42.0 11:51.0 12:1.0 15:35.0 16:33.0 
1.0 1.0 1.0 1.0 1.0 1.0 1.0 1.0 0.999171966979058 1:25.0 2:88.0 3:39.0 4:61.0 5:92.0 6:24.0 7:27.0 9:15.0 10:33.0 11:77.0 12:68.0 13:100.0 14:100.0 16:88.0 
1.0 1.0 1.0 1.0 1.0 1.0 0.9992453554287837 1.0 0.9987670798012841 1:86.0 2:78.0 3:53.0 4:100.0 5:32.0 6:69.0 7:56.0 8:32.0 9:36.0 12:18.0 13:49.0 14:48.0 15:100.0 16:77.0 
1.0 1.0 1.0 1.0 1.0 1.0 0.9999999423227011 1.0 0.9993419569410503 1:57.0 2:92.0 3:18.0 4:72.0 5:42.0 6:30.0 7:7.0 10:39.0 11:50.0 12:69.0 13:100.0 14:99.0 15:43.0 16:100.0 
1.0 1.0 1.0 1.0 1.0 1.0 1.0 1.0 0.9991720564683052 1:78.0 2:62.0 3:60.0 4:100.0 5:12.0 6:65.0 7:94.0 8:32.0 9:100.0 12:14.0 13:60.0 14:53.0 15:72.0 16:83.0 
1.0 1.0 1.0 1.0 1.0 1.0 0.9994799002370266 1.0 0.9991719653634815 1:83.0 2:96.0 3:20.0 4:81.0 5:67.0 6:41.0 7:54.0 10:27.0 11:65.0 12:62.0 13:100.0 14:100.0 15:15.0 16:93.0 
1.0 1.0 1.0 1.0 1.0 1.0 1.0 1.0 0.999172148373222 1:83.0 2:63.0 3:77.0 4:55.0 5:100.0 6:15.0 7:35.0 9:23.0 10:38.0 11:70.0 12:73.0 13:63.0 14:100.0 16:78.0 
1.0 1.0 1.0 1.0 1.0 1.0 1.0 1.0 0.9991719719256594 1:43.0 2:84.0 3:36.0 4:63.0 5:100.0 6:38.0 7:75.0 9:33.0 10:24.0 11:61.0 12:66.0 13:61.0 14:100.0 16:73.0 
1.0 1.0 1.0 1.0 1.0 1.0 1.0 1.0 0.9991720470714615 1:90.0 2:82.0 3:4.0 4:94.0 5:44.0 6:49.0 7:62.0 10:7.0 11:49.0 12:50.0 13:100.0 14:92.0 15:21.0 16:100.0 
1.0 1.0 1.0 1.0 1.0 1.0 0.9999999939381091 1.0 0.9993376134640939 1:62.0 2:83.0 3:27.0 4:69.0 5:70.0 6:26.0 7:47.0 10:34.0 11:63.0 12:66.0 13:100.0 14:98.0 15:19.0 16:100.0 
1.0 1.0 1.0 1.0 1.0 1.0 1.0 1.0 0.9991627372190366 1:69.0 2:97.0 3:37.0 4:54.0 5:57.0 8:4.0 9:30.0 10:46.0 11:100.0 12:66.0 13:84.0 14:100.0 15:12.0 16:94.0 
1.0 1.0 1.0 1.0 1.0 1.0 0.999390270757136 1.0 0.9990389649787342 1:31.0 2:84.0 3:67.0 4:50.0 5:68.0 6:2.0 9:37.0 10:40.0 11:100.0 12:70.0 13:70.0 14:100.0 15:2.0 16:82.0 
1.0 1.0 1.0 1.0 1.0 1.0 1.0 1.0 0.9991336280065075 1:76.0 2:81.0 4:82.0 5:57.0 6:42.0 7:91.0 9:19.0 10:17.0 11:78.0 12:57.0 13:100.0 14:100.0 15:20.0 16:84.0 
1.0 1.0 1.0 1.0 1.0 1.0 1.0 1.0 0.9991331927079137 1:54.0 2:82.0 3:26.0 4:63.0 5:100.0 6:76.0 7:28.0 8:100.0 9:61.0 10:50.0 12:36.0 13:49.0 15:55.0 16:54.0 
1.0 1.0 1.0 1.0 1.0 1.0 0.9999998561316712 1.0 0.9993186857501206 1:100.0 2:100.0 3:39.0 4:93.0 5:43.0 6:59.0 7:70.0 8:25.0 9:32.0 12:24.0 13:34.0 14:56.0 15:79.0 16:84.0 
1.0 1.0 1.0 1.0 1.0 1.0 1.0 1.0 0.9991306678966569 1:25.0 2:80.0 3:75.0 4:100.0 5:92.0 6:69.0 7:72.0 8:35.0 9:52.0 11:100.0 12:18.0 13:61.0 14:48.0 16:65.0 
1.0 1.0 1.0 1.0 1.0 1.0 0.9994420853675882 1.0 0.9987708144411653 1:98.0 2:100.0 3:31.0 4:97.0 5:48.0 6:60.0 7:72.0 8:23.0 9:16.0 12:30.0 13:47.0 14:62.0 15:100.0 16:92.0 
1.0 1.0 1.0 1.0 1.0 1.0 1.0 1.0 0.9991274172884769 1:42.0 2:63.0 3:100.0 4:85.0 5:54.0 6:100.0 7:42.0 8:62.0 9:62.0 10:22.0 14:27.0 15:73.0 16:51.0 
1.0 1.0 1.0 1.0 1.0 1.0 0.9994316521499147 1.0 0.9993104807203853 1:89.0 2:79.0 3:48.0 4:100.0 5:21.0 6:71.0 7:51.0 8:34.0 9:40.0 12:18.0 13:49.0 14:47.0 15:100.0 16:77.0 
1.0 1.0 1.0 1.0 1.0 1.0 0.9994418338869693 1.0 0.9987707940172827 2:39.0 3:62.0 4:67.0 5:86.0 6:100.0 7:6.0 8:87.0 9:38.0 10:54.0 11:100.0 12:26.0 13:72.0 15:1.0 16:17.0 
1.0 1.0 1.0 1.0 1.0 1.0 1.0 1.0 0.9991272625805085 1:7.0 2:91.0 3:34.0 4:60.0 5:77.0 6:100.0 8:69.0 9:8.0 10:39.0 11:32.0 13:100.0 14:43.0 15:8.0 16:39.0 
1.0 1.0 1.0 1.0 1.0 1.0 1.0 1.0 0.9991148488556436 1:98.0 2:76.0 3:59.0 4:100.0 5:16.0 6:76.0 7:74.0 8:42.0 9:77.0 12:9.0 13:31.0 14:48.0 15:100.0 16:76.0 
1.0 1.0 1.0 1.0 1.0 1.0 1.0 1.0 0.9991148210868579 1:100.0 2:85.0 3:17.0 4:97.0 5:8.0 6:71.0 7:88.0 8:41.0 9:67.0 12:23.0 13:47.0 14:63.0 15:100.0 16:100.0 
1.0 1.0 1.0 1.0 1.0 1.0 1.0 1.0 0.9991148680621504 1:22.0 2:75.0 3:58.0 4:41.0 5:38.0 8:8.0 9:55.0 10:39.0 11:100.0 12:74.0 13:60.0 14:100.0 15:7.0 16:76.0 
1.0 1.0 1.0 1.0 1.0 1.0 0.999384536544674 1.0 0.9990384676027125 1:100.0 2:88.0 3:32.0 4:100.0 6:64.0 7:55.0 8:31.0 9:40.0 11:5.0 12:30.0 13:55.0 14:66.0 15:91.0 16:98.0 
1.0 1.0 1.0 1.0 1.0 1.0 0.999409305481516 1.0 0.998859293251338 2:63.0 3:63.0 4:33.0 5:72.0 7:20.0 8:9.0 9:58.0 10:42.0 11:100.0 12:74.0 13:56.0 14:100.0 15:7.0 16:71.0 
1.0 1.0 1.0 1.0 1.0 1.0 0.9999999748849484 1.0 0.9993466362261312 1:79.0 2:98.0 4:87.0 5:39.0 6:48.0 7:95.0 8:13.0 9:28.0 11:46.0 12:40.0 13:100.0 14:77.0 15:58.0 16:100.0 
1.0 1.0 1.0 1.0 1.0 1.0 0.9994662033584027 1.0 0.9988593138596555 1:43.0 2:84.0 4:77.0 5:48.0 6:37.0 7:28.0 9:1.0 10:25.0 11:68.0 12:57.0 13:100.0 14:97.0 15:21.0 16:100.0 
1.0 1.0 1.0 1.0 1.0 1.0 0.9994155274026425 1.0 0.9991085050034552 1:23.0 2:69.0 3:60.0 4:33.0 5:48.0 8:19.0 9:48.0 10:50.0 11:100.0 12:81.0 13:68.0 14:100.0 15:17.0 16:71.0 
1.0 1.0 1.0 1.0 1.0 1.0 1.0 1.0 0.9991084858638164 1:50.0 2:100.0 3:10.0 4:67.0 5:100.0 6:100.0 7:14.0 8:94.0 9:19.0 10:56.0 13:89.0 14:29.0 15:1.0 16:40.0 
1.0 1.0 1.0 1.0 1.0 1.0 0.9993503485933656 1.0 0.9989730809585086 2:69.0 3:35.0 4:100.0 5:100.0 6:94.0 7:69.0 8:49.0 9:26.0 10:8.0 11:71.0 13:36.0 14:40.0 15:15.0 16:83.0 
1.0 1.0 1.0 1.0 1.0 1.0 1.0 1.0 0.9990795311392555 1:62.0 2:95.0 3:12.0 4:76.0 5:74.0 6:39.0 7:100.0 9:21.0 10:6.0 11:30.0 12:57.0 13:65.0 14:100.0 16:66.0 
1.0 1.0 1.0 1.0 1.0 1.0 0.9994613398291994 1.0 0.9991938138045482 1:62.0 2:77.0 3:24.0 4:100.0 5:1.0 6:71.0 7:41.0 8:36.0 9:50.0 12:22.0 13:42.0 14:55.0 15:100.0 16:74.0 
1.0 1.0 1.0 1.0 1.0 1.0 0.9994615957156162 1.0 0.998973081252337 1:83.0 2:63.0 3:48.0 4:100.0 6:76.0 7:61.0 8:40.0 9:82.0 11:3.0 12:9.0 13:38.0 14:55.0 15:100.0 16:91.0 
1.0 1.0 1.0 1.0 1.0 1.0 0.9999999881763603 1.0 0.9993410544951035 1:3.0 2:15.0 3:44.0 4:51.0 5:88.0 6:88.0 7:46.0 8:100.0 9:42.0 10:63.0 11:100.0 12:31.0 13:72.0 16:17.0 
1.0 1.0 1.0 1.0 1.0 1.0 1.0 1.0 0.9990792910726551 1:26.0 2:75.0 3:59.0 4:41.0 5:65.0 6:3.0 9:14.0 10:36.0 11:63.0 12:66.0 13:100.0 14:100.0 15:36.0 16:90.0 
1.0 1.0 1.0 1.0 1.0 1.0 0.9994799002370263 1.0 0.9988774331951655 1:73.0 2:69.0 3:100.0 4:100.0 6:95.0 7:39.0 8:54.0 9:85.0 10:13.0 11:7.0 13:13.0 14:40.0 15:89.0 16:73.0 
1.0 1.0 1.0 1.0 1.0 1.0 0.9994401235717183 1.0 0.998877432933783 1:9.0 2:63.0 3:66.0 4:39.0 5:77.0 8:4.0 9:41.0 10:41.0 11:100.0 12:75.0 13:77.0 14:100.0 16:77.0 
1.0 1.0 1.0 1.0 1.0 1.0 1.0 1.0 0.9990724892003645 1:28.0 2:68.0 3:37.0 4:100.0 5:96.0 6:94.0 7:82.0 8:47.0 9:66.0 11:100.0 12:6.0 13:46.0 14:36.0 16:70.0 
1.0 1.0 1.0 1.0 1.0 1.0 0.9999999977384164 1.0 0.9993298129756705 1:100.0 2:84.0 3:49.0 4:78.0 5:79.0 6:39.0 7:84.0 10:13.0 11:37.0 12:50.0 13:93.0 14:85.0 15:18.0 16:100.0 
1.0 1.0 1.0 1.0 1.0 1.0 1.0 1.0 0.9990722552915081 1:100.0 2:100.0 3:22.0 4:86.0 5:23.0 6:55.0 7:73.0 8:27.0 9:42.0 12:20.0 13:53.0 14:47.0 15:100.0 16:77.0 
1.0 1.0 1.0 1.0 1.0 1.0 1.0 1.0 0.9990722223146846 1:62.0 2:99.0 4:92.0 5:32.0 6:50.0 7:100.0 8:24.0 9:67.0 11:1.0 12:19.0 13:38.0 14:64.0 15:48.0 16:100.0 
1.0 1.0 1.0 1.0 1.0 1.0 0.9999997630960135 1.0 0.9993047936546956 1:57.0 2:74.0 3:45.0 4:100.0 5:14.0 6:69.0 7:46.0 8:33.0 9:39.0 12:23.0 13:49.0 14:49.0 15:100.0 16:73.0 
1.0 1.0 1.0 1.0 1.0 1.0 1.0 1.0 0.9990716821526132 1:66.0 2:82.0 3:15.0 4:81.0 5:25.0 6:36.0 7:52.0 10:12.0 11:52.0 12:55.0 13:100.0 14:100.0 15:35.0 16:76.0 
1.0 1.0 1.0 1.0 1.0 1.0 1.0 1.0 0.9990716729249152 2:18.0 3:39.0 4:59.0 5:82.0 6:100.0 7:34.0 8:100.0 9:34.0 10:62.0 11:100.0 12:36.0 13:68.0 15:14.0 16:19.0 
1.0 1.0 1.0 1.0 1.0 1.0 1.0 1.0 0.9990716718840736 2:70.0 3:33.0 4:100.0 5:100.0 6:94.0 7:100.0 8:59.0 9:75.0 10:25.0 11:47.0 13:69.0 14:34.0 15:14.0 16:61.0 
1.0 1.0 1.0 1.0 1.0 1.0 0.9993732602645469 1.0 0.9989954149157556 1:20.0 2:73.0 3:57.0 4:44.0 5:76.0 6:2.0 9:40.0 10:40.0 11:100.0 12:76.0 13:77.0 14:100.0 15:22.0 16:65.0 
1.0 1.0 1.0 1.0 1.0 1.0 1.0 1.0 0.9990716573382492 1:24.0 2:73.0 3:85.0 4:63.0 5:100.0 6:24.0 7:35.0 9:18.0 10:33.0 11:66.0 12:67.0 13:79.0 14:100.0 16:88.0 
1.0 1.0 1.0 1.0 1.0 1.0 1.0 1.0 0.9990581507620409 1:34.0 2:78.0 3:39.0 4:53.0 5:100.0 6:24.0 7:49.0 9:44.0 10:35.0 11:77.0 12:70.0 13:76.0 14:100.0 16:80.0 
1.0 1.0 1.0 1.0 1.0 1.0 1.0 1.0 0.9990581540991835 1:65.0 2:82.0 3:14.0 4:100.0 5:33.0 6:49.0 7:100.0 8:5.0 9:8.0 12:41.0 13:90.0 14:72.0 15:12.0 16:98.0 
1.0 1.0 1.0 1.0 1.0 1.0 0.999350343728942 1.0 0.9989340881554576 1:100.0 2:100.0 3:50.0 4:100.0 5:34.0 6:60.0 7:69.0 8:25.0 9:43.0 12:18.0 13:27.0 14:58.0 15:65.0 16:92.0 
1.0 1.0 1.0 1.0 1.0 1.0 1.0 1.0 0.9990581447484344 1:49.0 2:100.0 3:57.0 4:55.0 5:40.0 6:9.0 9:44.0 10:40.0 11:100.0 12:77.0 13:77.0 14:100.0 15:14.0 16:69.0 
1.0 1.0 1.0 1.0 1.0 1.0 0.9993503437262073 1.0 0.9991939299947815 1:59.0 2:84.0 3:20.0 4:66.0 5:59.0 6:29.0 7:15.0 10:36.0 11:58.0 12:66.0 13:100.0 14:100.0 15:24.0 16:92.0 
1.0 1.0 1.0 1.0 1.0 1.0 1.0 1.0 0.9990575699224863 1:8.0 2:44.0 3:30.0 4:84.0 5:100.0 6:100.0 7:97.0 8:59.0 9:66.0 10:19.0 11:67.0 13:61.0 14:38.0 16:69.0 
1.0 1.0 1.0 1.0 1.0 1.0 0.9994420875743167 1.0 0.9987708403244653 1:26.0 2:87.0 3:67.0 4:52.0 5:100.0 6:18.0 7:34.0 9:24.0 10:33.0 11:70.0 12:67.0 13:80.0 14:100.0 16:82.0 
1.0 1.0 1.0 1.0 1.0 1.0 1.0 1.0 0.9990575676990265 1:91.0 2:67.0 3:83.0 4:100.0 5:25.0 6:86.0 7:24.0 8:43.0 9:41.0 12:6.0 13:36.0 14:33.0 15:100.0 16:36.0 
1.0 1.0 1.0 1.0 1.0 1.0 1.0 1.0 0.9990575680276733 1:5.0 2:92.0 3:82.0 4:100.0 5:100.0 6:67.0 7:57.0 8:32.0 9:12.0 11:80.0 12:11.0 13:70.0 14:46.0 16:66.0 
1.0 1.0 1.0 1.0 1.0 1.0 1.0 1.0 0.9990510738055699 1:27.0 2:50.0 3:66.0 4:35.0 5:46.0 7:7.0 8:31.0 9:46.0 10:68.0 11:100.0 12:100.0 13:41.0 14:100.0 16:64.0 
1.0 1.0 1.0 1.0 1.0 1.0 0.9993902830245179 1.0 0.9988584075468161 1:100.0 2:100.0 3:46.0 4:95.0 5:51.0 6:59.0 7:75.0 8:25.0 9:30.0 12:17.0 13:43.0 14:46.0 15:83.0 16:78.0 
1.0 1.0 1.0 1.0 1.0 1.0 1.0 1.0 0.9990510674490176 1:49.0 2:62.0 3:71.0 4:100.0 5:100.0 6:81.0 7:83.0 8:39.0 9:57.0 10:1.0 11:78.0 13:51.0 14:33.0 16:49.0 
1.0 1.0 1.0 1.0 1.0 1.0 0.9993503440938005 1.0 0.999193923573002 1:53.0 2:97.0 3:31.0 4:66.0 5:44.0 6:20.0 7:9.0 10:41.0 11:54.0 12:67.0 13:100.0 14:95.0 15:37.0 16:100.0 
1.0 1.0 1.0 1.0 1.0 1.0 1.0 1.0 0.9990510490535192 1:59.0 2:77.0 3:60.0 4:44.0 5:69.0 8:6.0 9:36.0 10:43.0 11:100.0 12:72.0 13:96.0 14:100.0 15:31.0 16:75.0 
1.0 1.0 1.0 1.0 1.0 1.0 1.0 1.0 0.999051051443259 1:55.0 2:100.0 3:43.0 4:41.0 5:100.0 6:42.0 7:61.0 8:96.0 9:45.0 10:43.0 11:10.0 13:98.0 14:20.0 16:27.0 
1.0 1.0 1.0 1.0 1.0 1.0 0.9993503437258949 1.0 0.999172292936867 1:82.0 2:83.0 3:39.0 4:100.0 5:10.0 6:64.0 7:71.0 8:33.0 9:72.0 12:10.0 13:42.0 14:48.0 15:100.0 16:82.0 
1.0 1.0 1.0 1.0 1.0 1.0 1.0 1.0 0.9990477926217658 1:95.0 2:88.0 3:23.0 4:100.0 5:57.0 6:62.0 7:100.0 8:24.0 9:42.0 12:31.0 13:44.0 14:69.0 15:87.0 16:97.0 
1.0 1.0 1.0 1.0 1.0 1.0 1.0 1.0 0.9990389649160424 1:51.0 2:65.0 3:59.0 4:100.0 6:72.0 7:63.0 8:37.0 9:100.0 10:1.0 11:4.0 13:15.0 14:37.0 15:99.0 16:62.0 
1.0 1.0 1.0 1.0 1.0 1.0 1.0 1.0 0.9990389646774473 1:78.0 2:97.0 3:44.0 4:68.0 5:100.0 6:30.0 7:65.0 9:38.0 10:35.0 11:84.0 12:77.0 13:76.0 14:100.0 16:72.0 
1.0 1.0 1.0 1.0 1.0 1.0 1.0 1.0 0.9990389652657252 1:14.0 2:70.0 3:58.0 4:36.0 5:28.0 8:30.0 9:48.0 10:66.0 11:100.0 12:100.0 13:46.0 14:95.0 15:22.0 16:55.0 
1.0 1.0 1.0 1.0 1.0 1.0 0.9994093066559241 1.0 0.9990716729967917 1:68.0 2:90.0 3:62.0 4:80.0 5:100.0 6:34.0 7:54.0 10:21.0 11:55.0 12:58.0 13:97.0 14:100.0 15:29.0 16:96.0 
1.0 1.0 1.0 1.0 1.0 1.0 1.0 1.0 0.9990389648839877 1:100.0 2:100.0 3:41.0 4:92.0 5:20.0 6:60.0 7:38.0 8:24.0 12:24.0 13:47.0 14:48.0 15:97.0 16:71.0 
1.0 1.0 1.0 1.0 1.0 1.0 1.0 1.0 0.9990384675975148 1:55.0 2:95.0 4:100.0 5:26.0 6:67.0 7:64.0 8:33.0 9:50.0 11:16.0 12:29.0 13:47.0 14:63.0 15:100.0 16:90.0 
1.0 1.0 1.0 1.0 1.0 1.0 0.9994155269060929 1.0 0.9988629403802504 1:72.0 2:88.0 3:13.0 4:100.0 6:67.0 7:28.0 8:30.0 9:22.0 11:3.0 12:34.0 13:51.0 14:62.0 15:100.0 16:90.0 
1.0 1.0 1.0 1.0 1.0 1.0 0.9994697392923753 1.0 0.9988629408890056 1:74.0 2:88.0 3:15.0 4:100.0 5:25.0 6:61.0 7:82.0 8:27.0 9:56.0 12:23.0 13:52.0 14:58.0 15:100.0 16:90.0 
1.0 1.0 1.0 1.0 1.0 1.0 0.9994604376013283 1.0 0.9989730692781167 1:67.0 2:73.0 3:40.0 4:100.0 5:10.0 6:69.0 7:34.0 8:31.0 9:29.0 12:24.0 13:51.0 14:47.0 15:100.0 16:72.0 
1.0 1.0 1.0 1.0 1.0 1.0 0.9994155274025888 1.0 0.9992546229422986 1:49.0 2:92.0 3:58.0 4:48.0 5:66.0 6:4.0 9:39.0 10:36.0 11:100.0 12:65.0 13:92.0 14:100.0 15:25.0 16:88.0 
1.0 1.0 1.0 1.0 1.0 1.0 0.9993900171927633 1.0 0.9989338351553542 1:25.0 2:85.0 3:68.0 4:51.0 5:91.0 6:13.0 7:16.0 9:50.0 10:33.0 11:100.0 12:65.0 13:79.0 14:100.0 16:89.0 
1.0 1.0 1.0 1.0 1.0 1.0 0.9994700530835388 1.0 0.999341918095006 1:92.0 2:78.0 3:27.0 4:100.0 6:67.0 7:67.0 8:36.0 9:100.0 11:14.0 12:5.0 13:40.0 14:44.0 15:95.0 16:76.0 
1.0 1.0 1.0 1.0 1.0 1.0 1.0 1.0 0.9990384693031236 1:46.0 2:62.0 3:85.0 4:96.0 5:15.0 6:100.0 7:12.0 8:60.0 9:44.0 10:19.0 13:28.0 14:37.0 15:100.0 16:55.0 
1.0 1.0 1.0 1.0 1.0 1.0 1.0 1.0 0.9990273879189052 1:73.0 2:86.0 3:12.0 4:100.0 6:66.0 7:77.0 8:35.0 9:100.0 11:6.0 12:8.0 13:34.0 14:48.0 15:75.0 16:85.0 
1.0 1.0 1.0 1.0 1.0 1.0 1.0 1.0 0.9989954123430875 1:26.0 2:93.0 3:15.0 4:77.0 5:97.0 6:45.0 7:95.0 8:1.0 11:42.0 12:45.0 13:100.0 14:88.0 15:23.0 16:100.0 
1.0 1.0 1.0 1.0 1.0 1.0 1.0 1.0 0.9989954125549511 1:58.0 2:58.0 3:100.0 4:94.0 5:45.0 6:100.0 7:41.0 8:59.0 9:72.0 10:20.0 11:10.0 14:31.0 15:67.0 16:57.0 
1.0 1.0 1.0 1.0 1.0 1.0 0.9993902707571319 1.0 0.99903896513798 1:80.0 2:89.0 3:52.0 4:97.0 5:46.0 6:49.0 7:59.0 10:6.0 11:51.0 12:44.0 13:100.0 14:84.0 15:49.0 16:100.0 
1.0 1.0 1.0 1.0 1.0 1.0 1.0 1.0 0.9989731025593657 2:57.0 3:35.0 4:95.0 5:100.0 6:100.0 7:95.0 8:57.0 9:53.0 10:19.0 11:43.0 13:60.0 14:38.0 16:63.0 
1.0 1.0 1.0 1.0 1.0 1.0 0.9993503437290462 1.0 0.9989341030720169 1:10.0 2:63.0 3:43.0 4:100.0 5:100.0 6:85.0 7:75.0 8:43.0 9:35.0 10:6.0 11:61.0 13:58.0 14:35.0 16:66.0 
1.0 1.0 1.0 1.0 1.0 1.0 0.9994401245222875 1.0 0.998767482981161 1:100.0 2:93.0 3:47.0 4:100.0 5:7.0 6:70.0 7:43.0 8:32.0 9:27.0 12:32.0 13:36.0 14:70.0 15:83.0 16:100.0 
1.0 1.0 1.0 1.0 1.0 1.0 1.0 1.0 0.9989730908424468 1:64.0 2:87.0 4:100.0 5:35.0 6:53.0 7:78.0 8:6.0 9:19.0 11:61.0 12:41.0 13:100.0 14:82.0 15:44.0 16:78.0 
1.0 1.0 1.0 1.0 1.0 1.0 1.0 1.0 0.9989730802076205 1:100.0 2:100.0 3:21.0 4:84.0 5:41.0 6:44.0 7:79.0 8:6.0 11:33.0 12:39.0 13:80.0 14:76.0 15:49.0 16:97.0 
1.0 1.0 1.0 1.0 1.0 1.0 0.9993503437290462 1.0 0.9989341180133509 1:54.0 2:83.0 3:11.0 4:68.0 5:44.0 6:32.0 7:30.0 10:27.0 11:49.0 12:59.0 13:100.0 14:90.0 15:21.0 16:100.0 
1.0 1.0 1.0 1.0 1.0 1.0 1.0 1.0 0.9989730803281389 1:21.0 2:64.0 3:55.0 4:29.0 5:7.0 8:32.0 9:55.0 10:65.0 11:100.0 12:100.0 13:20.0 14:93.0 15:12.0 16:57.0 
1.0 1.0 1.0 1.0 1.0 1.0 1.0 1.0 0.9989730704607075 1:31.0 2:87.0 3:22.0 4:49.0 5:83.0 6:100.0 8:74.0 9:45.0 10:67.0 11:23.0 13:100.0 14:37.0 15:15.0 16:38.0 
1.0 1.0 1.0 1.0 1.0 1.0 1.0 1.0 0.9989730696431032 1:60.0 2:65.0 3:95.0 4:100.0 5:100.0 6:76.0 7:67.0 8:38.0 9:37.0 11:76.0 12:8.0 13:57.0 14:44.0 16:62.0 
1.0 1.0 1.0 1.0 1.0 1.0 1.0 1.0 0.9989730699776088 1:100.0 2:82.0 3:39.0 4:100.0 5:16.0 6:71.0 7:56.0 8:38.0 9:68.0 10:2.0 13:21.0 14:34.0 15:93.0 16:55.0 
1.0 1.0 1.0 1.0 1.0 1.0 1.0 1.0 0.9989730698203927 1:80.0 2:84.0 3:11.0 4:100.0 5:19.0 6:64.0 7:100.0 8:35.0 9:88.0 12:15.0 13:42.0 14:52.0 15:99.0 16:88.0 
1.0 1.0 1.0 1.0 1.0 1.0 0.9994418480252844 1.0 0.9987707940173228 1:69.0 2:90.0 3:33.0 4:61.0 5:75.0 6:16.0 7:12.0 10:38.0 11:77.0 12:59.0 13:100.0 14:100.0 15:20.0 16:95.0 
1.0 1.0 1.0 1.0 1.0 1.0 1.0 1.0 0.9989730690394694 1:1.0 2:74.0 3:23.0 4:100.0 5:83.0 6:87.0 7:75.0 8:42.0 9:49.0 11:100.0 12:2.0 13:55.0 14:34.0 16:64.0 
1.0 1.0 1.0 1.0 1.0 1.0 1.0 1.0 0.9989730690688801 1:11.0 2:58.0 3:65.0 4:35.0 5:67.0 7:4.0 8:19.0 9:41.0 10:53.0 11:100.0 12:81.0 13:57.0 14:100.0 16:79.0 
1.0 1.0 1.0 1.0 1.0 1.0 1.0 1.0 0.9989730690323197 1:95.0 2:83.0 3:17.0 4:87.0 5:51.0 6:48.0 7:92.0 8:10.0 11:25.0 12:37.0 13:100.0 14:69.0 15:94.0 16:100.0 
1.0 1.0 1.0 1.0 1.0 1.0 0.999461595726541 1.0 0.9988592944257786 1:13.0 2:71.0 3:51.0 4:100.0 5:100.0 6:78.0 7:57.0 8:39.0 9:15.0 11:79.0 12:8.0 13:25.0 14:44.0 16:82.0 
1.0 1.0 1.0 1.0 1.0 1.0 1.0 1.0 0.9989730692657484 1:6.0 2:50.0 3:41.0 4:50.0 5:100.0 6:19.0 7:44.0 9:20.0 10:37.0 11:63.0 12:73.0 13:65.0 14:100.0 16:73.0 
1.0 1.0 1.0 1.0 1.0 1.0 0.9994420251290296 1.0 0.9991938727803065 1:80.0 2:96.0 3:24.0 4:100.0 5:33.0 6:61.0 7:49.0 8:21.0 9:11.0 12:36.0 13:48.0 14:63.0 15:100.0 16:89.0 
1.0 1.0 1.0 1.0 1.0 1.0 1.0 1.0 0.9989729564741894 1:49.0 2:82.0 3:6.0 4:100.0 6:65.0 7:19.0 8:27.0 9:15.0 11:8.0 12:38.0 13:48.0 14:62.0 15:100.0 16:68.0 
1.0 1.0 1.0 1.0 1.0 1.0 0.9993903114043283 1.0 0.9990575698935898 1:76.0 2:76.0 3:39.0 4:100.0 6:76.0 7:41.0 8:39.0 9:73.0 11:17.0 12:7.0 13:35.0 14:47.0 15:100.0 16:69.0 
1.0 1.0 1.0 1.0 1.0 1.0 1.0 1.0 0.9989512118710482 1:100.0 2:100.0 3:42.0 4:100.0 5:1.0 6:71.0 7:18.0 8:33.0 9:14.0 12:32.0 13:36.0 14:64.0 15:83.0 16:92.0 
1.0 1.0 1.0 1.0 1.0 1.0 0.999441833885913 1.0 0.9988696541183631 1:58.0 2:94.0 3:14.0 4:82.0 5:31.0 6:32.0 7:11.0 10:36.0 11:58.0 12:65.0 13:100.0 14:97.0 15:30.0 16:100.0 
1.0 1.0 1.0 1.0 1.0 1.0 1.0 1.0 0.9989341328816084 1:78.0 2:81.0 3:41.0 4:91.0 5:41.0 6:44.0 7:56.0 10:18.0 11:48.0 12:60.0 13:100.0 14:100.0 15:33.0 16:91.0 
1.0 1.0 1.0 1.0 1.0 1.0 1.0 1.0 0.9989341181106786 1:52.0 2:95.0 4:83.0 5:42.0 6:41.0 7:81.0 9:1.0 10:2.0 11:44.0 12:39.0 13:100.0 14:75.0 15:50.0 16:100.0 
1.0 1.0 1.0 1.0 1.0 1.0 0.9994613867284305 1.0 0.9989730696571959 1:32.0 2:63.0 3:76.0 4:31.0 5:50.0 8:14.0 9:50.0 10:44.0 11:100.0 12:73.0 13:78.0 14:100.0 15:24.0 16:75.0 
1.0 1.0 1.0 1.0 1.0 1.0 0.9994149032625179 1.0 0.9989341030694696 1:86.0 2:98.0 3:19.0 4:85.0 5:47.0 6:41.0 7:74.0 10:10.0 11:42.0 12:49.0 13:100.0 14:84.0 15:51.0 16:100.0 
1.0 1.0 1.0 1.0 1.0 1.0 1.0 1.0 0.998934103072357 1:100.0 2:96.0 3:47.0 4:92.0 5:36.0 6:58.0 7:58.0 8:20.0 9:17.0 12:33.0 13:27.0 14:69.0 15:65.0 16:100.0 
1.0 1.0 1.0 1.0 1.0 1.0 1.0 1.0 0.9989340881520297 1:42.0 2:78.0 3:56.0 4:78.0 5:100.0 6:38.0 7:50.0 9:8.0 10:20.0 11:58.0 12:60.0 13:94.0 14:100.0 16:89.0 
1.0 1.0 1.0 1.0 1.0 1.0 1.0 1.0 0.9989340881569226 1:100.0 2:100.0 3:19.0 4:93.0 6:53.0 7:27.0 8:11.0 9:1.0 11:29.0 12:41.0 13:79.0 14:77.0 15:54.0 16:96.0 
1.0 1.0 1.0 1.0 1.0 1.0 1.0 1.0 0.9989340881608832 1:13.0 2:93.0 3:56.0 4:60.0 5:100.0 6:25.0 7:35.0 9:8.0 10:29.0 11:60.0 12:63.0 13:81.0 14:100.0 16:98.0 
1.0 1.0 1.0 1.0 1.0 1.0 0.9998771317618469 1.0 0.9993161369107244 1:38.0 2:76.0 4:91.0 5:39.0 6:45.0 7:75.0 9:24.0 10:12.0 11:58.0 12:58.0 13:100.0 14:100.0 15:37.0 16:94.0 
1.0 1.0 1.0 1.0 1.0 1.0 1.0 1.0 0.9989340881647011 1:28.0 2:60.0 3:15.0 4:100.0 5:100.0 6:98.0 7:74.0 8:50.0 9:21.0 10:6.0 11:76.0 13:23.0 14:43.0 16:87.0 
1.0 1.0 1.0 1.0 1.0 1.0 1.0 1.0 0.9989287716158106 1:100.0 2:88.0 3:47.0 4:100.0 5:28.0 6:62.0 7:74.0 8:27.0 9:55.0 12:19.0 13:32.0 14:60.0 15:86.0 16:88.0 
1.0 1.0 1.0 1.0 1.0 1.0 1.0 1.0 0.9989287716996549 1:77.0 2:100.0 3:41.0 4:79.0 5:56.0 6:38.0 7:34.0 10:19.0 11:53.0 12:50.0 13:100.0 14:82.0 15:39.0 16:94.0 
1.0 1.0 1.0 1.0 1.0 1.0 0.9993618648611695 1.0 0.9989730913512392 1:12.0 2:52.0 3:65.0 4:54.0 5:100.0 6:23.0 7:47.0 9:39.0 10:33.0 11:74.0 12:67.0 13:68.0 14:100.0 16:90.0 
1.0 1.0 1.0 1.0 1.0 1.0 1.0 1.0 0.9989241009097269 1:57.0 2:90.0 4:88.0 5:46.0 6:52.0 7:100.0 8:19.0 9:39.0 11:33.0 12:37.0 13:69.0 14:75.0 15:39.0 16:100.0 
1.0 1.0 1.0 1.0 1.0 1.0 1.0 1.0 0.9989241009105796 1:39.0 2:100.0 3:75.0 4:61.0 5:100.0 6:98.0 7:34.0 8:81.0 9:9.0 10:30.0 11:72.0 13:83.0 14:45.0 16:50.0 
1.0 1.0 1.0 1.0 1.0 1.0 0.9999999971985386 1.0 0.9993351423486864 1:77.0 2:100.0 4:87.0 5:36.0 6:41.0 7:60.0 9:6.0 10:19.0 11:70.0 12:56.0 13:100.0 14:97.0 15:12.0 16:90.0 
1.0 1.0 1.0 1.0 1.0 1.0 0.9994799002312372 1.0 0.9990581443575905 1:83.0 2:100.0 3:9.0 4:87.0 5:57.0 6:44.0 7:60.0 10:17.0 11:56.0 12:56.0 13:100.0 14:95.0 15:10.0 16:100.0 
1.0 1.0 1.0 1.0 1.0 1.0 1.0 1.0 0.9989241009233274 1:38.0 2:54.0 3:100.0 4:82.0 5:64.0 6:100.0 7:34.0 8:65.0 9:60.0 10:27.0 11:17.0 14:32.0 15:59.0 16:62.0 
1.0 1.0 1.0 1.0 1.0 1.0 1.0 1.0 0.998914775711898 1:51.0 2:58.0 3:83.0 4:100.0 6:92.0 7:3.0 8:49.0 9:68.0 10:10.0 11:13.0 13:15.0 14:43.0 15:100.0 16:77.0 
1.0 1.0 1.0 1.0 1.0 1.0 1.0 1.0 0.9988839850583685 1:3.0 2:83.0 3:47.0 4:67.0 5:51.0 6:25.0 9:11.0 10:37.0 11:65.0 12:69.0 13:100.0 14:100.0 15:21.0 16:92.0 
1.0 1.0 1.0 1.0 1.0 1.0 1.0 1.0 0.9988774334147297 1:85.0 2:52.0 3:85.0 4:98.0 6:79.0 7:65.0 8:39.0 9:100.0 11:9.0 12:13.0 13:62.0 14:56.0 15:100.0 16:100.0 
1.0 1.0 1.0 1.0 1.0 1.0 1.0 1.0 0.9988774332086547 2:63.0 3:56.0 4:35.0 5:98.0 7:41.0 8:1.0 9:62.0 10:39.0 11:100.0 12:74.0 13:69.0 14:100.0 15:10.0 16:74.0 
